{"version": 1, "layers": [{"w": [[0.07251301407814026, -0.025115633383393288, 0.12736742198467255, -0.22457897663116455, -0.4185963273048401, 0.025344811379909515, -0.1652689129114151, -0.33772096037864685, 0.02434600330889225, 0.030805081129074097, -0.3532164990901947, 0.4568280875682831, 0.11671378463506699, -0.2722243368625641, 0.4456152319908142, -0.2923988401889801, 0.057130806148052216, -0.2671116590499878, 0.11909206956624985, -0.42970165610313416, 0.11998311430215836, -0.3102441728115082, 0.05047912523150444, -0.02317390777170658, 0.19233955442905426, -0.04199153929948807, 0.3836567997932434, 0.35364827513694763, 0.24089525640010834, 0.09391949325799942, 0.31647053360939026, 0.329296350479126], [-0.4449886381626129, 0.1712477058172226, 0.09765952825546265, 0.12796583771705627, 0.31829264760017395, -0.18492428958415985, 0.16766683757305145, -0.4412406384944916, 0.02248336933553219, 0.2401048094034195, 0.013570656068623066, -0.648880660533905, 0.25342002511024475, -0.003749655792489648, 0.13075092434883118, 0.09614751487970352, -0.0026761398185044527, 0.2007884383201599, -0.540590226650238, 0.3781157433986664, 0.3198499083518982, 0.03967968001961708, -0.3064148724079132, 0.13201908767223358, 0.11150150746107101, 0.04038287326693535, 0.3970376253128052, 0.20465087890625, 0.12732335925102234, -0.09069441258907318, -0.054600853472948074, -0.06372693926095963], [-0.49961236119270325, 0.030437953770160675, -0.3283872604370117, -0.45664680004119873, 0.04998520761728287, -0.24434593319892883, -0.474726140499115, -0.08192796260118484, 0.12152731418609619, -0.27095308899879456, 0.27908188104629517, 0.4397890865802765, -0.14509135484695435, -0.16167081892490387, 0.17680564522743225, 0.059310417622327805, -0.2758283019065857, -0.10159414261579514, -0.3495028614997864, 0.16145966947078705, -0.39603981375694275, -0.8475440740585327, 0.29634642601013184, 0.4124692380428314, -0.33136144280433655, 0.34386059641838074, -0.4880533814430237, -0.13764898478984833, -0.3780671954154968, 0.11264864355325699, -0.4853157103061676, 0.5680197477340698], [0.12592174112796783, 0.3590635359287262, 0.28266236186027527, 0.3329084515571594, -0.2086314707994461, 0.10834502428770065, 0.000760359747800976, 0.28424471616744995, -0.23533646762371063, 0.018211275339126587, -0.3970251679420471, 0.2006794512271881, 0.10582132637500763, -0.1074967235326767, 0.2472454309463501, -0.24937470257282257, -0.304353803396225, 0.0181618370115757, 0.1626805067062378, 0.2581791281700134, -0.012214920483529568, 0.3797062933444977, 0.3239651620388031, 0.6037548184394836, 0.2318233698606491, 0.12954433262348175, 0.20775867998600006, -0.1227884590625763, -0.12867805361747742, -0.22892671823501587, -0.13646414875984192, -0.43857139348983765], [0.051952652633190155, -0.32482829689979553, 0.5047685503959656, -0.36339104175567627, -0.10964465141296387, -0.1213289350271225, -0.03344140201807022, -0.18821954727172852, -0.5344113111495972, 0.07072348892688751, -0.19045725464820862, -0.30311620235443115, -0.35087260603904724, 0.14148907363414764, -0.6510260105133057, -0.07292301207780838, -0.017615193501114845, -0.4566766023635864, -0.09814377129077911, 0.01761520281434059, -0.17713409662246704, -0.10448179394006729, -0.0036357047501951456, 0.11484058946371078, 0.1793883889913559, -0.09726494550704956, 0.10906185954809189, 0.09711075574159622, -0.24284511804580688, -0.08202844113111496, 0.32200533151626587, -0.3685118556022644], [0.021081190556287766, 0.3628605604171753, -0.08173958957195282, -0.2738512456417084, -0.11071842163801193, -0.13237127661705017, -0.1332377791404724, -0.33046042919158936, 0.269191175699234, -0.23746776580810547, -0.5219523310661316, 0.4745970666408539, 0.17637325823307037, 0.012411740608513355, -0.37797272205352783, 0.14499612152576447, 0.3687054216861725, 0.577167809009552, 0.07103975117206573, -0.04127027839422226, -0.006391734816133976, -0.1379455178976059, 0.21611063182353973, -0.25239095091819763, -0.30646681785583496, 0.3802684247493744, -0.0033026323653757572, 0.03245823085308075, -0.3617382049560547, -0.11099407821893692, -0.06652582436800003, -0.0800926461815834], [-0.2542702555656433, 0.26203954219818115, -0.23280753195285797, 0.26242080330848694, -0.04053816944360733, 0.2790887653827667, -0.3046024739742279, 0.10876548290252686, 0.4023318588733673, -0.31849831342697144, -0.22803466022014618, -0.24688535928726196, 0.2526080012321472, -0.024258365854620934, -0.3592378497123718, -0.5233932733535767, -0.09619849920272827, -0.17781969904899597, 0.2187650203704834, 0.21462510526180267, -0.35528165102005005, -0.33006763458251953, 0.21771779656410217, -0.4005123972892761, 0.05543045699596405, -0.40156733989715576, 0.059383172541856766, 0.07955120503902435, -0.06575167179107666, -0.1972341388463974, -0.19230994582176208, 0.24915409088134766], [0.45099925994873047, -0.07940996438264847, -0.09701275825500488, 0.49032318592071533, 0.1666080206632614, -0.30816084146499634, -0.03039669059216976, -0.28796860575675964, -0.5242434740066528, -0.2248682975769043, -0.09230829030275345, -0.254128634929657, -0.15231014788150787, -0.05127466842532158, 0.05019963160157204, -0.3055536150932312, 0.011027193628251553, -0.060935456305742264, -0.07367565482854843, -0.07262441515922546, 0.4976298213005066, 0.0637311339378357, 0.04510585218667984, -0.25968068838119507, 0.060765642672777176, 0.055324722081422806, -0.27825498580932617, 0.299733430147171, -0.32097285985946655, 0.2152474820613861, -0.27046653628349304, 0.015398664399981499], [0.13318856060504913, 0.01223916094750166, 0.2715435028076172, 0.02646629698574543, -0.49063336849212646, 0.20081984996795654, -0.30048704147338867, 0.16957096755504608, 0.26675093173980713, 0.20504894852638245, 0.2844655215740204, -0.26298511028289795, -0.1788972020149231, 0.5494527220726013, 0.08818608522415161, 0.3044764995574951, 0.16862469911575317, -0.09487223625183105, -0.13538871705532074, 0.12468583881855011, 0.1704946905374527, -0.32813510298728943, -0.47098299860954285, -0.025355810299515724, -0.3271600604057312, 0.14460788667201996, -0.5030030012130737, 0.006167376413941383, -0.2630174458026886, -0.317796915769577, -0.4827116131782532, 0.16498631238937378], [0.179231658577919, -0.42170917987823486, 0.2972761392593384, 0.26835498213768005, -0.1746498942375183, -0.021320514380931854, 0.2692124843597412, 0.35940372943878174, 0.07851205766201019, -0.562616229057312, 0.5732699632644653, -0.05298684537410736, -0.6528708934783936, -0.010431542992591858, -0.29706811904907227, 0.028492044657468796, 0.33775952458381653, -0.12164664268493652, -0.9630810022354126, -0.09776216000318527, 0.257551908493042, 0.06980054080486298, 0.059267010539770126, 0.06850696355104446, 0.01547308824956417, 0.24888069927692413, 0.0875634029507637, 0.09796618670225143, 0.3450872302055359, -0.552681028842926, 0.1264495998620987, -0.04232453182339668], [-0.06773345172405243, 0.11056935042142868, 0.014579202979803085, 0.501623809337616, -0.23602980375289917, 0.026234883815050125, 0.1720043569803238, -0.40893012285232544, -0.38672059774398804, 0.40093010663986206, 0.26649993658065796, -0.061718109995126724, -0.24491280317306519, 0.6868454217910767, -0.21736113727092743, 0.2713375389575958, 0.3177086114883423, 0.1208900734782219, -0.3703397214412689, -0.3483806550502777, -0.03356679156422615, 0.14822381734848022, 0.4237216114997864, 0.1977730393409729, 0.2406788170337677, -0.3058716058731079, -0.0735490471124649, -0.06683409959077835, 0.04086405783891678, -0.1088830828666687, -0.07354243844747543, 0.4644736051559448], [0.3964308500289917, -0.17114070057868958, 0.00964164175093174, 0.32598888874053955, -0.23957443237304688, -0.1241593211889267, 0.408444344997406, -0.1114291250705719, -0.06892908364534378, 0.33389362692832947, -0.08591272681951523, -0.48043686151504517, 0.2120191603899002, -0.6727578639984131, -0.4272608160972595, -0.10993734002113342, 0.1447727084159851, 0.3165090084075928, 0.38222411274909973, 0.30220288038253784, 0.13122157752513885, 0.24289660155773163, -0.15692965686321259, 0.5616602301597595, 0.08508463203907013, 0.05051914602518082, -0.07655242830514908, -0.036194443702697754, 0.19843344390392303, -0.08406908810138702, 0.3115835189819336, 0.445735901594162]], "b": [-0.054869476705789566, 0.059586409479379654, -0.07602103799581528, -0.02402646467089653, -0.0318034365773201, -0.09094801545143127, 0.07907094806432724, -0.03054460510611534, 0.0031231336761265993, -0.1007489264011383, -0.004293352365493774, 0.067719005048275, 0.12016493827104568, -0.12906573712825775, 0.05083991587162018, -0.11295968294143677, -0.07454352080821991, 0.04897690191864967, 0.14132387936115265, -0.09450143575668335, -0.05450475588440895, 0.15850529074668884, 0.11530271917581558, 0.0005375657929107547, 0.05708706006407738, -0.06176278367638588, 0.020913828164339066, -0.03885675221681595, 0.033113837242126465, -0.008369813673198223, 0.15309470891952515, -0.07228872925043106]}, {"w": [[0.2712647616863251, 0.2734070420265198, -0.43951213359832764, -0.36857089400291443, -0.22832395136356354, 0.06841150671243668, 0.08820044994354248, -0.4689202606678009, -0.21419548988342285, -0.020033279433846474, 0.3800411820411682, -0.10251176357269287, 0.37611979246139526, 0.4021024703979492, 0.004502416588366032, 0.5444962978363037], [0.017224660143256187, -0.06410426646471024, 0.06603188812732697, 0.10664993524551392, 0.330038458108902, 0.284246563911438, 0.5731096267700195, -0.2550811767578125, 0.20687423646450043, 0.17577309906482697, -0.1932009607553482, 0.2616189122200012, -0.125258207321167, 0.10919740051031113, 0.2668187618255615, -0.21970154345035553], [-0.12298840284347534, 0.11098863184452057, -0.17619483172893524, -0.18723022937774658, -0.09668468683958054, -0.3843686580657959, -0.3463703989982605, -0.08893277496099472, -0.017131982371211052, 0.46047788858413696, -0.12646761536598206, 0.364795058965683, 0.31342923641204834, -0.11085431277751923, 0.2374197393655777, 0.31648245453834534], [0.301871120929718, 0.272254079580307, -0.05449466407299042, -0.22153106331825256, -0.28350016474723816, -0.5446855425834656, 0.19277673959732056, -0.16273973882198334, -0.5817517638206482, 0.013378305360674858, 0.0267026424407959, -0.04207443818449974, -0.21024715900421143, -0.16908282041549683, 0.23963893949985504, 0.030924050137400627], [0.35616105794906616, -0.04843723773956299, -0.41741615533828735, -0.007432715035974979, -0.17010702192783356, 0.3043931722640991, 0.1535361260175705, 0.3374428451061249, 0.3887314200401306, -0.2728174924850464, 0.01795370504260063, 0.06428138166666031, 0.1081455796957016, 0.49949514865875244, 0.05099237337708473, 0.07220737636089325], [0.15787479281425476, -0.013003570027649403, 0.007604686077684164, -0.04489852115511894, 0.12484607100486755, -0.012984302826225758, -0.32394281029701233, -0.5045897364616394, -0.1007181704044342, -0.37690508365631104, -0.17765620350837708, -0.15052157640457153, -0.26880544424057007, 0.011067923158407211, -0.24159114062786102, 0.030479473993182182], [0.04573135823011398, 0.5435946583747864, 0.4526516795158386, -0.3107982277870178, -0.36888396739959717, 0.2633657157421112, -0.04768652841448784, -0.05847451835870743, 0.28846490383148193, -0.16570264101028442, -0.3363858759403229, 0.07514030486345291, 0.0602043978869915, -0.4318912923336029, 0.31590011715888977, 0.5517293810844421], [0.08929102122783661, 0.1038588136434555, -0.09626567363739014, 0.2685173451900482, -0.12306635826826096, 0.12353231757879257, -0.6920554637908936, 0.4438955783843994, -0.2830218970775604, -0.02672935090959072, -0.2016916573047638, -0.10404924303293228, -0.05964510887861252, 0.216447114944458, 0.3462049067020416, 0.04370136559009552], [0.031961098313331604, 0.334786593914032, -0.11537248641252518, 0.30865249037742615, 0.26905128359794617, 0.46947118639945984, -0.1533673256635666, -0.2534484565258026, 0.2063702791929245, 0.08541104942560196, 0.3658132553100586, -0.1692025363445282, -0.1736772507429123, 0.039246782660484314, -0.4195827543735504, -0.18593282997608185], [0.3891045153141022, -0.11192572116851807, -0.22551725804805756, -0.08449910581111908, -0.18030892312526703, -0.05072881653904915, 0.39688360691070557, -0.08447764068841934, 0.001814578310586512, -0.2328561246395111, 0.03833083435893059, -0.15313702821731567, -0.006776811555027962, -0.4930519759654999, 0.270735502243042, -0.16522690653800964], [0.13672000169754028, -0.14706023037433624, 0.16253842413425446, 0.29786932468414307, -0.021067967638373375, -0.3001944422721863, -0.25131624937057495, -0.018516357988119125, 0.470150887966156, 0.17941388487815857, 0.5095444321632385, 0.12755072116851807, 0.18131005764007568, -0.39696213603019714, -0.08176091313362122, 0.4308120608329773], [-0.5955759286880493, -0.10122396796941757, -0.18380093574523926, 0.38401737809181213, 0.05405198037624359, 0.35071855783462524, 0.07957497239112854, 0.14647775888442993, -0.061680134385824203, 0.07196001708507538, -0.12341217696666718, -0.19101984798908234, 0.7146505117416382, 0.3354279398918152, -0.5261242389678955, -0.23494397103786469], [-0.1902836561203003, 0.3429039418697357, 0.12453986704349518, -0.06924081593751907, 0.20636360347270966, 0.30078819394111633, 0.5493374466896057, -0.062255725264549255, -0.20679903030395508, 0.12664446234703064, -0.1415477991104126, -0.38398492336273193, 0.09918603301048279, 0.03154311329126358, 0.4109366536140442, -0.2697242200374603], [0.371440052986145, -0.6401976943016052, -0.1975761502981186, 0.08479119092226028, 0.1503366231918335, 0.20463544130325317, -0.4909228980541229, -0.11837165802717209, -0.26490601897239685, 0.11377830803394318, 0.01364468690007925, 0.2534334361553192, -0.4233854115009308, -0.08200807124376297, 0.02494010515511036, 0.19813133776187897], [-0.31617027521133423, 0.37743479013442993, -0.24402926862239838, 0.49514392018318176, 0.14884209632873535, -0.0995551124215126, -0.16848218441009521, -0.23136624693870544, 0.40825578570365906, 0.18957096338272095, -0.4114640951156616, -0.20228847861289978, -0.33959871530532837, 0.192080557346344, -0.2136448621749878, -0.05062051862478256], [0.4404982328414917, -0.0217694453895092, 0.02374015934765339, 0.5245075821876526, -0.36506664752960205, -0.30967727303504944, -0.19636356830596924, 0.09691096097230911, -0.12415310740470886, 0.06266779452562332, 0.3088524341583252, 0.29369986057281494, 0.09787242114543915, -0.15563344955444336, -0.21904778480529785, 0.23040008544921875], [0.01271791197359562, -0.3741045594215393, -0.03642875701189041, -0.20732074975967407, -0.7233174443244934, -0.03979941084980965, -0.27664679288864136, 0.06320907920598984, 0.1752244234085083, 0.5087341070175171, 0.07736820727586746, 0.19558562338352203, -0.07097796350717545, 0.1477132886648178, -0.1042742133140564, -0.46868225932121277], [0.2630632519721985, 0.375007688999176, 0.4328514635562897, -0.24157832562923431, -0.017514098435640335, -0.29864832758903503, 0.024391038343310356, -0.3165024220943451, 0.3380362391471863, 0.07253386825323105, 0.024177836254239082, 0.1603073924779892, 0.1139969527721405, 0.18017764389514923, 0.05946202203631401, -0.47174742817878723], [0.01959565468132496, 0.6599396467208862, -0.43339136242866516, -0.1410399228334427, 0.46343058347702026, -0.017726806923747063, 0.6455017924308777, 0.3727542757987976, -0.16304518282413483, 0.09023253619670868, -0.6169265508651733, 0.29030293226242065, -0.10382464528083801, 0.32269421219825745, -0.23948921263217926, -0.17218896746635437], [0.1171342059969902, 0.3707728683948517, 0.09766421467065811, -0.034773439168930054, 0.0851537436246872, -0.03630785644054413, -0.04387791082262993, 0.3801875114440918, 0.2106039971113205, -0.308992862701416, 0.7816324830055237, -0.06920786201953888, -0.48605260252952576, 0.14362746477127075, 0.09216422587633133, -0.17340286076068878], [-0.0016568785067647696, 0.09914877265691757, 0.6076825857162476, 0.19273966550827026, -0.10780955851078033, 0.12630429863929749, 0.03764951601624489, -0.06926475465297699, -0.38776910305023193, 0.47189000248908997, 0.4145210087299347, 0.06634092330932617, -0.17977899312973022, 0.33866384625434875, 0.48893052339553833, 0.3939807116985321], [0.1351296454668045, 0.33365073800086975, 0.21695663034915924, -0.8854262232780457, 0.06634809821844101, -0.38875138759613037, 0.12493716180324554, 0.14074207842350006, -0.11048813909292221, 0.36621835827827454, -0.06771220266819, -0.23142695426940918, 0.06501614302396774, 0.15033693611621857, -0.08750348538160324, 0.21290110051631927], [-0.41358011960983276, -0.28733083605766296, 0.04935783892869949, 0.229125514626503, -0.16197256743907928, 0.027103500440716743, 0.3525930941104889, 0.1050649955868721, -6.217649934114888e-05, -0.24957260489463806, -0.22365683317184448, 0.08029551059007645, 0.20600788295269012, 0.27497556805610657, -0.16547898948192596, 0.3552437722682953], [-0.2377893328666687, -0.14176079630851746, 0.26241472363471985, -0.11849717795848846, 0.062433380633592606, -0.3761165142059326, 0.0700455978512764, 0.17783764004707336, -0.20864078402519226, 0.014929553493857384, 0.09767350554466248, -0.6849341988563538, -0.07859238237142563, -0.15865391492843628, -0.23100456595420837, 0.11596167832612991], [0.08026222884654999, 0.03261306881904602, -0.12517592310905457, 0.017529558390378952, -0.35343942046165466, -0.42044442892074585, 0.5218462944030762, 0.09303134679794312, 0.3252674639225006, 0.37793681025505066, -0.11626076698303223, -0.34441885352134705, -0.4354343116283417, 0.036353424191474915, 0.12143901735544205, 0.4639730155467987], [0.3532697856426239, -0.05456700176000595, 0.029284361749887466, 0.27843359112739563, 0.09612126648426056, 0.08842291682958603, -0.12740878760814667, -0.21337544918060303, 0.07032645493745804, 0.039725884795188904, -0.1737254559993744, -0.30763617157936096, 0.4878690242767334, 0.010648513212800026, -0.1839817762374878, -0.0541357696056366], [0.07522017508745193, 0.33330807089805603, -0.0031360939610749483, -0.5065656304359436, -0.15964509546756744, 0.5118980407714844, 0.10907893627882004, 0.4861583709716797, -0.11220208555459976, 0.3722943365573883, -0.1710285097360611, -0.08365843445062637, -0.0763072669506073, -0.41403326392173767, -0.33574432134628296, 0.3004862070083618], [0.06487329304218292, -0.4878445267677307, 0.27773916721343994, -0.4068775177001953, 0.09798882901668549, -0.001346574048511684, -0.13750521838665009, -0.06530749797821045, 0.2595531940460205, -0.018148548901081085, -0.24653008580207825, -0.15090879797935486, -0.13635499775409698, 0.47491905093193054, -0.09753641486167908, 0.4027487635612488], [0.07201695442199707, 0.3048188090324402, 0.11367489397525787, -0.16839401423931122, -0.14589104056358337, -0.3928055763244629, -0.25006234645843506, 0.3766782879829407, 0.11560044437646866, -0.3004814386367798, -0.2686102092266083, -0.23426435887813568, 0.2782995104789734, 0.1480662226676941, 0.44470182061195374, 0.22085969150066376], [-0.19454161822795868, -0.05268294736742973, -0.023318225517868996, -0.003775821765884757, 0.6474915742874146, -0.08678998798131943, 0.10760867595672607, 0.13398078083992004, -0.028923990204930305, -0.24215929210186005, 0.09066922217607498, 0.6186849474906921, 0.08443675190210342, 0.00443642120808363, -0.29550376534461975, 0.08406591415405273], [-0.7089682221412659, 0.15498758852481842, -0.6408504843711853, -0.5423174500465393, 0.041090574115514755, -0.04542894288897514, -0.003936664201319218, -0.1148703396320343, 0.15321840345859528, 0.10886331647634506, 0.04370385408401489, -0.18115077912807465, 0.0013977444032207131, -0.1431768834590912, 0.5308218002319336, 0.21184995770454407], [0.4962840974330902, -0.33608630299568176, -0.045565031468868256, 0.2914440631866455, 0.7376222610473633, 0.04551856592297554, -0.08901050686836243, 0.17142066359519958, 0.2679074704647064, 0.42475730180740356, 0.13843093812465668, -0.2756519019603729, 0.25689566135406494, -0.14166010916233063, 0.2403702288866043, -0.22377337515354156]], "b": [-0.12218263000249863, 0.059133175760507584, 0.023972468450665474, -0.06576550751924515, 0.018122876062989235, -0.012430408969521523, 0.1080307886004448, 0.004689102526754141, 0.01292748749256134, 0.0513123944401741, -0.0714133158326149, -0.10143259912729263, 0.02167375013232231, 0.010112750343978405, 0.046506740152835846, -0.012351417914032936]}, {"w": [[-0.13284340500831604, -0.21203769743442535, 0.30438730120658875, -0.18169106543064117, 0.13233594596385956], [-0.37182101607322693, 0.533129096031189, 0.10651590675115585, -0.2919061481952667, -0.1193535178899765], [-0.24904577434062958, -0.05568096786737442, 0.13174578547477722, 0.02825986035168171, 0.12820933759212494], [0.20645108819007874, -0.49937310814857483, 0.27778053283691406, 0.4851675033569336, -0.19920776784420013], [0.15053203701972961, 0.0018667005933821201, 0.3301664888858795, 0.048899099230766296, -0.40613824129104614], [0.32288891077041626, -0.10062570869922638, 0.04608604684472084, 0.09352505207061768, -0.2792712152004242], [0.2188752293586731, 0.4599667489528656, 0.05875866115093231, -0.5054606199264526, -0.32688194513320923], [0.18415866792201996, -0.015467995777726173, -0.13449713587760925, 0.012228243984282017, -0.08943499624729156], [0.13858292996883392, -0.11972492188215256, 0.018452703952789307, 0.06015113368630409, -0.1262855976819992], [-0.18961268663406372, 0.0831303521990776, 0.05293400585651398, -0.01219252496957779, 0.11268619447946548], [-0.14003905653953552, -0.315755158662796, 0.19058023393154144, 0.061791058629751205, 0.16925981640815735], [0.2087283581495285, -0.14265330135822296, -0.08074332028627396, -0.0007306848419830203, -0.04660220816731453], [0.19786033034324646, -0.1065123975276947, -0.17225459218025208, 0.1805233657360077, -0.06691934168338776], [0.19031473994255066, -0.03384765237569809, -0.07608048617839813, 0.07621462643146515, -0.15790899097919464], [-0.295989453792572, 0.20738351345062256, -0.0037032831460237503, -0.15973423421382904, 0.15568344295024872], [-0.23701776564121246, 0.07323005795478821, -0.40995755791664124, 0.02646353654563427, 0.4512084424495697]], "b": [-0.14905138313770294, 0.14511358737945557, 0.09382311254739761, -0.08213918656110764, 0.047342900186777115]}]}