{"version": 2, "layers": [{"w": [[-0.012699051760137081, 0.08900348097085953, -0.13561564683914185, 0.018529843538999557, -0.20851309597492218, -0.0611228309571743, -0.10789881646633148, 0.046775177121162415, -0.3900677561759949, -0.3017274737358093, -0.23030655086040497, -0.14464081823825836, -0.23914024233818054, -0.3594811260700226, 0.13305024802684784, 0.0740448459982872, 0.026493756100535393, -0.06531380861997604, -0.31548893451690674, -0.01984916441142559, 0.1690831184387207, 0.19182777404785156, 0.08632782846689224, 0.048211537301540375, -0.02912008762359619, 0.09243979305028915, 0.1595451831817627, 0.1472858488559723, 0.08689895272254944, 0.2501262426376343, 0.14687468111515045, -0.27942603826522827, 0.1408279985189438, 0.13243800401687622, -0.1967485249042511, -0.26028576493263245, -0.261398583650589, -0.14322398602962494, 0.1661348193883896, -0.19489102065563202, -0.0535205714404583, 0.07280053198337555, 0.22586499154567719, -0.0948469340801239, 0.2868245840072632, -0.1235923022031784, -0.024368369951844215, 0.161922425031662, 0.15471836924552917, 0.2065325230360031, -0.08382956683635712, 0.03343759477138519, 0.1388767659664154, 0.14760297536849976, 0.0797598734498024, -0.15619789063930511, -0.023304782807826996, -0.16883042454719543, -0.18558302521705627, 0.00837379414588213, -0.06412619352340698, -0.2921333312988281, -0.2625043988227844, 0.37000179290771484], [0.29003849625587463, 0.001855220994912088, 0.1805766075849533, 0.008462130092084408, 0.11905492842197418, 0.3601945638656616, -0.024037038907408714, 0.22197642922401428, -0.29540205001831055, -0.0014373166486620903, 0.19350704550743103, 0.2797850966453552, 0.3425371050834656, 0.2901965379714966, 0.07801146060228348, -0.1358613669872284, -0.303506463766098, 0.18829810619354248, 0.18315766751766205, -0.05482766032218933, -0.021016180515289307, -0.1859292984008789, 0.25634559988975525, 0.3132511079311371, -0.13136647641658783, -0.024275589734315872, 0.1601637303829193, -0.08576858788728714, 0.23858313262462616, -0.15273897349834442, -0.21617349982261658, 0.13585276901721954, -0.1364782154560089, -0.015098240226507187, -0.07342487573623657, -0.17457662522792816, -0.07049313187599182, -0.3879522383213043, -0.2608488202095032, 0.047131601721048355, -0.26961609721183777, -0.12623898684978485, 0.29496660828590393, -0.05449652299284935, 0.18578188121318817, -0.0378335602581501, -0.04579709842801094, -0.09205858409404755, -0.3008996248245239, 0.0775224044919014, -0.0954081118106842, -0.16967324912548065, 0.4272215962409973, 0.04044131934642792, 0.22787632048130035, -0.08898962289094925, 0.3242250084877014, -0.0028175588231533766, 0.23913656175136566, -0.09704577922821045, -0.3041307032108307, 0.06577622890472412, 0.023028453812003136, 0.15738308429718018], [-0.02650502510368824, -0.10408075153827667, -0.2696509063243866, -0.0744013786315918, -0.16175904870033264, 0.0828525498509407, 0.24330517649650574, -0.07901968061923981, 0.19802123308181763, -0.13295495510101318, -0.299550324678421, 0.020342960953712463, -0.21322470903396606, 0.29476502537727356, -0.1713757961988449, 0.1016589030623436, -0.16512925922870636, -0.11897068470716476, -0.1304478496313095, -0.14825135469436646, 0.03359981253743172, 0.11714368313550949, 0.16711679100990295, 0.03928511217236519, -0.29815953969955444, -0.1931658238172531, 0.05169104039669037, 0.21453295648097992, -0.3121691644191742, -0.2483283281326294, -0.24022485315799713, -0.38184654712677, 0.22412091493606567, 0.06696608662605286, 0.07594422996044159, 0.03885126858949661, 0.005660912021994591, 0.3005632162094116, 0.05405121296644211, -0.009476332925260067, 0.0051348768174648285, 0.2069239318370819, 0.0023596950341016054, -0.2689453363418579, 0.18351387977600098, 0.16035370528697968, 0.15949773788452148, 0.14471009373664856, 0.14400357007980347, -0.10763133317232132, 0.20840871334075928, -0.21736694872379303, 0.034692827612161636, -0.4246254563331604, 0.18853001296520233, 0.01491340808570385, 0.06121617555618286, -0.13948474824428558, -0.37248802185058594, -0.07399594783782959, -0.12325633317232132, 0.385061651468277, 0.08502308279275894, -0.007812857627868652], [-0.125202938914299, 0.10408809036016464, 0.38068726658821106, -0.031371504068374634, -0.5161488652229309, -0.01328349206596613, 0.08670303225517273, 0.3330830931663513, 0.3714759945869446, -0.22349080443382263, -0.1169402003288269, 0.13905680179595947, -0.09445489197969437, 0.22709254920482635, 0.21033374965190887, -0.03255675360560417, -0.11139439791440964, -0.0197162888944149, 0.01617117039859295, -0.07146821916103363, -0.0034424173645675182, -0.14797112345695496, -0.19462528824806213, -0.31381338834762573, 0.013689513318240643, -0.2565626800060272, -0.05428531765937805, -0.2114320546388626, 0.28430259227752686, 0.08450988680124283, 0.1200624406337738, -0.005306546110659838, -0.09637576341629028, -0.0638074055314064, -0.004343830514699221, 0.034255433827638626, -0.09251747280359268, -0.14087674021720886, -0.036297719925642014, -0.2061181515455246, -0.1481245458126068, 0.09782424569129944, 0.18141186237335205, 0.03237273171544075, -0.14594577252864838, 0.05134302005171776, 0.05577864497900009, -0.06281986087560654, 0.3751610815525055, 0.25586846470832825, 0.0367412194609642, -0.02419091761112213, -0.39867880940437317, 0.1910247653722763, 0.12693309783935547, 0.02659003622829914, 0.11230126768350601, -0.11242296546697617, -0.07647226005792618, -0.11848194152116776, 0.0072409529238939285, 0.1128111481666565, -0.1468677669763565, -0.18392790853977203], [-0.04840347170829773, -0.0047239321283996105, -0.08735748380422592, 0.2918195128440857, 0.056945156306028366, 0.21548180282115936, 0.14930956065654755, 0.2991541624069214, 0.036298319697380066, -0.11606519669294357, 0.24616506695747375, -0.19647350907325745, 0.0907292440533638, 0.2667648494243622, -0.24615387618541718, -0.09811865538358688, -0.02061142586171627, 0.2587848901748657, -0.41670718789100647, -0.11754009127616882, 0.2641308307647705, 0.33090391755104065, -0.06813473254442215, -0.3488636016845703, -0.05840899795293808, 0.21770429611206055, -0.08662155270576477, 0.034578610211610794, -0.11325513571500778, 0.1466607302427292, 0.0999378189444542, -0.02981165051460266, 0.3792959451675415, 0.22351889312267303, 0.29451388120651245, -0.2144872397184372, -0.1837346851825714, -0.055125121027231216, 0.13235728442668915, -0.07068528980016708, 0.20298658311367035, 0.300947368144989, 0.08364539593458176, 0.058647554367780685, 0.17324887216091156, -0.11227156966924667, 0.08963038772344589, -0.3323121964931488, -0.17911958694458008, 0.09393651783466339, -0.16556596755981445, -0.36362525820732117, -0.23033173382282257, -0.0048986501060426235, -0.09090274572372437, -0.2742156386375427, 0.022292735055088997, -0.0189786646515131, 0.08153274655342102, 0.15880806744098663, -0.03308975324034691, 0.02848234958946705, 0.10342970490455627, -0.15787135064601898], [-0.13076530396938324, -0.21878603100776672, 0.03606531769037247, -0.07176602631807327, 0.43367061018943787, 0.003329339437186718, -0.15645956993103027, -0.10041086375713348, 0.17332151532173157, 0.03713272139430046, -0.014280041679739952, 0.011522832326591015, 0.12420675903558731, 0.3637758493423462, -0.08618320524692535, -0.1681929975748062, -0.3961535394191742, 0.09880714118480682, 0.1045246347784996, 0.1438797116279602, -0.21613608300685883, -0.2120363563299179, -0.12803545594215393, -0.12881916761398315, 0.058793142437934875, -0.09862540662288666, -0.11864957213401794, 0.2612016499042511, 0.12965813279151917, -0.08798404037952423, 0.06916216015815735, 0.06262710690498352, 0.06854116171598434, 0.22840668261051178, -0.30992475152015686, -0.42577919363975525, 0.12059586495161057, 0.09934031963348389, -0.05438960716128349, -0.003296926850453019, -0.14526253938674927, 0.19864293932914734, 0.04774923995137215, -0.13930825889110565, 0.12531274557113647, 0.07368003576993942, -0.23180247843265533, 0.14374825358390808, 0.2426031082868576, 0.028013689443469048, -0.23357835412025452, 0.15566569566726685, 0.030059177428483963, 0.05732759088277817, 0.04841753840446472, -0.33924272656440735, 0.11387011408805847, 0.2137923389673233, -0.2760193645954132, 0.26125431060791016, 0.16873900592327118, -0.2609526216983795, -0.009899077005684376, -0.004055672790855169], [-0.21575380861759186, 0.10355208814144135, 0.10172329097986221, -0.16533872485160828, 0.25050872564315796, 0.2059180736541748, 0.13829872012138367, -0.6106335520744324, -0.17644143104553223, -0.12029103189706802, 0.06866994500160217, -0.08808315545320511, 0.08514660596847534, 0.03971393033862114, -0.06061958149075508, 0.22250233590602875, 0.08910374343395233, 0.014698074199259281, -0.02107987552881241, -0.20998966693878174, -0.25028306245803833, 0.10519212484359741, 0.06739553064107895, -0.25996315479278564, 0.14423252642154694, -0.3701864778995514, 0.2396574765443802, 0.020831316709518433, -0.05628834292292595, 0.12741297483444214, -0.04486776143312454, 0.07047977298498154, -0.13091310858726501, -0.07760128378868103, -0.03227774426341057, 0.061806052923202515, 0.10810025781393051, -0.18217141926288605, 0.06988681852817535, 0.11852923035621643, 0.08479384332895279, 0.18428117036819458, -0.057522572576999664, -0.21907614171504974, 0.3551907539367676, 0.2916960120201111, 0.44898852705955505, -0.08906380087137222, -0.03166363388299942, 0.11237730830907822, -0.04638746753334999, 0.1172785684466362, -0.42293721437454224, 0.06553084403276443, -0.05823061987757683, -0.03804050385951996, -0.20514555275440216, -0.2759944498538971, 0.010854720138013363, -0.15750256180763245, -0.06622770428657532, -0.09310712665319443, 0.06907978653907776, 0.04274708405137062], [-0.026060011237859726, 0.5614005923271179, -0.08607420325279236, 0.24068279564380646, 0.15680234134197235, -0.11714793741703033, 0.06824672222137451, 0.06537024676799774, -0.17747488617897034, -0.2577861249446869, 0.036028727889060974, -0.147594153881073, 0.01382647268474102, 0.22083963453769684, -0.060142550617456436, -0.1219031810760498, 0.005701905582100153, 0.005201195366680622, 0.16748231649398804, 0.012900781817734241, -0.09799424558877945, -0.14563554525375366, -0.08469699323177338, -0.00313691608607769, -0.36753523349761963, -0.04790616035461426, -0.14273546636104584, 0.12200889736413956, 0.20728884637355804, -0.07098554819822311, 0.476833313703537, 0.009224320761859417, -0.04677779600024223, 0.10130839794874191, -0.020914826542139053, -0.11055672913789749, 0.13230271637439728, -0.23957447707653046, -0.04858500510454178, -0.13042062520980835, 0.4720836579799652, -0.10259133577346802, 0.008092804811894894, 0.10165026783943176, -0.07968634366989136, 0.13894997537136078, 0.0863996371626854, -0.11306118220090866, -0.2084025740623474, -0.14655038714408875, 0.17035162448883057, 0.030217140913009644, 0.03051172010600567, -0.1006295308470726, 0.21580061316490173, 0.33854740858078003, -0.017814984545111656, 0.18176260590553284, -0.3843247592449188, 0.00035195963573642075, -0.09721142053604126, -0.04110325127840042, -0.10172349959611893, 0.12622538208961487], [-0.10475005954504013, 0.05494798719882965, -0.08173483610153198, 0.20798355340957642, 0.1046648621559143, -0.1498725414276123, 0.23774315416812897, -0.4128343462944031, 0.16824494302272797, 0.5207188129425049, 0.17638692259788513, 0.24450227618217468, -0.12288948893547058, -0.22288677096366882, -0.29733213782310486, -0.28088027238845825, 0.06706812977790833, -0.2957037389278412, -0.03442034125328064, 0.04788953438401222, 0.08016355335712433, -0.10247742384672165, 0.13194836676120758, -0.021471096202731133, 0.20828676223754883, -0.12276475131511688, -0.32756277918815613, -0.26100754737854004, -0.15117879211902618, 0.22987698018550873, -0.27895545959472656, -0.023839954286813736, 0.2116098552942276, 0.1618865579366684, -0.0201815664768219, 0.18160875141620636, -0.13594754040241241, -0.2610386610031128, -0.15290440618991852, -0.30749261379241943, -0.2274138182401657, -0.07247491180896759, 0.026262257248163223, -0.24145281314849854, -0.45445483922958374, 0.1342499852180481, 0.10154000669717789, -0.12783177196979523, -0.07886581867933273, 0.07202126830816269, 0.20437325537204742, 0.3273160755634308, -0.06900389492511749, -0.1599208265542984, 0.027534497901797295, 0.20744527876377106, 0.08206068724393845, -0.24644188582897186, -0.17201738059520721, 0.21879971027374268, 0.051455479115247726, -0.2909374535083771, -0.3612637221813202, 0.006278795190155506], [-0.15498663485050201, 0.0941101610660553, -0.24979475140571594, 0.10266391187906265, 0.25379690527915955, 0.1405441164970398, 0.11094335466623306, -0.2203729897737503, 0.2693363428115845, -0.05803634598851204, 0.01663941703736782, 0.15828709304332733, -0.42016592621803284, -0.271398663520813, -0.07368986308574677, -0.11260112375020981, -0.13085468113422394, -0.33705830574035645, -0.0808805599808693, -0.03619527444243431, 0.04905065521597862, 0.014660244807600975, 0.1521347463130951, 0.1420852690935135, 0.1639942228794098, -0.15019243955612183, 0.0666491761803627, 0.08762622624635696, -0.15555782616138458, -0.030336763709783554, 0.11728127300739288, 0.0014408533461391926, -0.17236119508743286, 0.3098132610321045, -0.06455446034669876, 0.09868874400854111, -0.1284065693616867, -0.15495292842388153, -0.1649300754070282, -0.25281521677970886, -0.08322149515151978, 0.08378979563713074, -0.30208536982536316, 0.20362092554569244, 0.019002990797162056, -0.2468605637550354, -0.014105917885899544, 0.04620105400681496, -0.1671227365732193, -0.02659156732261181, 0.20063501596450806, -0.17363619804382324, -0.24770046770572662, 0.26884350180625916, -0.4996015429496765, -0.3460383117198944, -0.004008499905467033, 0.03326719254255295, -0.29317930340766907, -0.5065743327140808, 0.16597647964954376, 0.3491516709327698, -0.0942722037434578, -0.05814216285943985], [0.16566425561904907, 0.14280669391155243, 0.11414705961942673, -0.3443044126033783, -0.07900828123092651, 0.01924087107181549, -0.07875663787126541, -0.05522671714425087, 0.1774090826511383, -0.015362389385700226, -0.3156599700450897, -0.14082975685596466, -0.17406226694583893, 0.4370965361595154, -0.09077198803424835, 0.1375850886106491, 0.2866218686103821, 0.03410486504435539, 0.020508039742708206, 0.345079243183136, 0.15834681689739227, -0.12796980142593384, -0.21234695613384247, 0.1617329716682434, -0.14950232207775116, 0.098504938185215, 0.009684322401881218, 0.28674259781837463, 0.1324687898159027, 0.0021022725850343704, -0.1065390557050705, 0.4918709993362427, -0.05263249948620796, 0.08397325873374939, 0.1833331435918808, 0.15630444884300232, -0.051942940801382065, -0.020260797813534737, 0.23730769753456116, -0.11249790340662003, -0.13309094309806824, -0.24545781314373016, 0.21585416793823242, 0.04186670109629631, 0.16125240921974182, -0.07991981506347656, 0.2808050811290741, -0.003404360730201006, -0.20663268864154816, 0.07610622048377991, -0.15872830152511597, -0.2397272139787674, 0.1454249620437622, -0.02199609763920307, -0.31565919518470764, -0.10917070508003235, 0.20177297294139862, 0.12941716611385345, -0.04700077325105667, 0.2044070065021515, -0.1844378411769867, -0.20483548939228058, -0.15967075526714325, 0.05675923824310303], [0.0003704647533595562, -0.2366238385438919, 0.11835841089487076, -0.07293985038995743, -0.25186794996261597, 0.2794114947319031, -0.36418813467025757, -0.0737033262848854, -0.3670685291290283, 0.14388103783130646, 0.08482130616903305, -0.19539117813110352, -0.18932008743286133, 0.07552841305732727, 0.0738673210144043, -0.11471840739250183, -0.15840530395507812, -0.026453251019120216, 0.0960499718785286, 0.25256308913230896, -0.37481462955474854, -0.1698625385761261, -0.16059550642967224, -0.08265838772058487, -0.40689805150032043, 0.23497363924980164, 0.22474749386310577, -0.17979031801223755, -0.3538876473903656, -0.11868029832839966, -0.08313208818435669, 0.18659989535808563, 0.10702246427536011, -0.0651312917470932, -0.3052865266799927, 0.009454195387661457, 0.06469668447971344, -0.09299100935459137, 0.008816714398562908, -0.1253727525472641, 0.17985041439533234, -0.16529791057109833, 0.41103100776672363, -0.08265429735183716, -0.09555182605981827, 0.1104385107755661, -0.18555869162082672, -0.23946169018745422, 0.012652761302888393, -0.24571332335472107, 0.06323610991239548, -0.38402044773101807, 0.0009632703731767833, 0.2277115136384964, -0.0811469703912735, -0.028360968455672264, -0.09570031613111496, 0.1673813909292221, 0.060650717467069626, 0.022444061934947968, 0.014349749311804771, -0.12655703723430634, 0.09030923247337341, -0.10641858726739883], [0.11068073660135269, 0.27606868743896484, 0.32945218682289124, 0.039650119841098785, 0.10856902599334717, -0.2989056706428528, -0.23441381752490997, -0.024404818192124367, 0.0964537262916565, -0.1426769644021988, 0.1468193531036377, -0.04280134290456772, 0.27207282185554504, 0.1306694597005844, 0.29721930623054504, -0.2400120198726654, -0.20188561081886292, -0.23224283754825592, -0.05646028742194176, -0.0018899947172030807, 0.24750997126102448, -0.1063106581568718, 0.037184540182352066, 0.3620920777320862, -0.046703603118658066, 0.3107197880744934, 0.18762336671352386, 0.06471028178930283, -0.14785990118980408, 0.2144598662853241, -0.12711885571479797, 0.05665197595953941, -0.09371877461671829, -0.08058959245681763, -0.02885412611067295, -0.03173859044909477, -0.30055931210517883, 0.05287448316812515, 0.4954480528831482, -0.05582618713378906, 0.23856940865516663, 0.05638297647237778, -0.31420570611953735, -0.1579650491476059, 0.11103633791208267, 0.2011977583169937, -0.0574941448867321, -0.12246010452508926, 0.18507269024848938, -0.02488197572529316, -0.12751750648021698, 0.054850395768880844, 0.03367305546998978, -0.07638885825872421, -0.03969955071806908, 0.012245230376720428, -8.812788291834295e-05, -0.04820806905627251, -0.03849651664495468, 0.05727453529834747, -0.04276207089424133, 0.03946628049015999, 0.0737958699464798, -0.3453069031238556], [-0.12529699504375458, -0.11352230608463287, 0.1340344250202179, -0.2935727834701538, 0.2321922779083252, 0.09720000624656677, -0.381481796503067, 0.16611121594905853, 0.05454004555940628, 0.08459973335266113, -0.12934675812721252, 0.264644056558609, -0.0565289631485939, -0.17526055872440338, -0.016665633767843246, -0.2156868875026703, 0.002369978930801153, -0.4148203730583191, -0.0558440126478672, -0.08636055141687393, 0.2248900830745697, 0.003934118431061506, 0.08646165579557419, -0.19773778319358826, -0.1192760318517685, 0.09188560396432877, -0.11857596784830093, -0.07039432227611542, 0.16409209370613098, 0.20874732732772827, 0.28030717372894287, -0.15261784195899963, -0.1533542424440384, 0.2685379683971405, 0.37976914644241333, 0.031352125108242035, 0.1990729421377182, 0.20428737998008728, -0.2293412834405899, 0.0900198221206665, 0.19921241700649261, -0.13044282793998718, 0.10369923710823059, -0.2640102505683899, 0.2812628149986267, 0.15150441229343414, 0.22484788298606873, -0.11536236852407455, 0.1199479028582573, -0.2860345244407654, 0.04244064539670944, -0.20168082416057587, 0.07100480049848557, 0.18286530673503876, 0.06196049600839615, -0.004151824861764908, 0.24636442959308624, 0.002424662234261632, 0.13422755897045135, 0.017259355634450912, -0.14965033531188965, -0.11135092377662659, 0.1378869116306305, 0.0552310012280941], [-0.37802016735076904, -0.0058805919252336025, -0.04936346784234047, -0.14713868498802185, 0.01769484579563141, 0.13437996804714203, 0.09150347113609314, 0.09102049469947815, 0.014048969373106956, -0.2167937159538269, 0.002286509145051241, -0.18516553938388824, -0.009137624874711037, 0.08471645414829254, -0.3670418858528137, 0.06933241337537766, 0.28250449895858765, -0.08684428781270981, 0.21088050305843353, -0.010172264650464058, 0.026127729564905167, -0.03837296739220619, 0.15790118277072906, 0.19027066230773926, -0.007654898334294558, 0.30255967378616333, 0.24840624630451202, 0.318693608045578, -0.25727659463882446, -0.1189761683344841, 0.029933631420135498, 0.10604401677846909, -0.39365214109420776, 0.3494707942008972, 0.13365104794502258, -0.11063671857118607, -0.2780563533306122, 0.06916456669569016, -0.2281862497329712, 0.020340947434306145, -0.1039656475186348, 0.005901892203837633, 0.16272681951522827, 0.08291232585906982, -0.04851822555065155, -0.16608355939388275, -0.197898268699646, -0.1853988617658615, 0.1470833718776703, 0.17539586126804352, 0.035974420607089996, 0.15871693193912506, -0.05894633010029793, 0.16997531056404114, 0.3811589479446411, 0.21791034936904907, -0.054433200508356094, 0.073091059923172, 0.2173084020614624, 0.08453115075826645, -0.07153121381998062, -0.11471336334943771, 0.040948934853076935, -0.30047371983528137], [0.03732205182313919, -0.03424922749400139, 0.2400318831205368, 0.3460603654384613, 0.06693923473358154, 0.0054204449988901615, -0.03618689626455307, -0.1437138468027115, 0.16579876840114594, -0.03270209580659866, -0.07127434015274048, 0.03648262843489647, -0.3216778635978699, 0.1410399079322815, 0.10948246717453003, -0.02701660618185997, 0.29416730999946594, 0.21276773512363434, 0.2723753750324249, -0.35418644547462463, -0.3576907217502594, -0.11416541785001755, -0.11296052485704422, 0.015125136822462082, 0.06737009435892105, 0.164389505982399, 0.17497721314430237, -0.0846862718462944, -0.07123222947120667, 0.3491779565811157, -0.023101670667529106, -0.15867838263511658, 0.07853489369153976, -0.1629859209060669, 0.24124222993850708, -0.08489818125963211, -0.13505980372428894, 0.2199302464723587, 0.06300346553325653, 0.03950625658035278, -0.2530887722969055, 0.20421652495861053, -0.03638676553964615, 0.15909820795059204, 0.09949205070734024, -0.06678412109613419, 0.002961183898150921, -0.14596910774707794, -0.1804398149251938, -0.3306570053100586, 0.014592792838811874, -0.06410018354654312, 0.2799410820007324, 0.17694008350372314, 0.1893054097890854, 0.024707511067390442, 0.22074228525161743, 0.05262177437543869, -0.20908328890800476, -0.24697154760360718, 0.10530563443899155, -0.31055355072021484, -0.018303019925951958, -0.02145559713244438], [-0.23437130451202393, 0.21709178388118744, -0.13996745645999908, 0.3081011176109314, -0.1862022876739502, 0.11544233560562134, -0.3066389858722687, -0.04425470158457756, 0.36646735668182373, 0.25329816341400146, 0.06410712003707886, 0.11987704783678055, 0.011924316175282001, -0.10334447026252747, -0.20691518485546112, -0.1201823502779007, 0.08308617025613785, 0.08750073611736298, 0.1178586408495903, 0.22948576509952545, -0.12361297011375427, 0.04945189505815506, 0.09917762875556946, 0.13009047508239746, -0.04860728606581688, -0.22584959864616394, -0.16220851242542267, 0.3558228313922882, 0.4071178436279297, 0.13275037705898285, -0.3108924329280853, 0.046763502061367035, -0.07556760311126709, -0.3226736783981323, -0.10820873826742172, -0.20388057827949524, -0.1381569802761078, 0.13290458917617798, 0.0452958345413208, 0.029432525858283043, 0.2819555699825287, 0.05026133358478546, 0.07957322150468826, -0.12685221433639526, 0.2805872857570648, -0.22722597420215607, -0.09351921826601028, -0.13516606390476227, 0.1291186660528183, -0.011818049475550652, 0.1327035278081894, -0.25848549604415894, 0.02199474349617958, 0.045859649777412415, 0.06277130544185638, 0.05729861557483673, -0.2984562814235687, -0.045809950679540634, 0.2115561068058014, -0.05333259329199791, -0.03629506379365921, -0.01414516568183899, 0.00975397415459156, 0.1362428516149521], [-0.10487248748540878, -0.1113639771938324, -0.34030458331108093, -0.2937103509902954, 0.07666171342134476, 0.1306922733783722, 0.0798441618680954, 0.10299994051456451, 0.16567803919315338, 0.19902439415454865, 0.2757265865802765, -0.04624168947339058, 0.06467058509588242, -0.04288738965988159, 0.2379661351442337, 0.14189215004444122, -0.14673388004302979, -0.13530924916267395, 0.2907602787017822, 0.18926747143268585, -0.04014730453491211, 0.18057319521903992, -0.2201363742351532, -0.10437940806150436, 0.006632252596318722, 0.006863391026854515, 0.33673295378685, 0.20593303442001343, 0.02529952861368656, 0.16645601391792297, 0.04907674342393875, -0.1947970688343048, 0.26229608058929443, -0.17829860746860504, -0.11009925603866577, 0.1462988257408142, 0.01666785217821598, -0.17447394132614136, 0.0982917845249176, -0.33071836829185486, 0.1443360596895218, -0.15800292789936066, -0.09470820426940918, 0.29291942715644836, 0.2650779187679291, -0.03857692703604698, 0.19097121059894562, -0.10840798914432526, 0.03529302403330803, 0.046789154410362244, -0.11155106872320175, 0.03922934830188751, 0.061174605041742325, -0.13971911370754242, 0.39033788442611694, 0.008251945488154888, 0.3954639434814453, 0.28923729062080383, 0.20098507404327393, -0.0608210563659668, 0.055457692593336105, 0.00989888608455658, -0.13125425577163696, -0.0925244390964508]], "b": [0.014910157769918442, 0.000514221319463104, -0.0013208746677264571, 0.01480063796043396, 0.019173167645931244, 0.018739907070994377, -0.023068904876708984, 0.057082485407590866, -0.029833607375621796, -0.02663094364106655, -0.0271037258207798, 0.007864444516599178, 0.02452423982322216, 0.00661899708211422, 0.02198585495352745, -0.004898340906947851, 0.011540837585926056, 0.021919570863246918, 0.036109521985054016, 0.011232288554310799, 0.006113544572144747, -0.01564718782901764, -0.04744500666856766, 0.002502044662833214, -0.027819879353046417, 0.005883870180696249, 0.0026026670821011066, 0.04324396699666977, 0.003365501295775175, -0.01188915129750967, 0.02401003986597061, 0.03432024270296097, -0.0047081816010177135, 0.010656292550265789, 0.04858347028493881, -0.052441030740737915, -0.0009424561867490411, -0.02352796122431755, 0.006091323681175709, 0.039068929851055145, -0.003711748169735074, -0.012694300152361393, 0.01837831549346447, 0.0316782109439373, 0.021991921588778496, -0.03380747511982918, -0.02772637829184532, 0.007039520889520645, -0.01762418821454048, -0.034191809594631195, -0.014892618171870708, -0.044734515249729156, 0.03886031359434128, 0.02180180326104164, 0.0015792708145454526, -0.033484406769275665, 0.04245433211326599, 0.004482822958379984, 0.039325833320617676, 0.018652988597750664, 0.033440593630075455, -0.030027972534298897, 0.03916851803660393, -0.0040573664009571075]}, {"w": [[-0.20365826785564423, -0.10147245973348618, 0.03641001135110855, 0.1609986275434494, -0.03126796334981918, 0.21626701951026917, -0.10022884607315063, 0.312685489654541, -0.08349300175905228, 0.21974988281726837, 0.1004253700375557, 0.0014498061500489712, -0.02844245545566082, -0.15126651525497437, -0.0006304064299911261, -0.046638499945402145, 0.30251210927963257, 0.06819957494735718, 0.20469613373279572, 0.05427705496549606, 0.34215018153190613, -0.31863391399383545, -0.3580278158187866, -0.013681266456842422, -0.23970942199230194, 0.20593924820423126, 0.029610173776745796, 0.09207121282815933, 0.07215287536382675, 0.050702694803476334, 0.22908426821231842, 0.11726673692464828], [0.10402737557888031, 0.028920140117406845, 0.01662706583738327, -0.07059617340564728, 0.20910829305648804, 0.16167202591896057, 0.115800641477108, 0.1335674226284027, -0.08556505292654037, 0.15951362252235413, 0.19335825741291046, 0.0037909045349806547, 0.07091710716485977, -0.18106111884117126, -0.059542980045080185, 0.03767950087785721, 0.12337247282266617, -0.06743045151233673, 0.1287253350019455, -0.12168530374765396, -0.07533389329910278, 0.18735043704509735, 0.06884616613388062, 0.07575653493404388, -0.1673431694507599, -0.09757411479949951, 0.3016968071460724, -0.10933033376932144, 0.22541548311710358, 0.05402342975139618, -0.038629449903964996, -0.23475922644138336], [0.1899130940437317, 0.07324329763650894, -0.04235376417636871, 0.14862675964832306, 0.03730040788650513, -0.2097945213317871, -0.12909837067127228, -0.1896452009677887, 0.1747267246246338, 0.08403553068637848, -0.1190309002995491, -0.013841040432453156, -0.08692827820777893, -0.14824186265468597, -0.06089985743165016, 0.23829877376556396, -0.035962119698524475, -0.15444667637348175, -0.14141838252544403, 0.07793737202882767, 0.23796874284744263, -0.18990440666675568, -0.022129593417048454, -0.23818297684192657, -0.42981141805648804, 0.12027298659086227, 0.014874366112053394, -0.09555273503065109, -0.1627129465341568, -0.04061732813715935, -0.007969021797180176, 0.16129881143569946], [-0.03798699751496315, 0.19709499180316925, -0.0353131964802742, -0.21367701888084412, 0.03528350964188576, -0.03457905352115631, -0.040979430079460144, -0.18587681651115417, 0.11209750920534134, 0.09391595423221588, 0.31137320399284363, 0.045080866664648056, 0.14963676035404205, -0.06151971220970154, -0.2540430426597595, 0.13583987951278687, 0.06658680737018585, 0.31746622920036316, -0.07510630786418915, 0.19175350666046143, 0.07790840417146683, 0.06341732293367386, 0.308402955532074, 0.054671160876750946, -0.09935765713453293, 0.0814124345779419, -0.013418709859251976, 0.25275981426239014, -0.06495203822851181, -0.09675752371549606, 0.09054736793041229, 0.37359124422073364], [0.02122562564909458, -0.2509276270866394, 0.12426670640707016, -0.27247175574302673, -0.027726316824555397, 0.11588150262832642, -0.03178490325808525, -0.01639188826084137, -0.17792274057865143, 0.040275100618600845, 0.07752257585525513, -0.07223959267139435, 0.005087272264063358, -0.0520208440721035, -0.3107219636440277, 0.05443166568875313, -0.08438296616077423, 0.0774661973118782, 0.22905327379703522, -0.06828691810369492, 0.27926427125930786, 0.12550494074821472, 0.057523809373378754, -0.12056408077478409, -0.028835562989115715, -0.011713629588484764, 0.07055161148309708, 0.23571859300136566, 0.2259771078824997, -0.11131712049245834, -0.31353244185447693, -0.08998090773820877], [0.10804525762796402, 0.06183730065822601, 0.016863685101270676, 0.22234401106834412, 0.1051458939909935, 0.2095440924167633, -0.09989071637392044, 0.17149582505226135, -0.0877842903137207, 0.1917189210653305, -0.23081853985786438, 0.1080128625035286, -0.04079781100153923, -0.0637136772274971, -0.2592969238758087, 0.19077248871326447, 0.31367096304893494, -0.138327956199646, 0.13340342044830322, 0.21059894561767578, -0.083767831325531, -0.380018025636673, 0.026376357302069664, -0.2772902846336365, 0.24917462468147278, -0.21420283615589142, -0.2702774107456207, 0.01026674173772335, -0.12543796002864838, 0.03747134283185005, -0.42990559339523315, 0.05024329945445061], [0.2414621114730835, 0.04807230830192566, -0.018424194306135178, -0.08149652183055878, 0.18563346564769745, -0.10125155001878738, -0.09573432803153992, 0.07364796102046967, -0.11735554039478302, 0.16278883814811707, -0.022930234670639038, -0.14451180398464203, -0.11356943845748901, 0.11469924449920654, -0.08080851286649704, -0.44941818714141846, 0.07383358478546143, 0.03735199570655823, -0.48070651292800903, -0.153577521443367, -0.2688460052013397, -0.07145791500806808, 0.03782888129353523, -0.08448763936758041, -0.07841136306524277, -0.08016309142112732, 0.16386981308460236, 0.04378363862633705, 0.22954365611076355, -0.11099662631750107, 0.05062055215239525, -0.31342896819114685], [0.1118849441409111, -0.044656410813331604, -0.4336860775947571, -0.038868121802806854, -0.019523002207279205, -0.029757171869277954, -0.3571045398712158, 0.48739296197891235, -0.1194598451256752, -0.008810355328023434, -0.05207397788763046, -0.09389189630746841, -0.3411657512187958, -0.17342782020568848, -0.1295858770608902, -0.15277007222175598, -0.009695208631455898, 0.2144332081079483, 0.11493692547082901, 0.3474403917789459, 0.09694691002368927, 0.2567327916622162, 0.23530322313308716, 0.033326636999845505, -0.08579552918672562, 0.2438199371099472, 0.03342195227742195, 0.14473190903663635, -0.2895969748497009, 0.4687148332595825, 0.10665027052164078, 0.11716732382774353], [0.0518856942653656, -0.08764518052339554, -0.002167795319110155, 0.17293678224086761, 0.03910946473479271, 0.17482711374759674, 0.07056466490030289, -0.15929603576660156, -0.01795998588204384, 0.3233952224254608, -0.0729372501373291, 0.027949320152401924, 0.42899101972579956, 0.2012711763381958, -0.10133134573698044, 0.037346381694078445, -0.5261769890785217, -0.15343984961509705, -0.03654377534985542, 0.12840794026851654, 0.2206004410982132, -0.1320488005876541, -0.07400601357221603, 0.12358249723911285, -0.08848167210817337, -0.1024615690112114, -0.016689175739884377, 0.17765824496746063, 0.05201111361384392, -0.037358082830905914, 0.10695459693670273, 0.10703729093074799], [-0.4207172393798828, 0.16831180453300476, -0.042171526700258255, -0.3440069258213043, 0.06382564455270767, -0.11412657797336578, -0.07401414960622787, -0.017716996371746063, 0.1777249127626419, 0.15811045467853546, -0.008775889873504639, 0.056251607835292816, -0.053369808942079544, 0.19881372153759003, -0.04957979544997215, 0.06897745281457901, 0.002735815243795514, -0.10054756700992584, 0.2009386271238327, -0.07268425822257996, 0.10325441509485245, 0.27284252643585205, -0.2618386447429657, -0.1394040286540985, 0.11866825073957443, -0.11049309372901917, 0.022456565871834755, -0.24352462589740753, 0.15252181887626648, -0.27600181102752686, 0.09185049682855606, 0.238673597574234], [-0.0905744880437851, 0.020969104021787643, -0.11842067539691925, 0.15005508065223694, -0.2034502774477005, -0.13555790483951569, -0.07703661918640137, -0.1197160929441452, -0.24691027402877808, -0.13963446021080017, -0.31610092520713806, -0.04178518429398537, 0.1807316094636917, 0.09020285308361053, -0.16076065599918365, 0.17660410702228546, -0.2655316889286041, 0.062108829617500305, -0.07485229521989822, 0.14321400225162506, -0.0695558562874794, -0.016407771036028862, 0.04876748472452164, -0.5623947381973267, -0.04854049161076546, 0.10788588225841522, 0.08606234937906265, -0.1216159537434578, 0.38070598244667053, 0.040304966270923615, 0.06204547733068466, -0.11372333765029907], [0.04401758685708046, -0.2938147783279419, 0.14925619959831238, -0.2840789556503296, -0.06734300404787064, 0.2149692326784134, 0.06127516180276871, -0.10674698650836945, -0.07784126698970795, -0.3529341220855713, -0.03688743710517883, 0.289069265127182, 0.23980394005775452, 0.24069759249687195, 0.03844887390732765, -0.31537193059921265, 0.07071160525083542, 0.20057284832000732, -0.13460808992385864, -0.20041558146476746, 0.1864667534828186, -0.09593646228313446, 0.0339161641895771, -0.21632255613803864, -0.08625806123018265, -0.16034691035747528, 0.11464367806911469, -0.08392449468374252, -0.29552510380744934, 0.023313648998737335, -0.32504668831825256, -0.05257386714220047], [-0.3215930461883545, 0.07244829088449478, 0.048842210322618484, 0.2319750189781189, -0.023865971714258194, -0.05480899661779404, -0.19419530034065247, 0.41497835516929626, 0.3635338842868805, 0.02574816346168518, -0.2467637062072754, 0.08851198107004166, 0.06915965676307678, -0.2214355319738388, -0.25323033332824707, -0.2849684953689575, 0.0303096454590559, -0.1255960911512375, -0.23286479711532593, 0.20964603126049042, 0.09341492503881454, 0.3081572353839874, 0.05285726115107536, -0.06229588761925697, 0.021601486951112747, -0.23302951455116272, 0.20398397743701935, 0.17119787633419037, -0.27933022379875183, 0.09559624642133713, -0.16711227595806122, 0.11393716186285019], [-0.44228026270866394, -0.12168795615434647, 0.03634827956557274, 0.20048552751541138, 0.10104547441005707, 0.27534908056259155, -0.421517938375473, -0.25374284386634827, -0.05111173167824745, 0.044655703008174896, -0.4144604504108429, 0.2391800433397293, -0.1851155310869217, -0.1601279377937317, 0.03510960191488266, 0.09879782795906067, 0.11173106729984283, 0.09287360310554504, 0.21439994871616364, 0.16574302315711975, -0.4883211553096771, -0.3280550539493561, 0.17193922400474548, 0.1914774477481842, 0.0274860430508852, 0.14340952038764954, -0.04688725620508194, -0.029386069625616074, -0.020796101540327072, 0.17995136976242065, 0.036934658885002136, 0.1340407133102417], [-0.0764765813946724, -0.09839916974306107, -0.32213515043258667, 0.08130871504545212, 0.09259030222892761, 0.4088667631149292, 0.10998494923114777, 0.07266756147146225, 0.17429609596729279, 0.1287420094013214, -0.17637848854064941, -0.23239752650260925, -0.14898036420345306, 0.28256139159202576, -0.22797128558158875, -0.06704740971326828, -0.09090836346149445, -0.13525131344795227, 0.3865104913711548, 0.11724533140659332, -0.009710733778774738, -0.06469425559043884, 0.24057525396347046, 0.01388505194336176, -0.01927103102207184, -0.14995147287845612, 0.3419138193130493, -0.24332892894744873, -0.06126255914568901, 0.23709669709205627, 0.21821528673171997, -0.20498095452785492], [-0.14916546642780304, -0.11794132739305496, -0.3256402909755707, 0.328016072511673, -0.05695217847824097, 0.043439704924821854, 0.18100586533546448, 0.15825842320919037, -0.09632472693920135, 0.19536736607551575, 0.12148257344961166, 0.058363933116197586, -0.031133145093917847, -0.10501934587955475, 0.35609790682792664, -0.102120041847229, 0.0444098524749279, -0.2190731316804886, -0.004826980642974377, -0.16434025764465332, 0.024456575512886047, 0.036291539669036865, 0.06784478574991226, 0.07714240252971649, 0.35837897658348083, 0.26641255617141724, -0.0011054443893954158, 0.11565320193767548, -0.058102626353502274, -0.2876870036125183, 0.07476441562175751, -0.026649633422493935], [0.04548308998346329, -0.15480764210224152, -0.21408194303512573, 0.15120457112789154, 0.447706937789917, 0.06995909661054611, 0.10490983724594116, -0.3063349425792694, 0.2870980203151703, -0.13689348101615906, 0.12275286763906479, 0.23093952238559723, 0.2476208508014679, -0.23570674657821655, 0.204628124833107, -0.045918919146060944, 0.0951511412858963, -0.15726454555988312, 0.12378806620836258, 0.10526093095541, 0.0033301212824881077, 0.10836794227361679, 0.24896247684955597, -0.17969770729541779, -0.15203016996383667, 0.01986049860715866, -0.2837807536125183, 0.07249917089939117, 0.18783463537693024, 0.17949345707893372, 0.011824577115476131, -0.34284958243370056], [-0.09629692137241364, 0.0037248097360134125, 0.040870096534490585, 0.1137416809797287, 0.08436088263988495, 0.295431524515152, -0.047543611377477646, -0.060377106070518494, -0.19573454558849335, -0.22393102943897247, -0.12291472405195236, -0.5758636593818665, -0.07952844351530075, 0.15414635837078094, -0.002126336097717285, 0.5486215353012085, -0.09520936757326126, -0.061864953488111496, -0.24932831525802612, 0.23172341287136078, -0.06231618672609329, 0.3210475444793701, -0.05839928239583969, 0.15420030057430267, -0.03894425556063652, -0.05351877585053444, -0.13012973964214325, -0.13686653971672058, -0.2768714129924774, -0.05861680209636688, -0.10329162329435349, -0.09862494468688965], [-0.044950321316719055, 0.11113113164901733, -0.024555452167987823, 0.02365204319357872, 0.012484980747103691, 0.25245916843414307, 0.11634404957294464, 0.3096292316913605, 0.31722646951675415, 0.03976680710911751, 0.14794133603572845, -0.13346973061561584, 0.046975236386060715, -0.3816762864589691, -0.2329951524734497, -0.013395175337791443, 0.07641321420669556, -0.09730668365955353, -0.15360970795154572, 0.13062937557697296, 0.11077140271663666, -0.006287812255322933, 0.07472298294305801, -0.17253224551677704, 0.04888064041733742, 0.18218906223773956, -0.07664904743432999, -0.5183586478233337, 0.008733849972486496, -0.06323087215423584, -0.42168477177619934, -0.14757655560970306], [-0.3581734001636505, -0.023043185472488403, 0.10291171073913574, -0.23117873072624207, 0.10728995501995087, 0.11772451549768448, -0.01193881593644619, 0.1646653264760971, 0.10071787983179092, -0.014207246713340282, -0.04148299619555473, 0.09477406740188599, 0.032826170325279236, -0.052521854639053345, 0.10504267364740372, 0.09118025004863739, 0.020459020510315895, 0.20616984367370605, 0.02853338047862053, 0.07877007871866226, -0.4670862853527069, 0.12181977182626724, 0.06373864412307739, -0.19577980041503906, -0.13449132442474365, 0.28734710812568665, -0.10671385377645493, -0.0021234105806797743, -0.18452543020248413, 0.05027604103088379, -0.09457226097583771, -0.052096351981163025], [0.09128840267658234, -0.07709904760122299, -0.15204918384552002, 0.003871223423629999, 0.32048240303993225, -0.157039076089859, 0.05479520559310913, -0.21353253722190857, -0.05267602577805519, 0.14833194017410278, -0.22887484729290009, 0.18186654150485992, -0.08117310702800751, -0.10693947970867157, -0.023724835366010666, 0.09530070424079895, 0.2957060635089874, -0.22513839602470398, -0.44393110275268555, 0.08221295475959778, -0.012858081609010696, -0.09295791387557983, 0.12204737961292267, 0.4029298722743988, -0.23879848420619965, -0.3307836949825287, 0.15707670152187347, 0.10257699340581894, 0.03973901644349098, 0.2607015371322632, 0.17748680710792542, 0.06253045797348022], [0.37034815549850464, -0.05214766412973404, 0.19570297002792358, 0.15685035288333893, 0.29323646426200867, -0.17431610822677612, 0.12830650806427002, 0.08906608819961548, 0.118690125644207, -0.009629263542592525, -0.30747467279434204, -0.3557877242565155, 0.22790426015853882, 0.07727169990539551, -0.03355883061885834, -0.27345702052116394, 0.07080693542957306, 0.011412469670176506, 0.27620729804039, 0.012793541885912418, -0.15965613722801208, 0.02920243889093399, -0.18197523057460785, 0.17186495661735535, 0.034809160977602005, -0.07162885367870331, -0.26992276310920715, 0.1604602336883545, -0.038335710763931274, -0.2912256419658661, 0.0853862464427948, 0.17308075726032257], [-0.1693544238805771, 0.13057588040828705, 0.05287044867873192, 0.20166519284248352, 0.2382442057132721, -0.16329917311668396, -0.08610784262418747, 0.42217379808425903, -0.17011964321136475, 0.13383474946022034, 0.06781868636608124, 0.11590595543384552, 0.28107577562332153, 0.3696269989013672, -0.14917995035648346, 0.09350212663412094, 0.03222814202308655, 0.2175472378730774, -0.07015284150838852, -0.08490616828203201, 0.12384358048439026, -0.10297209769487381, -0.24988099932670593, 0.07157877832651138, -0.09178093820810318, 0.029005371034145355, -0.1736709326505661, 0.23333840072155, 0.43528351187705994, -0.019203273579478264, -0.1319068968296051, -0.10826988518238068], [-0.17937465012073517, 0.02701287530362606, 0.14289061725139618, -0.03911493346095085, -0.12732534110546112, 0.2775864005088806, 0.39422184228897095, 0.02061140350997448, 0.1406969279050827, -0.27275848388671875, -0.08873333781957626, -0.07555942982435226, -0.10199559479951859, -0.45589324831962585, 0.23981866240501404, 0.027718059718608856, -0.06262069195508957, -0.09971289336681366, -0.23185543715953827, 0.1297536939382553, -0.051495254039764404, -0.0736134871840477, -0.21272824704647064, -0.06035736948251724, -0.03661556914448738, 0.07293571531772614, 0.23331642150878906, 0.25864407420158386, 0.1201891377568245, 0.005702648777514696, -0.015480480156838894, 0.1729646474123001], [-0.07736529409885406, -0.002806674689054489, 0.09356535971164703, -0.14166218042373657, 0.2009345293045044, -0.16938412189483643, -0.23482385277748108, -0.1734982579946518, -0.25741028785705566, 0.19879861176013947, 0.20369315147399902, -0.10341241210699081, 0.4330747127532959, 0.07756449282169342, 0.0005976610700599849, -0.15745064616203308, 0.2254214733839035, -0.3707047402858734, 0.05388949438929558, -0.16358046233654022, -0.3534086048603058, 0.22797054052352905, -0.1711808443069458, -0.2048683911561966, -0.40399396419525146, -0.03057948686182499, 0.1032412126660347, -0.15513291954994202, -0.030981743708252907, -0.19534337520599365, 0.1044984832406044, -0.117410808801651], [0.04159344732761383, 0.17041751742362976, 0.07086294144392014, -0.12907017767429352, -0.22430554032325745, -0.016794029623270035, 0.1268731653690338, 0.12424954026937485, 0.07842205464839935, -0.2486124038696289, -0.1854133903980255, -0.0880378782749176, 0.0257971603423357, -0.178746297955513, -0.13025464117527008, -0.02477435953915119, 0.1901436597108841, 0.11797784268856049, 0.20488028228282928, -0.06999669224023819, -0.04629076272249222, 0.00018018859555013478, 0.3046315312385559, 0.03510425239801407, -0.3151932954788208, 0.16705605387687683, -0.37774530053138733, 0.045627493411302567, -0.06745263189077377, -0.24028895795345306, 0.2758930027484894, -0.2904745936393738], [0.10166865587234497, -0.17110002040863037, -0.14999189972877502, 0.3513198494911194, -0.36437150835990906, 0.11119026690721512, 0.2897742986679077, 0.0038686536718159914, -0.2303825169801712, -0.03506121784448624, 0.20748749375343323, 0.030550148338079453, -0.08347225189208984, -0.151327982544899, -0.24607476592063904, -0.10026821494102478, 0.09096018224954605, 0.19727742671966553, 0.11352845281362534, 0.30221208930015564, -0.3091583251953125, 0.06521127372980118, 0.28471025824546814, 0.16155971586704254, -0.1360418200492859, -0.12665893137454987, -0.4599437117576599, -0.0026397621259093285, 0.163284033536911, -0.07346513122320175, 0.10561536997556686, 0.18022790551185608], [0.18067744374275208, 0.12660792469978333, 0.07466161251068115, 0.14256875216960907, -0.03863414749503136, -0.16000911593437195, -0.2574212849140167, -0.057966239750385284, -0.1793125420808792, 0.045470379292964935, -0.031815994530916214, -0.12382454425096512, -0.05736961215734482, -0.40650612115859985, 0.14481987059116364, -0.041114263236522675, -0.18334588408470154, -0.22541235387325287, 0.30583760142326355, -0.13218271732330322, 0.20031598210334778, 0.15484867990016937, -0.11980853974819183, 0.35838598012924194, -0.2938849627971649, 0.021335890516638756, -0.23204950988292694, 0.029750198125839233, -0.029860664159059525, 0.24801842868328094, -0.4101705551147461, -0.08037661761045456], [0.09922096878290176, 0.16900089383125305, -0.10600163787603378, -0.1514059603214264, -0.12079937756061554, 0.23398233950138092, -0.04084600880742073, -0.07705947756767273, 0.1434236764907837, 0.33526065945625305, -0.08950978517532349, 0.11152494698762894, 0.11619866639375687, -0.23804329335689545, 0.07900150120258331, 0.10065647214651108, 0.09911607950925827, 0.5544732809066772, 0.012937255203723907, -0.09850748628377914, -0.05707888305187225, 0.009417415596544743, -0.1893213838338852, 0.06677808612585068, 0.013811196200549603, -0.04635150358080864, 0.1174529492855072, -0.1696571707725525, 0.022623799741268158, 0.14333383738994598, 0.20811523497104645, -0.06903066486120224], [0.05787491053342819, -0.07512497156858444, 0.025614488869905472, -0.19403542578220367, -0.058937542140483856, 0.03138582780957222, -0.10297241806983948, 0.07671313732862473, 0.14897602796554565, -0.03517359495162964, -0.22537890076637268, 0.0014051010366529226, 0.0730375424027443, 0.4788345396518707, 0.00899266917258501, -0.03253799304366112, 0.07217924296855927, -0.04305462911725044, 0.07109947502613068, 0.05803188681602478, -0.0566299632191658, 0.02037074603140354, -0.11818915605545044, 0.13579128682613373, -0.09028083831071854, 0.23929747939109802, 0.1568533033132553, 0.07712404429912567, -0.11941803991794586, -0.13817556202411652, 0.1128484234213829, -0.33904382586479187], [0.11534487456083298, 0.049042265862226486, 0.21867090463638306, 0.10954776406288147, -0.1305655688047409, 0.04168624430894852, -0.28056958317756653, -0.002977457595989108, -0.13338418304920197, -0.10588075965642929, 0.022387027740478516, 0.16320012509822845, -0.10958098620176315, -0.03609044477343559, -0.04031633585691452, 0.05683451518416405, -0.06333575397729874, -0.29320046305656433, 0.2671808898448944, 0.07744739204645157, -0.18545368313789368, 0.02182798646390438, -0.048614952713251114, 0.10223647207021713, -0.02225705236196518, 0.20460206270217896, 0.3121625781059265, 0.1497698426246643, 0.17783859372138977, -0.14615240693092346, 0.03443353250622749, 0.34968388080596924], [-0.009120883420109749, 0.33596816658973694, -0.04071146622300148, 0.2669355571269989, -0.02998865768313408, -0.14825154840946198, -0.005118825938552618, -0.0072635505348443985, 0.2507040202617645, 0.01795545220375061, -0.18928831815719604, -0.19970111548900604, -0.039006736129522324, -0.1427837610244751, -0.14827513694763184, 0.026967862620949745, 0.055531248450279236, 0.3282229006290436, -0.013649038039147854, -0.18740031123161316, -0.19069620966911316, -0.4123101532459259, -0.08897791057825089, 0.01963142305612564, 0.08910269290208817, 0.2680073380470276, -0.010428349487483501, -0.3773892819881439, -0.12436520308256149, 0.014966431073844433, -0.2984809875488281, 0.024466078728437424], [0.14117279648780823, -0.37644222378730774, 0.1219242662191391, 0.05987495183944702, 0.15653979778289795, 0.4017880856990814, -0.2252262383699417, 0.22761677205562592, 0.12161771953105927, -0.11519676446914673, 0.10124672204256058, -0.07430850714445114, -0.014426964335143566, -0.16035275161266327, -0.18345466256141663, -0.07504893094301224, -0.10362423956394196, -0.33247190713882446, -0.1826620101928711, -0.1794862300157547, -0.1404612958431244, -0.03958120197057724, -0.03208766132593155, 0.21463587880134583, 0.028509223833680153, 0.34732145071029663, -0.02241976372897625, -0.08793307840824127, 0.16415941715240479, -0.04592354968190193, 0.28011229634284973, 0.035327374935150146], [0.49365130066871643, 0.004594408441334963, 0.17769919335842133, -0.06853291392326355, 0.15898069739341736, -0.13530701398849487, 0.07901408523321152, -0.03384903073310852, -0.15372547507286072, 0.175937682390213, -0.21267683804035187, 0.14511311054229736, 0.020057015120983124, -0.021645378321409225, 0.2375922054052353, 0.06121187284588814, -0.18219046294689178, 0.08426067978143692, 0.07274569571018219, 0.12394355982542038, -0.012609140947461128, 0.10210859030485153, 0.12771357595920563, 0.17796353995800018, 0.17694403231143951, 0.3316560685634613, 0.19035328924655914, 0.14873147010803223, -0.23554828763008118, 0.1196591854095459, 0.042069338262081146, -0.13526660203933716], [-0.12705004215240479, -0.016867119818925858, -0.2902012765407562, -0.3727545440196991, 0.12274728715419769, -0.01677417941391468, 0.05184408277273178, -0.06964260339736938, -0.23979727923870087, -0.13135188817977905, 0.10032360255718231, -0.2263537049293518, -0.1776185780763626, -0.1253308802843094, 0.0808279737830162, -0.14178189635276794, 0.21459048986434937, -0.004443080630153418, 0.05417919158935547, 0.13663426041603088, 0.01207651849836111, -0.15765462815761566, -0.2960779666900635, 0.27454668283462524, -0.2308942824602127, -0.10881426930427551, -0.1270098239183426, -0.09679199010133743, -0.10640986263751984, -0.050556525588035583, 0.04593724012374878, 0.16165383160114288], [-0.07834230363368988, -0.16756229102611542, 0.0718405693769455, -0.1614738255739212, 0.3778088092803955, -0.23606324195861816, -0.08678186684846878, 0.02694990672171116, -0.22948315739631653, 0.004592263139784336, -0.02871447429060936, -0.22770915925502777, -0.007367522921413183, -0.3912365138530731, 0.26168543100357056, -0.022351915016770363, -0.22129863500595093, 0.09395011514425278, 0.12618917226791382, 0.016956672072410583, -0.006991724483668804, -0.16972221434116364, 0.14429283142089844, -0.5289333462715149, 0.09896691888570786, -0.3351055085659027, 0.25028181076049805, 0.15783855319023132, -0.004647224210202694, -0.45710253715515137, 0.1027599573135376, 0.03665025532245636], [0.2728276252746582, 0.13276447355747223, -0.013966974802315235, -0.14595012366771698, -0.16403263807296753, -0.05228741094470024, 0.12755854427814484, -0.31301724910736084, 0.08340849727392197, 0.2385401874780655, 0.22621242702007294, -0.20065082609653473, -0.0017392458394169807, 0.12135790288448334, -0.2924131453037262, 0.08817184716463089, 0.057440243661403656, -0.25227683782577515, 0.13272929191589355, -0.11866970360279083, -0.2606050670146942, -0.010891085490584373, 0.0376211516559124, -0.1683007925748825, 0.028083203360438347, -0.041473958641290665, 0.09362012147903442, 0.2028530240058899, -0.002496374072507024, 0.2709428668022156, -0.10518447309732437, 0.16491609811782837], [0.1851557493209839, -0.008684009313583374, -0.1778908222913742, 0.2305445522069931, 0.29015544056892395, 0.11294948309659958, -0.06438793241977692, -0.2173617035150528, -0.3484813868999481, 0.08524273335933685, 0.11625221371650696, -0.07643264532089233, -0.2544640600681305, 0.11602537333965302, -0.008399035781621933, -0.1210607960820198, 0.2844611704349518, 0.17735454440116882, -0.2467295527458191, 0.2249365746974945, 0.004708742722868919, 0.08137218654155731, -0.3516206443309784, -0.09103183448314667, 0.23327073454856873, 0.035705242305994034, -0.07591600716114044, 0.28474700450897217, -0.19800476729869843, -0.1459084004163742, -0.006946748588234186, -0.1599852293729782], [0.19800728559494019, -0.10189621895551682, 0.09195265918970108, 0.1804877072572708, -0.13411429524421692, 0.06871897727251053, 0.1427367925643921, -0.19904254376888275, -0.0714743509888649, -0.23405888676643372, -0.39692458510398865, -0.0632433369755745, 0.0595373772084713, -0.2737652361392975, -0.1485755443572998, -0.04468218609690666, 0.40362435579299927, 0.14478226006031036, 0.13034126162528992, 0.05455522984266281, 0.04779611527919769, 0.4175942540168762, -0.29143062233924866, 0.12677812576293945, 0.23647892475128174, -0.023142172023653984, 0.32378706336021423, 0.14604991674423218, 0.3364946246147156, 0.12716925144195557, 0.056260980665683746, -0.07939822971820831], [-0.14322037994861603, -0.09812281280755997, 0.189534991979599, 0.04519730433821678, -0.04557378962635994, 0.16453248262405396, -0.17806623876094818, 0.08448116481304169, 0.09667518734931946, -0.0987909585237503, -0.33180999755859375, -0.2924203872680664, -0.24221587181091309, -0.04771216958761215, 0.06522949784994125, 0.20747289061546326, -0.08412347733974457, 0.033985435962677, 0.031065089628100395, -0.007760009728372097, 0.11036268621683121, 0.07455316931009293, 0.02130793407559395, -0.04800284281373024, -0.15682455897331238, -0.13374820351600647, -0.3340252637863159, 0.24257193505764008, -0.005237751640379429, 0.1317891627550125, 0.04509035497903824, -0.16864842176437378], [0.06399213522672653, 0.04415464401245117, 0.14254610240459442, 0.09216728061437607, -0.00870748795568943, 0.05122796446084976, -0.1803978979587555, -0.1810230165719986, -0.0883912444114685, 0.39797744154930115, -0.14153450727462769, -0.009453199803829193, -0.5440373420715332, -0.12829318642616272, -0.05948324128985405, -0.22124643623828888, -0.07215845584869385, 0.049281030893325806, 0.08270092308521271, -0.1908438354730606, 0.0279693603515625, 0.2354719340801239, 0.269160658121109, -0.11132606863975525, 0.16538023948669434, 0.1701534390449524, -0.14861705899238586, -0.033657655119895935, 0.08144129812717438, -0.15675820410251617, 0.03712933510541916, -0.08176956325769424], [0.022249508649110794, 0.11563144624233246, 0.06640616059303284, 0.3900119960308075, -0.12179338932037354, -0.10052915662527084, -0.1860198974609375, -0.23979473114013672, 0.19728820025920868, -0.1174476146697998, -0.13249436020851135, 0.07404568791389465, 0.1795569211244583, 0.01808425411581993, -0.04186983034014702, -0.3836711645126343, 0.17541782557964325, -0.045375481247901917, 0.09709465503692627, 0.12406543642282486, 0.05497811362147331, 0.3015337884426117, -0.014703186228871346, 0.02974276803433895, -0.05638202652335167, -0.20581327378749847, 0.0681612491607666, -0.06716769188642502, -0.24841013550758362, -0.20531778037548065, 0.270477831363678, 0.09888827800750732], [-0.16667680442333221, 0.18286919593811035, -0.03995541110634804, 0.1691107302904129, 0.2575088143348694, 0.2542968988418579, -0.030791044235229492, -0.11295181512832642, -0.06364692002534866, -0.2785708010196686, -0.13773605227470398, 0.021431101486086845, -0.14066386222839355, -0.12247470766305923, -0.29709553718566895, -0.02107596956193447, 0.058954671025276184, 0.36783987283706665, 0.10561402887105942, -0.37066733837127686, 0.17604254186153412, 0.010220993310213089, 0.20567218959331512, 0.19156557321548462, -0.3186849057674408, 0.11988402158021927, 0.1481824815273285, -0.012332350946962833, -0.04152530059218407, -0.04513267055153847, -0.10765286535024643, 0.1489841192960739], [-0.17924197018146515, -0.26953423023223877, -0.03343315050005913, 0.01883729174733162, 0.14712969958782196, -0.17990189790725708, 0.12349924445152283, -0.043145693838596344, 0.121037058532238, -0.12685677409172058, -0.0040603927336633205, -0.4271935820579529, 0.14511041343212128, 0.14813771843910217, 0.19712771475315094, -0.2245648205280304, 0.18329478800296783, 0.04019840806722641, 0.278296560049057, -0.0959005281329155, -0.0001048567210091278, -0.28406134247779846, 0.22686423361301422, 0.10070556402206421, 0.2088300883769989, 0.0876774787902832, -0.006839717738330364, 0.2524873912334442, 0.04152321070432663, 0.27766886353492737, -0.25676533579826355, 0.15660542249679565], [0.35998019576072693, -0.02988707646727562, 0.17798399925231934, 0.023212404921650887, -0.10216235369443893, 0.33073049783706665, -0.18432077765464783, -0.07528673857450485, 0.1617734432220459, -0.14645539224147797, -0.006216518115252256, 0.20413699746131897, -0.41145628690719604, 0.09034071862697601, -0.14235752820968628, -0.09794564545154572, 0.138517826795578, -0.13095451891422272, -0.08516588062047958, -0.041705213487148285, -0.04109032824635506, -0.15966391563415527, -0.11528441309928894, -0.1132974624633789, -0.13513287901878357, 0.20407158136367798, -0.18921197950839996, 0.3706090748310089, -0.1810038685798645, -0.03859532251954079, -0.07243301719427109, 0.14689745008945465], [-0.16754522919654846, 0.045734256505966187, -0.07739041745662689, 0.04247714579105377, -0.098818339407444, -0.14203126728534698, 0.09536000341176987, -0.06700880080461502, -0.0015761605463922024, -0.059186797589063644, -0.122988760471344, -0.11728497594594955, -0.3019726276397705, 0.07737202942371368, 0.06280577182769775, 0.01827545464038849, 0.2745620310306549, -0.22441768646240234, -0.12584729492664337, -0.2719855010509491, 0.2093224972486496, 0.11645596474409103, -0.15153305232524872, -0.3679468333721161, 0.0807819589972496, 0.12086760252714157, -0.2726610004901886, -0.05503147840499878, 0.16612845659255981, 0.4160485565662384, 0.3376538157463074, 0.05296562612056732], [0.14302536845207214, -0.10232274979352951, -0.18023934960365295, -0.03058229386806488, -0.2483835220336914, 0.06418079882860184, -0.25471052527427673, -0.025189314037561417, -0.2455262988805771, 0.10067696124315262, -0.10454149544239044, -0.12855824828147888, 0.5442102551460266, -0.2365822046995163, 0.07418956607580185, 0.10799077153205872, 0.07684273272752762, -0.07363851368427277, -0.13396571576595306, -0.36768099665641785, 0.2135348916053772, -0.12346991151571274, 0.08928083628416061, 0.017778631299734116, 0.2572909891605377, 0.048645734786987305, -0.09563063085079193, -0.03383275493979454, -0.37615838646888733, -0.025282075628638268, 0.35798779129981995, 0.009870064444839954], [0.23429174721240997, -0.15871088206768036, 0.03630070015788078, 0.13257218897342682, 0.02618642896413803, -0.09100616723299026, -0.26022323966026306, 0.19938962161540985, -0.06027156487107277, -0.3382890522480011, 0.30891209840774536, -0.016285214573144913, 0.14224600791931152, 0.10755382478237152, 0.09960825741291046, 0.16529719531536102, 0.1632569134235382, 0.008453263901174068, -0.10357093065977097, 0.271903395652771, -0.025419196113944054, -0.06664346903562546, 0.10643258690834045, -0.1586790531873703, 0.005891911219805479, 0.025667984038591385, 0.09115740656852722, -0.14877967536449432, 0.08960851281881332, -0.12006720155477524, 0.14792785048484802, 0.09839537739753723], [-0.03899470344185829, 0.00719611207023263, 0.05670471116900444, 0.07624135166406631, 0.18871371448040009, 0.06310131400823593, -0.131870299577713, -0.18845249712467194, -0.3286744952201843, -0.19855333864688873, 0.07682200521230698, 0.06856057047843933, 0.13793443143367767, 0.06603264063596725, -0.1841849982738495, -0.3253687918186188, -0.02180362306535244, -0.05107393488287926, 0.19491790235042572, 0.06019396707415581, 0.19448934495449066, 0.10593675076961517, -0.03591987490653992, -0.19247867166996002, 0.1753893494606018, 0.14751099050045013, -0.11892379820346832, -0.1185414269566536, -0.10764211416244507, 0.37702515721321106, 0.1058766320347786, 0.11128426343202591], [-0.09218604862689972, -0.004165801219642162, 0.03676474094390869, 0.2609187960624695, 0.1438181847333908, 0.14757218956947327, 0.20980386435985565, -0.1875963807106018, 0.13054567575454712, 0.08770857006311417, 0.16129083931446075, 0.05243935436010361, -0.256364643573761, 0.23295290768146515, 0.14082063734531403, -0.17545153200626373, -0.13976392149925232, -0.055003825575113297, 0.06870454549789429, -0.1209447905421257, 0.25926515460014343, -0.009848159737884998, 0.0641898363828659, -0.0036437320522964, -0.15691989660263062, -0.09934678673744202, 0.004981532692909241, 0.0010008966783061624, -0.19079187512397766, -0.2459077537059784, 0.08404647558927536, -0.02860352210700512], [-0.2243729680776596, 0.14629924297332764, -0.11128589510917664, -0.2204284518957138, -0.02874867618083954, -0.06544890254735947, 0.3032044470310211, -0.0239154864102602, -0.5023666024208069, -0.04431251436471939, -0.1658693253993988, 0.21444974839687347, 0.07619022578001022, -0.1442311406135559, -0.4626021385192871, -0.14867347478866577, -0.2474697232246399, -0.28929847478866577, -0.04430128633975983, -0.05830598995089531, 0.01028226874768734, -0.2362244427204132, -0.10129133611917496, 0.08667406439781189, 0.01650323159992695, -0.07589219510555267, -0.0012297371868044138, 0.11844845861196518, -0.19049999117851257, -0.20934629440307617, 0.05165424197912216, -0.28899699449539185], [-0.07158643752336502, -0.22938938438892365, 0.4073494076728821, -0.2296573668718338, 0.27757829427719116, -0.18893802165985107, -0.1343844085931778, -0.04951383173465729, 0.20389902591705322, 0.10837090015411377, 0.1437557190656662, 0.006707244087010622, 0.10352972894906998, 0.005692342761904001, -0.25505682826042175, 0.3226903975009918, 0.15597514808177948, 0.04746246337890625, -0.1653972566127777, -0.24791750311851501, 0.32448285818099976, -0.03341950848698616, 0.2177327424287796, 0.046374812722206116, 0.23558543622493744, -0.24852809309959412, -0.007974283769726753, 0.047589823603630066, 0.13994134962558746, -0.11049064248800278, 0.3417988121509552, -0.19357293844223022], [-0.048949647694826126, 0.12318332493305206, -0.18048617243766785, 0.3184465765953064, 0.018280813470482826, 0.044007204473018646, 0.1692589819431305, 0.1618780791759491, -0.0901886373758316, -0.07672332972288132, -0.20074708759784698, -0.13024280965328217, -0.10234590619802475, 0.07639523595571518, 0.13556231558322906, 0.15436236560344696, 0.13236014544963837, 0.1442382037639618, -0.0736168771982193, -0.16762441396713257, 0.17872858047485352, -0.06760488450527191, 0.3475132882595062, -0.16691100597381592, -0.4986073672771454, 0.3644053637981415, 0.35126763582229614, -0.09960170090198517, 0.058581676334142685, 0.016951587051153183, -0.18239106237888336, 0.20623616874217987], [0.2067042887210846, 0.13488031923770905, -0.2985972464084625, -0.11081697791814804, -0.17712104320526123, 0.3999566435813904, -0.22115886211395264, 0.0023440918885171413, 0.027221085503697395, -0.04535258561372757, -0.08932990580797195, 0.056761473417282104, 0.10500046610832214, -0.026896890252828598, 0.1883344054222107, 0.08574891835451126, 0.24900484085083008, -0.1459076851606369, 0.1611861288547516, -0.1979602873325348, -0.019704539328813553, -0.03943553566932678, -0.03878067806363106, -0.13178683817386627, -0.08152889460325241, -0.1244676485657692, -0.04930876940488815, 0.20148272812366486, -0.014789002947509289, 0.02597418799996376, -0.20805716514587402, 0.010276890359818935], [-0.2599530518054962, 0.3897516429424286, -0.012993444688618183, 0.15781912207603455, -0.33358171582221985, -0.09219589084386826, -0.2996695041656494, -0.17929939925670624, 0.15457139909267426, -0.20607666671276093, 0.3171696066856384, -0.21055056154727936, -0.10971672832965851, -0.07156176120042801, -0.022064469754695892, 0.0347614511847496, 0.227662593126297, -0.09730350971221924, 0.1381278932094574, 0.26823195815086365, 0.135735884308815, -0.31790629029273987, 0.17157047986984253, 0.17063076794147491, 0.07954266667366028, 0.09346125274896622, 0.32179200649261475, 0.26502132415771484, -0.01413491927087307, -0.020820951089262962, -0.02751631662249565, -0.5906612873077393], [0.0793730691075325, 0.13911129534244537, -0.11332027614116669, -0.1494452804327011, 0.08687222748994827, -0.14500565826892853, 0.08605261147022247, 0.13960933685302734, 0.33710911870002747, -0.09522545337677002, -0.004128715954720974, -0.0748625248670578, 0.04291088879108429, -0.1363745480775833, -0.12877297401428223, -0.15842747688293457, -0.3871254026889801, 0.05991264060139656, 0.030448410660028458, -0.030668063089251518, -0.15475738048553467, -0.26128557324409485, -0.24822910130023956, -0.24223384261131287, -0.17908774316310883, -0.048801105469465256, 0.007524035405367613, 0.2223133146762848, 0.0365336649119854, 0.23523882031440735, 0.361390620470047, -0.1298564076423645], [0.11656267940998077, 0.001996090402826667, -0.4164718985557556, 0.20530454814434052, 0.2474837750196457, -0.25164783000946045, -0.005144164897501469, 0.21607570350170135, 0.13141846656799316, -0.5223328471183777, 0.09562289714813232, 0.4380490481853485, -0.2515435218811035, -0.07579749077558517, -0.18841305375099182, 0.45196136832237244, -0.09177335351705551, 0.02902759239077568, 0.2981778681278229, -0.358394593000412, -0.1556706577539444, 0.052133820950984955, -0.17612417042255402, 0.06955369561910629, 0.09129400551319122, -0.09657012671232224, 0.06948259472846985, -0.03474688157439232, -0.19213642179965973, -0.03496875613927841, -0.03689834102988243, -0.09287086129188538], [0.09659238159656525, 0.010355791077017784, 0.3839946389198303, 0.2610374689102173, 0.03350381553173065, 0.17622707784175873, 0.02566177397966385, 0.025546858087182045, -0.11370844393968582, -0.13602779805660248, 0.2946719527244568, -0.28511449694633484, -0.19930192828178406, -0.11039748042821884, -0.12039200216531754, -0.00864635780453682, -0.07444465160369873, 0.1785699725151062, 0.15103809535503387, -0.004209974315017462, -0.03319910913705826, -0.24819128215312958, -0.14766554534435272, -0.09087798744440079, 0.051509518176317215, -0.19512704014778137, 0.17903833091259003, -0.32847025990486145, -0.1938859522342682, 0.25810083746910095, 0.2373688668012619, 0.07019029557704926], [0.08580232411623001, -0.36273273825645447, -0.09211090207099915, 0.07135459780693054, -0.4472593069076538, -0.13065332174301147, 0.07586842775344849, 0.34446826577186584, 0.014236628077924252, 0.1028929352760315, -0.2406710833311081, -0.051046259701251984, -0.3166970908641815, 0.004819112364202738, -0.039398226886987686, 0.16661430895328522, 0.3183988332748413, -0.04458854719996452, 0.20775295794010162, -0.07053250819444656, -0.0741795003414154, -0.15921650826931, 0.17723970115184784, -0.03357737511396408, -0.19219954311847687, -0.24250029027462006, 0.09455026686191559, -0.0913245752453804, -0.09794557094573975, -0.0636211559176445, -0.0960894450545311, 0.11539340764284134], [-0.031480833888053894, -0.5495280623435974, -0.06973768770694733, 0.0892496332526207, -0.22783929109573364, -0.15839380025863647, -0.16005943715572357, -0.1616034358739853, 0.20923957228660583, 0.14176200330257416, 0.025706473737955093, 0.1811666041612625, -0.18667615950107574, -0.1403556615114212, 0.07594188302755356, -0.010792828164994717, -0.09948909282684326, 0.301308810710907, 0.09298057109117508, 0.285309374332428, 0.17218925058841705, -0.08565229177474976, -0.3105278015136719, -0.01856573484838009, -0.3085404336452484, 0.016486506909132004, 0.035475097596645355, -0.27955442667007446, 0.02289733849465847, 0.00530128413811326, -0.11644336581230164, -0.33616042137145996], [0.0236470028758049, 0.06786748766899109, 0.30824893712997437, -0.2722117304801941, 0.03529370203614235, -0.31294921040534973, 0.03241226449608803, 0.026094159111380577, -0.1736832708120346, -0.22217585146427155, -0.14974993467330933, 0.23772075772285461, -0.01890053041279316, 0.07163078337907791, 0.049434784799814224, -0.22173264622688293, 0.006387944798916578, -0.22634142637252808, -0.130368173122406, 0.12304619699716568, 0.1677665114402771, -0.22588136792182922, 0.18960987031459808, 0.22171778976917267, 0.07071740180253983, 0.05720860883593559, -0.06994399428367615, -0.3786890506744385, 0.2157936841249466, 0.05043540522456169, 0.00898299552500248, -0.014426549896597862], [-0.16093552112579346, -0.5195130109786987, -0.23886345326900482, 0.09071911126375198, -0.16766801476478577, -0.20460131764411926, -0.2619965076446533, -0.2981478273868561, 0.053380679339170456, -0.039496444165706635, 0.13704289495944977, -0.24460817873477936, 0.06497946381568909, -0.0016579678049311042, -0.31909239292144775, -0.16830044984817505, -0.2149040400981903, 0.025926748290657997, -0.34314122796058655, -0.35002100467681885, -0.20285379886627197, 0.0595037080347538, -0.0971151813864708, 0.11303481459617615, 0.11901688575744629, 0.05984722077846527, 0.007104233838617802, 0.15088863670825958, 0.06282494217157364, -0.056833330541849136, -0.14922364056110382, 0.09803328663110733], [-0.1755969375371933, 0.019676830619573593, 0.41044652462005615, 0.4078424870967865, -0.2483796626329422, 0.02534700557589531, 0.036470573395490646, 0.23742635548114777, -0.23272208869457245, 0.09553820639848709, 0.19134242832660675, 0.11224488914012909, -0.053623247891664505, -0.007613428868353367, 0.20386166870594025, 0.035464271903038025, -0.012258733622729778, 0.1034252867102623, -0.04609774425625801, -0.2963457703590393, -0.31600016355514526, 0.10310031473636627, 0.05805779993534088, 0.008446344174444675, -0.18805819749832153, -0.2307511419057846, -0.021783769130706787, 0.19050979614257812, -0.27198755741119385, 0.37316980957984924, -0.01902913860976696, -0.12170415371656418], [0.16850632429122925, 0.3142705261707306, -0.21555522084236145, -0.009071772918105125, -0.10426776856184006, 0.29543349146842957, -0.46314674615859985, 0.08667255938053131, -0.017446957528591156, -0.19238163530826569, -0.007223107386380434, -0.03866792842745781, -0.06136928126215935, 0.0897766575217247, 0.31614676117897034, -0.22603066265583038, -0.2499244064092636, 0.08800194412469864, -0.11320517957210541, -0.12678872048854828, 0.0092550627887249, -0.0757414847612381, 0.10965458303689957, 0.10319367051124573, 0.08528965711593628, -0.5085583329200745, -0.1242998018860817, -0.05031591281294823, 0.4121226668357849, -0.0657779648900032, -0.026726925745606422, 0.08711658418178558]], "b": [0.004803029354661703, 0.020200315862894058, -0.031445786356925964, 0.010268611833453178, -0.014730420894920826, 0.01598563976585865, 0.006842026486992836, 0.02989363484084606, 0.01632928103208542, -0.0365326851606369, -0.021806124597787857, 0.031900644302368164, -0.0378008596599102, -0.03375653177499771, -0.0038535238709300756, 0.017732886597514153, 0.032807327806949615, 0.017513683065772057, 0.036207303404808044, 0.019240213558077812, -0.0063333818688988686, -0.0222668144851923, 0.032630015164613724, 0.03763817250728607, -0.041360072791576385, 0.03167843446135521, 0.011404481716454029, -0.016292251646518707, -0.03818466514348984, 0.04807387292385101, -0.05530969798564911, 0.01529643777757883]}, {"w": [[0.006159852724522352, -0.034693099558353424, -0.11442092061042786, 0.08763124793767929, 0.09906420856714249], [-0.07604905962944031, 0.08347881585359573, 0.058354370296001434, -0.07422748953104019, 0.008780651725828648], [0.013260046020150185, -0.1256328672170639, 0.002216273220255971, 0.0918419361114502, 0.020864911377429962], [0.20185114443302155, 0.25290343165397644, -0.1788356900215149, -0.010493630543351173, -0.2697133421897888], [-0.04967983067035675, -0.14840030670166016, 0.09436195343732834, -0.010125062428414822, 0.15909066796302795], [0.08045697957277298, 0.17574118077754974, -0.11384762078523636, 0.014438256621360779, -0.1919928640127182], [-0.14772635698318481, 0.03780708834528923, 0.08108408004045486, -0.046510204672813416, 0.07319863140583038], [-0.05590474605560303, 0.13463744521141052, 0.03911827877163887, 0.025085045024752617, -0.17408831417560577], [-0.007273886352777481, 0.06291846185922623, 0.12345720082521439, -0.17269910871982574, -0.03834473341703415], [0.054656967520713806, -0.1268589198589325, -0.036919135600328445, 0.06222004443407059, 0.022582370787858963], [-0.013601969927549362, -0.15211620926856995, 0.09309019148349762, 0.08856021612882614, -0.0030489179771393538], [-0.06821683794260025, 0.08241132646799088, 0.043965164572000504, -0.08974872529506683, 0.06697111576795578], [-0.11408337950706482, -0.3479126989841461, 0.15986689925193787, 0.06243150681257248, 0.2753635346889496], [0.02439691312611103, -0.2703845202922821, 0.06790411472320557, 0.1059197336435318, 0.11173190921545029], [-0.039999231696128845, -0.013186492957174778, 0.04705272987484932, 0.013905593194067478, -0.024218566715717316], [-0.032796841114759445, 0.06379856914281845, 0.034640755504369736, -0.02387256920337677, -0.08389912545681], [0.0022370924707502127, 0.1872706413269043, -0.05346759781241417, -0.07061098515987396, -0.08178196102380753], [-0.01583005301654339, 0.1303931027650833, 0.030077580362558365, -0.09245970100164413, -0.07529089599847794], [-0.04839090257883072, 0.21468329429626465, -0.08594423532485962, -0.0317956916987896, -0.05837513506412506], [0.045199986547231674, 0.1485608071088791, -0.043944697827100754, -0.12393818795681, -0.03318652883172035], [-0.03696617856621742, -0.021025268360972404, 0.13969482481479645, -0.11209342628717422, 0.06082594394683838], [0.06452524662017822, -0.032251693308353424, -0.02662377990782261, -0.01968289166688919, 0.0344383642077446], [-0.06726647168397903, 0.1442103385925293, -0.01442797016352415, -0.06369857490062714, -0.016452305018901825], [0.017218628898262978, 0.05987728014588356, -0.135270357131958, 0.04039103537797928, 0.08273579180240631], [0.08992903679609299, -0.16005516052246094, -0.04350979998707771, 0.17042571306228638, -0.034275781363248825], [-0.0300874263048172, 0.17319807410240173, -0.03060925006866455, -0.09088348597288132, -0.009090602397918701], [0.014256269671022892, -0.03833109885454178, 0.10249332338571548, -0.14622963964939117, 0.05445466563105583], [0.05171849951148033, 0.003698772517964244, -0.10353995114564896, 0.06522221118211746, 0.03865765407681465], [-0.04829572141170502, -0.1540871262550354, 0.13129955530166626, 0.0015362524427473545, 0.08825749158859253], [0.11812189966440201, 0.18505313992500305, -0.11931663006544113, -0.07103396207094193, -0.14657092094421387], [0.11398933082818985, -0.0806146189570427, 0.06746859103441238, -0.2306581288576126, 0.12249656766653061], [0.06382949650287628, -0.003334647975862026, -0.13527491688728333, 0.14079365134239197, -0.08262169361114502]], "b": [-0.05501970276236534, 0.14784127473831177, 0.01330318208783865, -0.10685843229293823, 0.025085527449846268]}]}