{"version": 3, "layers": [{"w": [[-0.1850825846195221, -0.18186205625534058, 0.05055183172225952, 0.060196246951818466, -0.1155783087015152, -0.10974089056253433, -0.0437978096306324, -0.03746744617819786, 0.08631586283445358, -0.09117651730775833, 0.15155744552612305, 0.03379766270518303, -0.023100020363926888, 0.034901101142168045, -0.029367011040449142, -0.04958966001868248, 0.12110134214162827, 0.13914388418197632, 0.1286480575799942, 0.15409758687019348, 0.13802659511566162, -0.09553977102041245, -0.2592333257198334, -0.1031278446316719, -0.04799265414476395, -0.024296026676893234, -0.18958522379398346, -0.2285398691892624, -0.062249816954135895, 0.08572021871805191, 0.13180387020111084, -0.13377012312412262, 0.018732205033302307, -0.06672609597444534, -0.1411140412092209, 0.1968696266412735, -0.18807999789714813, -0.07804440706968307, -0.16984888911247253, -0.017778657376766205, 0.08469252288341522, 0.032680708914995193, -0.11766355484724045, -0.24555335938930511, -0.1236262172460556, -0.14690594375133514, 0.19540445506572723, 0.1745709627866745, -0.01206562202423811, -0.03936390206217766, 0.04993261396884918, -0.10170208662748337, -0.14849938452243805, -0.17248548567295074, -0.11085294187068939, -0.12678617238998413, -0.034680772572755814, -0.08070887625217438, 0.21624575555324554, 0.061167288571596146, -0.09957961738109589, -0.1458464115858078, -0.13088984787464142, 0.08056792616844177, 0.1568419635295868, -0.15262360870838165, -0.1318846046924591, 0.009528513066470623, 0.21873833239078522, -0.18593348562717438, 0.006494119297713041, -0.10891227424144745, 0.017198985442519188, -0.1471376270055771, -0.03213881328701973, 0.0003822683938778937, -0.0773589015007019, 0.1448165774345398, -0.16038109362125397, 0.049818072468042374, 0.11715970188379288, -0.1153123751282692, -0.16704107820987701, 0.20080682635307312, 0.11733786016702652, 0.018252311274409294, 0.17277559638023376, 0.027142729610204697, 0.07899760454893112, -0.08699488639831543, -0.25528261065483093, 0.19472205638885498, 0.06230936944484711, -0.1186647117137909, 0.17785893380641937, 0.08312726765871048, 0.0020441983360797167, 0.12220883369445801, -0.009059911593794823, -0.054223038256168365, 0.061515673995018005, -0.03552611544728279, -0.1834471970796585, -0.06806294620037079, 0.16082648932933807, -0.11473532766103745, -0.3153778612613678, 0.032357145100831985, -0.16188344359397888, 0.16491557657718658, 0.03826463967561722, -0.062378160655498505, 0.23577165603637695, 0.06523407250642776, -0.005041159689426422, 0.0376041904091835, -0.14794224500656128, 0.055110860615968704, 0.080283984541893, -0.10656410455703735, 0.017804304137825966, 0.3496977686882019, -0.07558459788560867, -0.0686681866645813, -0.21413549780845642, -0.010875529609620571, -0.11280104517936707, -0.0828593298792839], [0.055457890033721924, -0.26119494438171387, -0.19006597995758057, 0.07903768867254257, -0.1197391003370285, -0.02015058510005474, 0.12961451709270477, -0.18271708488464355, -0.11741934716701508, 0.21036271750926971, -0.07037670910358429, 0.12276721000671387, -0.12721401453018188, 0.11129564791917801, 0.10721692442893982, 0.15259787440299988, 0.11881391704082489, -0.013429091311991215, -0.12975256145000458, -0.018429772928357124, -0.10344823449850082, -0.19825124740600586, -0.048807352781295776, 0.01154979970306158, -0.03202760964632034, -0.10229876637458801, 0.11144569516181946, -0.014954036101698875, -0.17959895730018616, -0.030556080862879753, -0.13601286709308624, -0.18046225607395172, -0.085689976811409, -0.02742600068449974, 0.04367602989077568, -0.12816636264324188, -0.12694618105888367, 0.07555843889713287, -0.1783464252948761, 0.07778191566467285, 0.1991080343723297, -0.15012310445308685, 0.022620169445872307, 0.23399396240711212, 0.029739007353782654, 0.08968035876750946, 0.04592011123895645, 0.2930672764778137, 0.16715019941329956, 0.22828805446624756, 0.14409461617469788, 0.02670253813266754, -0.030275488272309303, 0.002350673545151949, 0.012394506484270096, 0.02775980532169342, -0.13294771313667297, -0.2761993408203125, -0.107584647834301, -0.1144677996635437, -0.35470104217529297, -0.036693282425403595, 0.24510207772254944, -0.16774016618728638, 0.0378832072019577, -0.2559393346309662, 0.11881466209888458, 0.11744537204504013, -0.24917644262313843, -0.02401234768331051, -0.15019355714321136, -0.23106102645397186, -0.0008897235966287553, 0.09777099639177322, -0.045814398676157, 0.26380279660224915, 0.27756550908088684, -0.2664318382740021, -0.16910122334957123, 0.06793979555368423, 0.12081994116306305, -0.23847199976444244, 0.09409726411104202, 0.005193850491195917, 0.14550240337848663, 0.07114145904779434, -0.05556401610374451, -0.051763519644737244, 0.03150181099772453, 0.06184741109609604, -0.07639805227518082, -0.2131761759519577, -0.11478885263204575, -0.026422152295708656, -0.17989683151245117, 0.21038174629211426, 0.16545413434505463, -0.1713840812444687, -0.0004408546956256032, 0.10094977170228958, 0.0648428201675415, -0.19476722180843353, 0.09502570331096649, 0.06610237807035446, 0.04995069280266762, -0.23666861653327942, 0.1432715207338333, -0.010720118880271912, 0.06123378500342369, -0.08531106263399124, -0.07749930024147034, -0.06038592383265495, -0.12220288813114166, -0.10129744559526443, 0.09173903614282608, 0.1161985695362091, -0.020866967737674713, 0.14221341907978058, -0.026292454451322556, -0.17157591879367828, 0.18090665340423584, -0.04617766663432121, -0.1034180074930191, 0.006676789373159409, -0.00023884151596575975, -0.18064454197883606, -0.1307653933763504, 0.04108255356550217], [0.16496583819389343, 0.1923869103193283, 0.10184486210346222, 0.032403528690338135, -0.20922432839870453, -0.06843283772468567, 0.045065589249134064, 0.013487550429999828, 0.052984584122896194, -0.0163054671138525, -0.15077953040599823, -0.03323462978005409, -0.18660594522953033, 0.17460660636425018, 0.014356628991663456, -0.1161474958062172, -0.17887482047080994, -0.10905858129262924, -0.05653946474194527, -0.0419125109910965, 0.38063517212867737, 0.02518472820520401, 0.1418503373861313, 0.02722320519387722, 0.10606300830841064, 0.13539451360702515, 0.05181034654378891, -0.06530801951885223, -0.2538345456123352, -0.06544683873653412, -0.041491542011499405, -0.1089119017124176, -0.0024754542391747236, -0.03287369757890701, -0.12546834349632263, -0.05736348405480385, -0.012635467574000359, -0.007267008535563946, 0.08623496443033218, -0.09991780668497086, 0.0016032165149226785, 0.056995123624801636, 0.015865758061408997, -0.001782850711606443, -0.13226252794265747, -0.020955627784132957, 0.037767570465803146, 0.05171642079949379, -0.09854482859373093, -0.05668862536549568, -0.21070972084999084, 0.24516092240810394, 0.012621144764125347, 0.1803687959909439, 0.28808900713920593, -0.13090132176876068, -0.188389390707016, 0.00634079659357667, 0.20777224004268646, 0.006657065823674202, -0.11091859638690948, -0.06543430685997009, 0.13751555979251862, 0.06173906847834587, 0.13291524350643158, 0.07119793444871902, 0.03344622626900673, 0.009647488594055176, 0.14188039302825928, 0.024057915434241295, -0.044575389474630356, 0.07442042231559753, 0.028751131147146225, 0.17436093091964722, -0.04085354506969452, 0.0577164962887764, -0.19773545861244202, -0.04801059141755104, 0.2623612880706787, -0.012352604418992996, 0.07230959832668304, -0.009742826223373413, 0.1333352029323578, 0.0525740422308445, -0.11863494664430618, 0.18527555465698242, 0.10420138388872147, -0.1481427103281021, 0.0623200461268425, 0.062151823192834854, -0.14714086055755615, 0.15792183578014374, -0.04418787360191345, -0.02143581584095955, -0.05215822532773018, -0.327266663312912, -0.22483381628990173, 0.10526080429553986, -0.026171060279011726, -0.017380520701408386, -0.081235371530056, -0.18233513832092285, -0.025100942701101303, 0.09216458350419998, 0.201304093003273, 0.1783200055360794, -0.13117705285549164, 0.12130863219499588, 0.05532079190015793, -0.3775123357772827, -0.1333562731742859, 0.009918036870658398, -0.022516049444675446, 0.22811199724674225, -0.1448868066072464, -0.013229307718575, 0.15685231983661652, 0.03120582364499569, 0.10227003693580627, -0.1375923901796341, -0.005375295411795378, -0.06374601274728775, -0.03936094045639038, 0.053840748965740204, -0.13684691488742828, 0.01730157621204853, -0.1935979425907135, 0.17883433401584625], [0.06242438405752182, 0.1726362407207489, -0.05179096385836601, -0.08714615553617477, 0.0851062461733818, 0.01499354001134634, 0.011630800552666187, 0.06687471270561218, -0.0629434585571289, 0.13606269657611847, 0.21752096712589264, 0.02642444334924221, 0.055613771080970764, 0.12013720721006393, 0.11972563713788986, -0.03184914588928223, -0.03283865749835968, -0.026626821607351303, 0.10453447699546814, -0.13243742287158966, 0.15613901615142822, 0.055566199123859406, 0.08976778388023376, 0.0461416058242321, -0.07854568958282471, 0.0764750987291336, 0.4584943950176239, -0.28300750255584717, 0.06678617000579834, -0.09716562181711197, -0.09782928228378296, -0.3310740888118744, 0.1846560388803482, -0.0571894645690918, -0.16721606254577637, 0.1238408088684082, 0.14164550602436066, -0.027616815641522408, -0.02096332050859928, 0.016600359231233597, -0.21936775743961334, -0.17483103275299072, 0.08375945687294006, 0.05378132686018944, 0.25071704387664795, 0.06863343715667725, -0.09391958266496658, 0.024564439430832863, 0.15068157017230988, -0.03264724463224411, 0.06669920682907104, -0.0018506594933569431, -0.0012390688061714172, -0.002740229479968548, -0.0029272737447172403, 0.10288785398006439, 0.03823511675000191, 0.1453687995672226, 0.2309095859527588, 0.19014056026935577, 0.03766895830631256, -0.01485803909599781, 0.09688790142536163, -0.15409307181835175, -0.16109299659729004, -0.17167261242866516, 0.01797838881611824, 0.019691839814186096, 0.013384057208895683, -0.14899933338165283, 0.09107447415590286, -0.007295950781553984, 0.02929105795919895, 0.0017998549155890942, -0.010214041918516159, 0.07242778688669205, 0.16519421339035034, 0.02093317359685898, 0.0205877423286438, -0.0768345445394516, 0.03389636054635048, -0.18865570425987244, -0.07633185386657715, 0.029636917635798454, 0.059587523341178894, -0.02942415326833725, 0.12580451369285583, -0.05475123971700668, 0.22634842991828918, -0.06204407289624214, -0.0437922440469265, 0.03174658864736557, -0.016806742176413536, 0.23884837329387665, -0.10937618464231491, -0.10006029903888702, 0.08622662723064423, 0.06343094259500504, 0.02080257050693035, -0.025398919358849525, -0.2596510648727417, 0.03922845795750618, -0.11417917162179947, 0.17189063131809235, -0.04230484366416931, -0.14844927191734314, -0.06350991129875183, -0.10731291770935059, 0.17436346411705017, 0.06336050480604172, 0.25906088948249817, 0.22107210755348206, 0.15657252073287964, 0.03954988345503807, -0.055452488362789154, 0.14877815544605255, -0.14681537449359894, 0.06687189638614655, 0.03740774467587471, 0.07419700175523758, 0.08895162492990494, 0.127476766705513, -0.020150916650891304, -0.14570362865924835, 0.24836468696594238, -0.14691217243671417, 0.13861238956451416, -0.19258907437324524], [0.24358201026916504, -0.051421575248241425, 0.08891595900058746, -0.08605774492025375, -0.031176693737506866, 0.16787664592266083, 0.14696849882602692, -0.07985527068376541, 0.36769992113113403, -0.10867423564195633, -0.05653209984302521, 0.021290766075253487, -0.11406887322664261, -0.011811774224042892, -0.07580326497554779, -0.10837436467409134, -0.1399417668581009, 0.17264512181282043, 0.030758440494537354, 0.08978793770074844, 0.196773499250412, 0.01105967815965414, 0.11746904253959656, -0.047762662172317505, 0.09565192461013794, -0.08981620520353317, 0.1680242121219635, 0.2974734306335449, 0.017811506986618042, -0.2266911417245865, 0.1607351303100586, 0.06258982419967651, 0.25644734501838684, 0.13776536285877228, 0.05992935597896576, -0.013081585988402367, -0.06105692684650421, -0.01470558438450098, -0.013823387213051319, -0.10781216621398926, 0.15991054475307465, 0.2675263583660126, 0.23919038474559784, 0.10888934880495071, -0.2168198823928833, -0.04469796642661095, 0.031214380636811256, 0.0029527111910283566, -0.019491512328386307, -0.078978531062603, 0.2730506956577301, 0.07776980102062225, 0.05205754190683365, -0.07653346657752991, 0.05144223943352699, -0.043962664902210236, 0.012377270497381687, 0.10702481865882874, 0.111199289560318, 0.07260075956583023, -0.10220203548669815, 0.1036371961236, -0.045035529881715775, -0.010492848232388496, 0.030090078711509705, 0.0432504378259182, -0.07639958709478378, -0.13697414100170135, -0.03255460038781166, 0.042144060134887695, 0.030656224116683006, -0.0017164488090202212, -0.13105937838554382, 0.07279346138238907, 0.038451530039310455, -0.007664820179343224, 0.0597572885453701, 0.2635543942451477, -0.06636510044336319, -0.20666739344596863, 0.16774161159992218, -0.20455336570739746, 0.06962763518095016, 0.01617893949151039, -0.027675537392497063, -0.05435822159051895, -0.1355224996805191, 0.062148891389369965, 0.18013039231300354, -0.06608915328979492, 0.10871227085590363, 0.10779881477355957, -0.023105941712856293, 0.04634282365441322, -0.12347260117530823, 0.21024702489376068, -0.03933980315923691, 0.3116891384124756, -0.17026637494564056, -0.0519733764231205, -0.12029966711997986, -0.23240526020526886, -0.009404083713889122, -0.32201218605041504, 0.057691216468811035, 0.055373962968587875, 0.29680657386779785, -0.027799826115369797, -0.15136969089508057, 0.07175910472869873, 0.10560355335474014, -0.12087645381689072, 0.046018220484256744, -0.06573854386806488, 0.014522813260555267, -0.13281488418579102, -0.013657694682478905, 0.22595231235027313, -0.049963586032390594, 0.004912639036774635, 0.009423925541341305, -0.13469336926937103, 0.08374393731355667, -0.02419811300933361, 0.03496610373258591, -0.05002771317958832, 0.12993375957012177, -0.023992471396923065], [0.024066556245088577, -0.10951744765043259, 0.04949400946497917, 0.11036071926355362, -0.022911882027983665, 0.13680216670036316, -0.07897870987653732, 0.012526928447186947, 0.014384336769580841, -0.006850040517747402, -7.135027408367023e-05, -0.0702337995171547, 0.13492749631404877, 0.16586194932460785, 0.0923071876168251, 0.10393457859754562, 0.13178861141204834, -0.05443930625915527, 0.06984320282936096, -0.036356281489133835, -0.027339132502675056, -0.06270872056484222, 0.03504681587219238, -0.03796852007508278, -0.07618127018213272, 0.07331684976816177, 0.08074421435594559, -0.018586518242955208, -0.3377932906150818, -0.07117834687232971, 0.03229515999555588, 0.0023153824731707573, 0.09240582585334778, -0.10591085255146027, 0.007831539027392864, 0.06246953457593918, 0.0320405438542366, 0.047316405922174454, 0.13848569989204407, 0.030259018763899803, -0.013098721392452717, -0.01473882794380188, -0.060651980340480804, -0.06759858131408691, 0.09777093678712845, 0.09525314718484879, -0.11006326228380203, 0.050016216933727264, -0.2539249360561371, 0.07854416221380234, -0.0747678279876709, 0.3725665509700775, -0.24052903056144714, -0.08237352222204208, -0.15417835116386414, -0.08871916681528091, 0.1867874413728714, -0.2513357996940613, -0.049392156302928925, 0.0016525868559256196, 0.06427644193172455, -0.04992925748229027, 0.19906656444072723, 0.12484122812747955, 0.02980511635541916, 0.03911586105823517, 0.16437475383281708, -0.0010096902260556817, 0.070526123046875, 0.050032928586006165, -0.12131385505199432, 0.3466552197933197, -0.0148898521438241, -0.09080086648464203, -0.09009525179862976, 0.06462417542934418, -0.06555081903934479, 0.0056843869388103485, 0.0064345537684857845, 0.06396852433681488, -0.093796506524086, -0.1980397254228592, -0.17676305770874023, 0.23072580993175507, -0.0014893803745508194, -0.21217355132102966, -0.19970831274986267, 0.06020212173461914, 0.02849365770816803, -0.09934186935424805, 0.04918479546904564, 0.08195913583040237, 0.03933336213231087, 0.009996908716857433, -0.14785920083522797, 0.06924943625926971, 0.0311445239931345, 0.04846016317605972, -0.21014398336410522, -0.12195653468370438, 0.10649947822093964, 0.15281887352466583, 0.18931697309017181, -0.34750670194625854, -0.18320591747760773, -0.149431973695755, -0.0009709636215120554, 0.17046958208084106, 0.0036078898701816797, -0.1578633040189743, -0.24499836564064026, 0.11854121834039688, 0.03537764027714729, 0.05956215038895607, 0.056090742349624634, 0.08534884452819824, -0.023191815242171288, 0.07325660437345505, -0.08881403505802155, 0.22996807098388672, -0.010038218460977077, -0.27795666456222534, -0.065346859395504, -0.2471136450767517, -0.017902541905641556, -0.15637390315532684, -0.010861223563551903, -0.18673638999462128], [0.10500361770391464, -0.20869553089141846, -0.20099544525146484, -0.07740777730941772, -0.16494670510292053, -0.21119120717048645, 0.03149048984050751, 0.009336831048130989, -0.0878831148147583, -0.023683160543441772, 0.03387581184506416, 0.18965119123458862, 0.018343254923820496, -0.3190539479255676, -0.10587003827095032, 0.12469284236431122, -0.18447358906269073, -0.02822519652545452, 0.13440251350402832, -0.12157803773880005, 0.24264511466026306, 0.11458298563957214, 0.12558816373348236, 0.17275328934192657, 0.005119389854371548, -0.02231471613049507, -0.22464904189109802, -0.018438726663589478, -0.042995281517505646, -0.07370627671480179, 0.007424459792673588, -0.08402537554502487, -0.07785753905773163, 0.23700308799743652, -0.044579558074474335, -0.10567992180585861, -0.01626388169825077, -0.0018745659617707133, -0.16611576080322266, 0.2901726961135864, 0.09457220882177353, -0.10504119843244553, -0.06521972268819809, 0.10783570259809494, 0.0864887461066246, -0.08139223605394363, -0.14535894989967346, -0.10997562855482101, 0.06006600335240364, 0.06432309001684189, 0.1240992397069931, -0.0365133211016655, 0.008990139700472355, -0.07018644362688065, -0.013773337937891483, -0.02079518511891365, 0.043641626834869385, 0.2680625915527344, -0.057410914450883865, -0.0538208931684494, -0.0012444069143384695, -0.18720102310180664, -0.030162788927555084, -0.07527342438697815, -0.07654284685850143, 0.04282071068882942, -0.017392966896295547, 0.06062345206737518, -0.09730718284845352, -0.02124958112835884, -0.06974128633737564, -0.03769233822822571, 0.31024402379989624, 0.07123501598834991, -0.08645617216825485, -0.051023807376623154, -0.045770950615406036, -0.09349890798330307, -0.15168431401252747, -0.10315821319818497, -0.023126529529690742, 0.01287503819912672, -0.34555986523628235, 0.22132518887519836, 0.04559832438826561, -0.013466973789036274, 0.10073884576559067, 0.010639872401952744, -0.00646999990567565, -0.1130688413977623, -0.17354623973369598, -0.16988414525985718, -0.07859230041503906, 0.05221183970570564, -0.04710545763373375, -0.13911597430706024, -0.17905683815479279, 0.059002187103033066, 0.0785408690571785, 0.027121150866150856, -0.1421986073255539, 0.06896160542964935, 0.10774467885494232, -0.31706470251083374, -0.07460970431566238, -0.15010273456573486, -0.004747954662889242, 0.031316593289375305, -0.0014088212046772242, 0.05891551822423935, -0.09689781814813614, 0.07564157992601395, 0.19649218022823334, 0.020375190302729607, -0.031518518924713135, -0.010995996184647083, 0.28704315423965454, 0.034465037286281586, 0.18806615471839905, 0.07095560431480408, -0.11304616928100586, -0.030440818518400192, -0.008793817833065987, -0.014721478335559368, -0.06850440800189972, -0.1363299936056137, 0.20208097994327545, 0.173959419131279], [-0.014536160044372082, -0.014919825829565525, 0.020344506949186325, 0.06227347254753113, -0.01157204806804657, -0.07055723667144775, -0.11555787920951843, -0.0799727588891983, -0.06290321052074432, -0.17459137737751007, 0.08106467872858047, -0.10468661040067673, 0.13331939280033112, -0.1612585037946701, 0.18217907845973969, -0.17248675227165222, -0.01100122183561325, 0.20553012192249298, -0.09754759818315506, 0.032248470932245255, 0.13293792307376862, -0.227377250790596, -0.06637348979711533, 0.06944086402654648, -0.08371821790933609, 0.1392955631017685, 0.022421566769480705, -0.06495244055986404, 0.18278151750564575, -0.14746984839439392, 0.1662730723619461, 0.12863831222057343, -0.05900665000081062, 0.3072011172771454, -0.20320476591587067, -0.09781662374734879, 0.12040530890226364, 0.024433789774775505, -0.027875585481524467, -0.04545803368091583, 0.1196356937289238, -0.2325798124074936, -0.0034134951420128345, -0.0461297407746315, 0.2082653045654297, 0.14226114749908447, 0.14248031377792358, -0.08367151021957397, -0.09344983100891113, 0.03134102746844292, 0.002458833856508136, 0.007063588127493858, 0.20672203600406647, -0.06711445748806, 0.015124249272048473, 0.13527341187000275, -0.07210792601108551, -0.3122410178184509, -0.057693447917699814, 0.1967957615852356, -0.22812344133853912, 0.03928285464644432, 0.13784687221050262, -0.082689568400383, 0.2347850501537323, -0.06478060781955719, -0.041234612464904785, 0.06928597390651703, 0.03141731023788452, 0.12513844668865204, -0.04443923011422157, 0.030449574813246727, 0.1083204448223114, 0.01195096131414175, 0.09018587321043015, -0.07994751632213593, -0.001749896677210927, -0.1803411841392517, 0.09935186058282852, -0.2649208605289459, 0.01692051999270916, -0.0022948288824409246, 0.05918243154883385, -0.03963799029588699, -0.11386079341173172, 0.10030292719602585, 0.07889600098133087, 0.29957300424575806, 0.057944267988204956, -0.04916073754429817, -0.00334498705342412, -0.0870138555765152, -0.006527814548462629, -0.00430798577144742, -0.02994052693247795, -0.1406833380460739, -0.18100154399871826, -0.05419169366359711, -0.16390855610370636, -0.08005012571811676, -0.014423754066228867, 0.024068696424365044, -0.025158727541565895, 0.020984511822462082, -0.24533115327358246, -0.038750842213630676, -0.14310312271118164, 0.047619905322790146, -0.011640848591923714, -0.011301149614155293, 0.1511010229587555, -0.2950522005558014, -0.10921581834554672, 0.1368589550256729, 0.05278145894408226, -0.1384376585483551, -0.15433292090892792, 0.04766203463077545, -0.19616694748401642, 0.11269143223762512, 0.16432318091392517, -0.10027217119932175, 0.21681441366672516, 0.013107840903103352, -0.15619178116321564, -0.1540837287902832, 0.09901309758424759, -0.025451216846704483], [-0.05168766528367996, -0.22813189029693604, 0.0925094485282898, 0.05622177571058273, 0.1423071175813675, -0.11422771960496902, 0.0661715567111969, 0.03381143510341644, 0.03945561498403549, -0.032763805240392685, -0.04256492108106613, 0.07154430449008942, -0.04471268877387047, -0.12630581855773926, 0.08463140577077866, 0.33768072724342346, 0.08503007888793945, -0.025315267965197563, 0.18690429627895355, -0.10628551244735718, -0.11734296381473541, 0.10581237822771072, 0.10840863734483719, -0.11951092630624771, 0.09165084362030029, -0.3162189722061157, -0.15049293637275696, -0.010771844536066055, -0.07311888039112091, -0.0017280164174735546, -0.1578160971403122, -0.11011497676372528, -0.32153937220573425, 0.15400740504264832, -0.10264945030212402, -0.06401948630809784, -0.029047787189483643, 0.06602466851472855, 0.2921157479286194, 0.10258331149816513, -0.06683875620365143, -0.008297673426568508, 0.06362422555685043, -0.18726035952568054, -0.0980759710073471, -0.04282757267355919, -0.10434345155954361, 0.015811551362276077, -0.07505188882350922, -0.13596054911613464, -0.1552417278289795, 0.018563464283943176, 0.07706819474697113, -0.050761524587869644, -0.04302916303277016, 0.06794577836990356, 0.003650406375527382, -0.14175479114055634, 0.14006564021110535, 0.054620012640953064, -0.3257935643196106, 0.055804748088121414, -0.11982279270887375, -0.03198321536183357, -0.03937282785773277, 0.07643457502126694, -0.06074937433004379, -0.0010051182471215725, -0.06292901188135147, -0.05585797503590584, 0.2883327901363373, 0.07616326957941055, -0.02528703399002552, -0.2623802721500397, 0.16850827634334564, -0.050854939967393875, 0.07299268245697021, 0.0861353799700737, 0.18750643730163574, 0.16264037787914276, 0.03295861557126045, 0.19619998335838318, -0.018651800230145454, 0.06411628425121307, -0.17073529958724976, 0.02785145491361618, 0.28425049781799316, -0.030907725915312767, 0.3322746157646179, 0.013612009584903717, 0.07535591721534729, -0.12905198335647583, -0.15154992043972015, 0.07710301131010056, -0.007409897167235613, -0.1104486808180809, 0.10897895693778992, 0.0897250771522522, -0.10234657675027847, 0.04928209260106087, 0.009253060445189476, -0.2761192321777344, -0.1390085369348526, -0.03466412425041199, -0.10800863057374954, 0.1640353798866272, 0.06296227127313614, -0.12687499821186066, -0.023304056376218796, -0.0708417147397995, -0.09915533661842346, 0.05477319657802582, 0.09643364697694778, 0.04640933498740196, -0.07479114830493927, -0.1484277844429016, -0.11821988224983215, -0.14257429540157318, -0.17173703014850616, -0.06451936811208725, -0.06439589709043503, -0.04827345162630081, -0.0419713519513607, -0.035985928028821945, 0.04699179157614708, -0.06906922906637192, 0.05549485608935356, -0.034049149602651596], [-0.19742557406425476, 0.07448986172676086, -0.14730645716190338, 0.18691480159759521, -0.11313527822494507, -0.05182044580578804, -0.10384609550237656, 0.052479613572359085, 0.033861443400382996, 0.21580787003040314, -0.09269078820943832, -0.09248802810907364, 0.07624640315771103, -0.097109854221344, 0.19629380106925964, -0.06864023208618164, 0.25535017251968384, -0.07583535462617874, 0.37883004546165466, 0.14646725356578827, -0.015831852331757545, 0.2942812740802765, 0.00764470873400569, -0.047072891145944595, 0.13057105243206024, -0.06802821904420853, 0.09865889698266983, 0.09418284147977829, 0.06786969304084778, 0.004462903831154108, 0.18034720420837402, -0.12539422512054443, -0.0010607573203742504, 0.1937970519065857, 0.07258553802967072, 0.24225634336471558, -0.07812905311584473, 0.023636754602193832, -0.07662858814001083, 0.21539250016212463, 0.0386648066341877, 0.18210065364837646, -0.06324835121631622, 0.08929194509983063, 0.21674741804599762, 0.06567580997943878, -0.013397444039583206, -0.1751796156167984, 0.1949443370103836, -0.07316619902849197, 0.06619000434875488, 0.009486368857324123, -0.09536920487880707, 0.1677718460559845, -0.06567332148551941, 0.026356471702456474, 0.44889572262763977, 0.014402950182557106, -0.03989124298095703, -0.006992248352617025, -0.2753811478614807, -0.006961251609027386, -0.005660788621753454, 0.09182152897119522, 0.0403154119849205, 0.08522945642471313, -0.09569048136472702, -0.15248343348503113, 0.09086424112319946, 0.12734216451644897, -0.10376213490962982, 0.14390692114830017, 0.2335929274559021, 0.05915442109107971, 0.008267867378890514, -0.10909603536128998, 0.07223615795373917, 0.02089744433760643, -0.015491507016122341, 0.061985697597265244, -0.00980618130415678, 0.00797270517796278, -0.06843342632055283, 0.03889491781592369, -0.02565089613199234, 0.21922627091407776, -0.19849181175231934, -0.05572598800063133, 0.1099400669336319, -0.052422862499952316, -0.04641847312450409, -0.10158010572195053, -0.13038142025470734, 0.05007081851363182, 0.09512931108474731, -0.04716399312019348, -0.07089968025684357, -0.14576299488544464, 0.023274900391697884, -0.13588421046733856, 0.037062983959913254, 0.005550609901547432, -0.0018967407522723079, 0.07282799482345581, -0.09385979175567627, -0.05544854700565338, -0.0700574591755867, -0.20035170018672943, 0.151004821062088, -0.03768324851989746, 0.25063198804855347, -0.1351902335882187, 0.09895796328783035, -0.18176276981830597, -0.2245347946882248, 0.025873474776744843, -0.05029816925525665, 0.07878927886486053, 0.20795468986034393, -0.10462108254432678, 0.0920897051692009, -0.015699459239840508, -0.08067290484905243, 0.10670551657676697, -0.054476864635944366, 0.09946972876787186, -0.3878428637981415, 0.17015530169010162], [0.16489006578922272, -0.038555655628442764, -0.132546067237854, -0.04676118865609169, 0.14475014805793762, 0.27890676259994507, -0.16983912885189056, 0.01747307740151882, -0.19138231873512268, 0.1594565361738205, 0.1918099969625473, 0.12113019078969955, -0.20690873265266418, -0.11116795986890793, -0.11956286430358887, -0.00979926809668541, 0.08470217883586884, -0.10145282745361328, -0.024752359837293625, -0.11345174163579941, -0.12328214943408966, -0.07272704690694809, -0.15983036160469055, -0.07259617745876312, -0.050179123878479004, 0.1370117962360382, 0.0082221245393157, 0.15152351558208466, 0.03716932609677315, -0.06491952389478683, -0.014573391526937485, 0.07069886475801468, 0.025980986654758453, -0.07715271413326263, -0.057856056839227676, 0.11103861778974533, 0.13805940747261047, 0.33017662167549133, -0.17191556096076965, -0.06108523905277252, -0.07966099679470062, 0.002742640906944871, -0.23928062617778778, 0.04586626961827278, -0.18238459527492523, -0.2427312731742859, -0.08886415511369705, -0.1113603338599205, 0.010829792357981205, 0.24997714161872864, 0.1751142293214798, 0.002988728927448392, -0.13960617780685425, 0.13557648658752441, -0.06338781118392944, -0.3455098569393158, 0.024604275822639465, 0.0861649364233017, 0.20252418518066406, 0.1335645616054535, -0.26860857009887695, 0.07560936361551285, 0.09616900235414505, 0.06394198536872864, 0.13369716703891754, 0.05868101492524147, 0.030821871012449265, 0.05249984189867973, -0.16503892838954926, 0.1357610821723938, 0.006040087901055813, 0.03874273598194122, 0.015216371975839138, -0.10607655346393585, -0.02785492315888405, 0.07406086474657059, -0.09230612218379974, 0.08914314955472946, 0.05417300760746002, 0.0006666113040409982, -0.055952854454517365, 0.19530943036079407, 0.05816446989774704, 0.17695704102516174, 0.003063361393287778, 0.10119404643774033, 0.13400378823280334, 0.0023884479887783527, -0.051222335547208786, 0.13275393843650818, 0.08772469311952591, 0.038453951478004456, 0.024050557985901833, 0.03209752216935158, 0.08991780132055283, -0.020443469285964966, 0.1530158668756485, 0.02420351468026638, 0.0953727588057518, -0.18553009629249573, -0.08707382529973984, 0.07707323879003525, -0.07037948071956635, -0.07847467064857483, -0.10219338536262512, 0.2317609190940857, -0.05901851877570152, 0.031019754707813263, 0.11979233473539352, -0.2832507789134979, 0.15602318942546844, -0.029166920110583305, 0.14434511959552765, -0.20626972615718842, -0.06871362775564194, -0.13347265124320984, -0.01997051201760769, 0.16423152387142181, -0.013791583478450775, -0.02224895730614662, 0.05730212852358818, 0.1263541579246521, 0.20494142174720764, -0.07751588523387909, -0.13276506960391998, 0.045773401856422424, 0.18738561868667603, 0.05391347035765648], [-0.1995617300271988, -0.15479369461536407, -0.04065939784049988, -0.044778913259506226, 0.14581353962421417, 0.16190776228904724, 0.13977332413196564, -0.01104524452239275, -0.09458085894584656, 0.05229205638170242, 0.037549883127212524, -0.19894009828567505, -0.009207770228385925, 0.08427824825048447, -0.11956258118152618, 0.13736094534397125, -0.14944665133953094, -0.009952102787792683, 0.1801065057516098, -0.15939652919769287, 0.024789942428469658, 0.026010414585471153, -0.26698222756385803, 0.014162510633468628, 0.08806675672531128, 0.08410188555717468, 0.10404448956251144, -0.08282780647277832, 0.01374361664056778, -0.05893304944038391, 0.13309220969676971, 0.032760635018348694, 0.008360222913324833, 0.19414639472961426, -0.037393566220998764, 0.18593336641788483, -0.04766111448407173, 0.12903618812561035, -0.09612530469894409, -0.09083373099565506, -0.07562480866909027, -0.1761571317911148, 0.09572570025920868, -0.04502519965171814, -0.11888095736503601, 0.07585117220878601, 0.12308545410633087, 0.10240817815065384, -0.004992110189050436, 0.2275322526693344, 0.007482179440557957, 0.024919135496020317, -0.035089604556560516, 0.11663886904716492, 0.13867677748203278, 0.008755826391279697, 0.24014534056186676, -0.0797613263130188, 0.0241308081895113, -0.3706195652484894, -0.023467885330319405, 0.0028308406472206116, 0.15289154648780823, -0.23060333728790283, -0.1374005824327469, 0.12877504527568817, 0.09582782536745071, 0.07284292578697205, -0.14035697281360626, 0.15541531145572662, 0.07978231459856033, -0.08725787699222565, 0.23214368522167206, 0.0939302071928978, 0.12991395592689514, 0.06985656917095184, -0.05333944410085678, -0.15202763676643372, -0.21245405077934265, 0.10573334991931915, -0.0915728285908699, 0.02831396646797657, 0.1938420832157135, -0.1146237775683403, 0.10454393178224564, 0.17436307668685913, -0.2874946594238281, 0.06712612509727478, 0.27157142758369446, 0.017383230850100517, -0.015344513580203056, 0.12820321321487427, -0.07374928891658783, 0.015671538189053535, 0.17991842329502106, -0.030200548470020294, -0.05005819350481033, -0.022685829550027847, 0.21801908314228058, 0.005195599049329758, -0.08370350301265717, 0.06485643237829208, 0.06567627191543579, 0.006815608590841293, 0.06956538558006287, -0.14418351650238037, 0.09930034726858139, 0.07718765735626221, -0.19723089039325714, 0.22296948730945587, -0.11524289846420288, 0.11115540564060211, 0.04392792284488678, 0.2878761291503906, -0.12941983342170715, -0.12579187750816345, -0.0619184784591198, -0.16564403474330902, 0.04385561868548393, -0.26684415340423584, -0.0031623649410903454, -0.11936859786510468, 0.07713306695222855, -0.11363226175308228, -0.07238747179508209, -0.15573948621749878, 0.024936862289905548, -0.2557969093322754], [0.16846135258674622, 0.18108157813549042, 0.14240948855876923, 0.1714097410440445, 0.14338833093643188, 0.0009394751978106797, -0.05261995643377304, -0.19918420910835266, -0.16974297165870667, 0.05171079933643341, -0.01585274375975132, -0.13495494425296783, -0.037327371537685394, -0.07387220859527588, -0.014117717742919922, 0.049016617238521576, -0.06463870406150818, -0.004845932126045227, -0.14645551145076752, 0.0726906955242157, 0.0003910959931090474, 0.1837003380060196, 0.011828948743641376, 0.017502890899777412, 0.054479312151670456, 0.13113830983638763, 0.13221310079097748, -0.07483527809381485, 0.07615289092063904, 0.17635513842105865, 0.1388574093580246, -0.011284721083939075, -0.15533272922039032, 0.18742336332798004, -0.02620670013129711, -0.1407264918088913, 0.0069680833257734776, -0.1240517869591713, 0.008553883992135525, -0.08392968773841858, -0.19262197613716125, 0.34242910146713257, -0.07447230815887451, 0.17857739329338074, -0.1589098423719406, 0.16062545776367188, 0.06822072714567184, 0.060528576374053955, -0.15277205407619476, 0.0015642811777070165, 0.029185324907302856, -0.02591942436993122, -0.1823285073041916, -0.16990992426872253, -0.03845825046300888, 0.051676928997039795, -0.05517655611038208, -0.1243634894490242, -0.11376293003559113, 0.05173666775226593, -0.05774691328406334, -0.1052970290184021, 0.1796724498271942, 0.012387042865157127, 0.05988702178001404, 0.11219950020313263, -0.10913530737161636, 0.10929805040359497, -0.37378421425819397, -0.1460740566253662, 0.08822981268167496, 0.060383141040802, 0.08703599125146866, -0.0055421944707632065, 0.039745889604091644, -0.14294646680355072, -0.19416627287864685, -0.0078213419765234, -0.06571131199598312, -0.03612344339489937, -0.025625858455896378, 0.006010903976857662, -0.2212757170200348, -0.012527783401310444, 0.16480770707130432, -0.010574406944215298, 0.030152203515172005, 0.01492251455783844, 0.07443131506443024, 0.06531277298927307, 0.052226945757865906, 0.013656378723680973, 0.16721762716770172, 0.07822251319885254, 0.17487038671970367, 0.10568847507238388, 0.0950050875544548, -0.0590754933655262, -0.06453143060207367, 0.1698945313692093, 0.11190872639417648, -0.11282151192426682, 0.0742700919508934, -0.03653297945857048, 0.1545695960521698, -0.24987846612930298, -0.1737123727798462, 0.1276279240846634, 0.1923854649066925, 0.06524386256933212, 0.009014744311571121, -0.20988264679908752, 0.16213946044445038, -0.07834533601999283, -0.38731393218040466, 0.10728905349969864, 0.015349109657108784, -0.07089076936244965, 0.0756545290350914, -0.06339605152606964, 0.016402460634708405, 0.014287074096500874, -0.04642109572887421, -0.045748647302389145, 0.21202149987220764, 0.06455296277999878, 0.2035224884748459, 0.10804559290409088], [-0.06669660657644272, -0.10807331651449203, 0.05777822434902191, 0.2106228619813919, 0.06624818593263626, -0.11142955720424652, 0.1301916390657425, -0.04904055595397949, 0.176844522356987, 0.1636437177658081, -0.05910209193825722, 0.15926288068294525, 0.04307231679558754, -0.05263835936784744, -0.06052524968981743, -0.09998075664043427, -0.07269828021526337, 0.02395589090883732, -0.10061078518629074, 0.09830010682344437, 0.10495808720588684, -0.14135000109672546, -0.10599449276924133, -0.08381656557321548, 0.06087939813733101, 0.11884362995624542, 0.0507655031979084, 0.03999060392379761, 0.08938824385404587, 0.19623850286006927, -0.12495435029268265, 0.09502354264259338, -0.12691019475460052, -0.0035075920168310404, -0.10149897634983063, -0.07289227843284607, -0.07177260518074036, 0.057844989001750946, 0.07924827933311462, 0.14812543988227844, 0.12005690485239029, -0.006095388438552618, -0.012563462369143963, 0.07917679101228714, -0.03540574014186859, 0.19340723752975464, -0.23427529633045197, -0.11879720538854599, -0.03807606175541878, 0.33589255809783936, -0.14498645067214966, 0.16311359405517578, 0.08022791147232056, 0.07448995113372803, 0.22694198787212372, 0.03771401569247246, 0.11534193158149719, -0.1738530993461609, 0.09583757817745209, 0.06068271026015282, -0.05838339403271675, -0.14935915172100067, -0.21673624217510223, 0.13880328834056854, -0.02638489566743374, -0.04436614736914635, 0.14674192667007446, -0.021964844316244125, -0.1312059760093689, 0.06773524731397629, 0.018823932856321335, 0.22498372197151184, 0.1069546714425087, 0.0895911231637001, -0.13366124033927917, 0.24249257147312164, 0.11056454479694366, 0.1537267416715622, 0.1407499611377716, 0.01764325611293316, 0.11192851513624191, 0.1393674910068512, 0.02017412707209587, -0.04146791249513626, 0.23739896714687347, -0.27343878149986267, 0.14110146462917328, -0.11775018274784088, -0.14419399201869965, 0.037506915628910065, -0.15368689596652985, 0.13543403148651123, 0.08534711599349976, -0.029960589483380318, 0.026922689750790596, -0.14059191942214966, -0.19319723546504974, 0.15829166769981384, 0.01564127765595913, 0.031161924824118614, -0.007032147608697414, 0.12871810793876648, 0.039943959563970566, 0.04109111428260803, 0.12013611197471619, -0.1508769690990448, 0.2588694989681244, -0.06260719150304794, -0.045847874134778976, 0.06608349084854126, 0.19406114518642426, -0.036385100334882736, 0.11658912897109985, -0.119245745241642, 0.019214222207665443, -0.006824791431427002, -0.20670495927333832, -0.12871621549129486, 0.057085346430540085, 0.0615483857691288, 0.015416649170219898, -0.03482401371002197, 0.1339065581560135, 0.2224937528371811, 0.004543611314147711, 0.15440517663955688, 0.0812823697924614, -0.2668670117855072], [-0.013142763637006283, 0.02044583670794964, -0.0862390398979187, 0.04893562197685242, 0.20809459686279297, -0.02076774276793003, -0.15243315696716309, 0.19111746549606323, 0.0533333420753479, 0.10116448998451233, 0.2865355908870697, 0.06477046757936478, 0.3339989483356476, -0.07998183369636536, 0.0588124580681324, 0.08898033946752548, -0.19615662097930908, -0.03789633512496948, -0.06591956317424774, -0.2948843240737915, -0.10335381329059601, -0.34454408288002014, -0.0296196136623621, -0.0809917151927948, -0.13755270838737488, -0.10141010582447052, 0.034428611397743225, 0.08114028722047806, 0.11549635231494904, 0.010458766482770443, -0.0689181238412857, -0.04683806747198105, 0.20187103748321533, -0.010765708051621914, -0.12515540421009064, -0.03270922601222992, -0.05747973173856735, -0.3800694942474365, 0.056147847324609756, 0.23894599080085754, 0.027741998434066772, -0.07968944311141968, -0.2409718930721283, 0.09012235701084137, 0.03904297202825546, -0.29930880665779114, 0.10541704297065735, 0.03172110393643379, -0.01944895274937153, -0.262143611907959, 0.0883251503109932, 0.07040110975503922, 0.04181094095110893, -0.0705936923623085, -0.007093438878655434, -0.02155686914920807, 0.058945219963788986, 0.07017853856086731, -0.22418232262134552, -0.05934249982237816, -0.051076631993055344, 0.057477135211229324, 0.0015376104274764657, 0.21775025129318237, 0.005202543921768665, 0.07417668402194977, -0.0620274543762207, 0.01766251027584076, -0.0967586413025856, -0.005764721427112818, 0.025283802300691605, 0.041121955960989, -0.07465461641550064, 0.2278556525707245, -0.02113856002688408, 0.17910140752792358, 0.054158445447683334, 0.1832982897758484, -0.1605222523212433, 0.1623108834028244, -0.11785036325454712, -0.04414952173829079, -0.008863589726388454, -0.04783688858151436, 0.01125237625092268, 0.049926191568374634, -0.0923449844121933, -0.08051217347383499, 0.23186659812927246, 0.02839169092476368, -0.20056281983852386, 0.1469666212797165, -0.09256397932767868, -0.09808941185474396, 0.25240692496299744, -0.14476421475410461, 0.12385636568069458, -0.05058092251420021, -0.13507772982120514, 0.01844317652285099, 0.003219802398234606, -0.1464211642742157, 0.14335191249847412, 0.08951739221811295, 0.18910937011241913, -0.04742596298456192, -0.020069891586899757, -0.01700582168996334, 0.036044999957084656, -0.10853426158428192, 0.07839635014533997, -0.2128649652004242, 0.004471362102776766, 0.07423823326826096, -0.011332957074046135, 0.10170849412679672, 0.04704027995467186, -0.03964974731206894, 0.006753901951014996, -0.06346840411424637, -0.10680592060089111, -0.172288715839386, 0.10163488239049911, 0.04942512512207031, -0.10607679188251495, -0.11509113758802414, -0.02160211093723774, 0.0287050548940897], [-0.14070919156074524, 0.12980391085147858, -0.07823958247900009, 0.09808924794197083, 0.19420641660690308, 0.07930722832679749, 0.22974155843257904, 0.20552444458007812, 0.01292301807552576, 0.2977512776851654, -0.0117435147985816, 0.029309170320630074, -0.24563884735107422, -0.007368328515440226, 0.052991557866334915, -0.002101205289363861, -0.06223897263407707, 0.03361658379435539, -0.1868017315864563, -0.1632646769285202, -0.13420496881008148, 0.047633398324251175, -0.11920809745788574, 0.08573237806558609, 0.012144846841692924, 0.117369644343853, 0.0776863545179367, -0.007314218673855066, -0.06991513818502426, 0.22683565318584442, 0.04912516102194786, -0.14051441848278046, -0.08386258035898209, 0.1953616738319397, -0.019250238314270973, 0.062837615609169, -0.15744660794734955, -0.1038672998547554, -0.0399467833340168, 0.17907929420471191, -0.10891258716583252, 0.10820630937814713, -0.08442825078964233, -0.12928339838981628, 0.07212240993976593, -0.07266451418399811, 0.010646921582520008, 0.022356199100613594, -0.19512920081615448, -0.04168413206934929, -0.05122026056051254, -0.1776270568370819, -0.10416872799396515, -0.030753610655665398, -0.02554469369351864, 0.11834923177957535, -0.023286107927560806, 0.08677742630243301, 0.12922056019306183, -0.05306170508265495, -0.1561615765094757, 0.03856600448489189, 0.023130299523472786, 0.007673312909901142, 0.05647094175219536, 0.1172785833477974, -0.02531541883945465, -0.11245735734701157, 0.11555340886116028, -0.10641587525606155, -0.11370746791362762, -0.166588693857193, -0.13260871171951294, -0.21728183329105377, -0.00890964362770319, 0.13207101821899414, 0.034681301563978195, -0.2050146609544754, 0.19545963406562805, -0.3116047978401184, 0.019542014226317406, -0.21876689791679382, -0.09951817989349365, -0.20003053545951843, 0.17945539951324463, -0.07258530706167221, -0.16154050827026367, -0.06340093910694122, -0.04379685968160629, -0.10455261915922165, 0.2127843052148819, -0.21895532310009003, -0.02535843662917614, -0.025002388283610344, 0.06493240594863892, -0.06555451452732086, -0.14395909011363983, 0.12282774597406387, -0.024217311292886734, -0.16292069852352142, -0.06060667708516121, 0.06944362074136734, -0.046055350452661514, -0.006272139959037304, 0.09884239733219147, -0.01483222097158432, -0.0390729121863842, 0.05401564761996269, -0.24637070298194885, -0.10530678927898407, 0.04251634329557419, -0.003390492405742407, 0.08595600724220276, -0.19367000460624695, 0.15952450037002563, -0.08887235820293427, -0.025817908346652985, -0.22665493190288544, 0.016722286120057106, 0.06263173371553421, -0.09821733087301254, -0.14736686646938324, -0.012778849340975285, -0.03398106247186661, -0.10804031044244766, -0.3102162778377533, -0.008028234355151653, 0.19048760831356049], [0.060846444219350815, -0.1672753095626831, 0.04873649775981903, -0.15500527620315552, 0.11137840151786804, -0.10274351388216019, -0.16014665365219116, -0.10477452725172043, 0.00838318932801485, 0.00014545452722813934, -0.07443749159574509, -0.05003373697400093, 0.012728764675557613, -0.11670277267694473, -0.21282263100147247, 0.06038692221045494, -0.03786787390708923, -0.06276943534612656, 0.0858878418803215, -0.05842795595526695, 0.2737185060977936, 0.013561725616455078, 0.049969375133514404, 0.017782606184482574, -0.3103528916835785, -0.08530295640230179, -0.08113671839237213, -0.03907736390829086, -0.06181307137012482, -0.021141527220606804, -0.14911489188671112, 0.12408032268285751, 0.13236938416957855, 0.05771002918481827, -0.09481613337993622, 0.22150230407714844, -0.12512995302677155, 0.03647905960679054, -0.14566227793693542, 0.02729886770248413, -0.1494079828262329, 0.07731518149375916, 0.24671943485736847, 0.01715204305946827, 0.007605583406984806, -0.059997834265232086, -0.0029021077789366245, 0.011965042911469936, 0.1969340294599533, 0.15288789570331573, -0.24074852466583252, 0.011209748685359955, 0.02297331765294075, 0.028127312660217285, -0.10412263125181198, 0.15121962130069733, -0.0907057672739029, 0.07480774074792862, -0.17278814315795898, 0.14458796381950378, -0.1282183825969696, -0.04713724926114082, -0.008697140961885452, 0.20265501737594604, -0.01215088739991188, 0.31985530257225037, -0.009562090039253235, -0.039069969207048416, 0.07465967535972595, 0.09285459667444229, 0.148989737033844, 0.04792610555887222, 0.027079695835709572, -0.10531733185052872, -0.07148439437150955, 0.1113627552986145, 0.001059065107256174, 0.14562878012657166, 0.26256412267684937, 0.026874713599681854, 0.193167045712471, -0.030288182199001312, 0.032374583184719086, -0.27428025007247925, 0.24484294652938843, 0.08099334686994553, -0.14145728945732117, -0.11385918408632278, -0.07900280505418777, -0.014750532805919647, 0.1916097104549408, 0.048861436545848846, -0.0537971556186676, -0.05006778985261917, -0.03771863505244255, 0.1652684509754181, 0.09881269931793213, -0.029733283445239067, -0.01549094170331955, 0.1052137091755867, -0.06382948160171509, 0.08575867116451263, 0.038276154547929764, 0.11627742648124695, -0.0668884739279747, -0.11643624305725098, -0.3462226688861847, -0.11524000763893127, -0.061231356114149094, 0.0048191137611866, -0.2923896610736847, -0.0737898200750351, -0.12915664911270142, -0.04228190332651138, -0.05598711967468262, 0.026502136141061783, -0.03738062083721161, 0.24118684232234955, 0.09768962860107422, 0.11298666894435883, 0.1489042043685913, 0.01830247975885868, 0.1413196176290512, 0.13925236463546753, -0.0014833087334409356, -0.19048604369163513, 0.03339783102273941, 0.00591669324785471], [0.12481571733951569, -0.057280443608760834, -0.0074263024143874645, -0.21076014637947083, -0.03916114568710327, 0.12172815948724747, 0.11285316199064255, 0.003053894964978099, -0.03149614855647087, 0.09107166528701782, 0.016461700201034546, -0.16907326877117157, -0.0460471510887146, -0.09099150449037552, -0.20191968977451324, 0.128431037068367, 0.03747040033340454, -0.034417543560266495, 0.2909526228904724, 0.1470889151096344, -0.23468545079231262, -0.05363218113780022, 0.23967331647872925, 0.046168290078639984, 0.05160219222307205, -0.016921615228056908, 0.20584683120250702, -0.01138297002762556, -0.062427133321762085, -0.19266411662101746, -0.10412154346704483, 0.06773723661899567, -0.049887437373399734, -0.005427069030702114, -0.19999167323112488, -0.08394848555326462, -0.10912879556417465, -0.057503096759319305, -0.0981052964925766, 0.09013447910547256, -0.029827935621142387, -0.0959310382604599, -0.2530580461025238, 0.02983936481177807, -0.06221522018313408, 0.051472339779138565, 0.08789857476949692, 0.06523413956165314, 0.24195034801959991, -0.10118316113948822, -0.05402955040335655, -0.04236578941345215, -0.07153336703777313, -0.24462725222110748, -0.2384253740310669, 0.166342094540596, 0.2619766294956207, -0.010334275662899017, 0.19331930577754974, 0.028856348246335983, 0.050991322845220566, 0.15506453812122345, 0.18422891199588776, -0.10727624595165253, -0.007824010215699673, 0.2094261646270752, -0.13938376307487488, 0.019720889627933502, 0.21185371279716492, -0.09914392977952957, -0.03080812841653824, 0.041930243372917175, 0.061076872050762177, 0.08717607706785202, -0.11753730475902557, 0.2320995181798935, -0.14785946905612946, -0.03279360383749008, 0.15813054144382477, 0.0030479184351861477, 0.10753946751356125, 0.01992739364504814, 0.051509495824575424, 0.1223902702331543, -0.06155415624380112, -0.1678943932056427, 0.20366501808166504, 0.11594698578119278, -0.026936504989862442, 0.15849843621253967, -0.14560773968696594, -0.02921663597226143, 0.03188411891460419, -0.20198802649974823, -0.0018097130814567208, 0.227814182639122, -0.18859286606311798, 0.15427915751934052, 0.006491062697023153, -0.024718597531318665, 0.039459485560655594, 0.13408170640468597, 0.11909063160419464, 0.219123974442482, -0.0005839751102030277, -0.10055842250585556, 0.1112188771367073, 0.01812662184238434, -0.020644500851631165, -0.06000287085771561, 0.017417164519429207, -0.15369263291358948, -0.17867664992809296, 0.043298400938510895, -0.15122681856155396, -0.06377525627613068, 0.013278279453516006, -0.2979974150657654, -0.03207609802484512, -0.03209296241402626, 0.049596209079027176, 0.09368185698986053, 0.05794787406921387, 0.04976675286889076, -0.05655883997678757, 0.14449915289878845, 0.04654838889837265, 0.14605861902236938], [0.07671020925045013, -0.12799368798732758, -0.015673203393816948, -0.11880248039960861, 0.08414876461029053, 0.0037207510322332382, -0.08600489050149918, -0.14743758738040924, -0.09437917172908783, 0.17625701427459717, -0.008286913856863976, 0.06718611717224121, 0.03612270578742027, 0.05019521713256836, 0.04894578084349632, -0.002937501762062311, 0.09446394443511963, -0.045442864298820496, -0.14938654005527496, 0.23043623566627502, 0.0012920843437314034, 0.00935601070523262, 0.017938710749149323, -0.022943397983908653, -0.08337652683258057, 0.19730371236801147, 0.11986277997493744, 0.15555834770202637, -0.10088048875331879, 0.059729281812906265, 0.017634278163313866, -0.2285938709974289, 0.02797592431306839, -0.13824933767318726, -0.1740117371082306, -0.24113929271697998, -0.14058223366737366, -0.13878628611564636, -0.13278846442699432, -0.19064146280288696, 0.08717833459377289, 0.009843612089753151, 0.1369483768939972, -0.12919732928276062, -0.04458833113312721, 0.1103539690375328, 0.16050657629966736, -0.2455812692642212, -0.09066576510667801, 0.18487274646759033, -0.1129503846168518, 0.13724684715270996, 0.08990243822336197, 0.005461909342557192, -0.2761733829975128, 0.052158765494823456, -0.07462578266859055, 0.16421087086200714, -0.25241619348526, 0.1621355265378952, -0.1170402392745018, 0.10604556649923325, -0.02949228137731552, -0.1390191614627838, -0.14294806122779846, 0.02033330872654915, -0.17758025228977203, -0.03137165307998657, 0.09873586893081665, 0.15821130573749542, -0.09090590476989746, 0.019364366307854652, -0.17183518409729004, 0.20787806808948517, 0.10938747227191925, -0.09507957845926285, -0.0786794126033783, 0.037400927394628525, 0.2253667116165161, -0.08742981404066086, -0.026787331327795982, -0.02596072107553482, 0.04375633969902992, 0.1352158784866333, -0.04283466562628746, -0.10825186967849731, -0.023540925234556198, 0.08184917271137238, 0.03591436147689819, 0.014569058082997799, 0.07025852054357529, 0.07111043483018875, -0.05087969824671745, -0.1337575614452362, -0.0999554917216301, -0.23295478522777557, 0.08125752955675125, -0.2376815527677536, 0.13388480246067047, 0.019760409370064735, 0.09398108720779419, 0.07778634876012802, 0.16662180423736572, -0.07995397597551346, -0.019122101366519928, 0.1575845330953598, 0.017131345346570015, -0.06914007663726807, -0.1930207461118698, 0.143594428896904, 0.066014863550663, 0.06125366687774658, 0.18880486488342285, 0.03997749835252762, 0.09820817410945892, -0.2422436773777008, 0.24295523762702942, -0.08550160378217697, 0.04489721357822418, -0.08911639451980591, -0.23883655667304993, 0.07610918581485748, -0.16093792021274567, 0.05860317498445511, 0.05443825200200081, -0.04049144312739372, -0.033059168606996536, -0.2052977830171585], [0.17072193324565887, -0.05999080091714859, 0.05499723181128502, 0.05382205545902252, 0.12072350084781647, 0.08302699774503708, 0.08389120548963547, 0.10683242976665497, -0.05774937570095062, 0.21024271845817566, -0.13462232053279877, -0.21801182627677917, 0.2117275446653366, 0.004754301160573959, 0.0597635917365551, 0.08288667351007462, 0.1317988932132721, -0.04977721720933914, -0.0012432310031726956, -0.16113898158073425, -0.015412564389407635, -0.09318529814481735, -0.12566550076007843, 0.162092924118042, 0.037738725543022156, -0.2588711678981781, -0.05296609550714493, -0.027881495654582977, 0.03897562250494957, -0.09574564546346664, -0.05710966885089874, 0.2284589409828186, -0.12561142444610596, -0.2683688700199127, -0.07639704644680023, -0.009161435067653656, 0.0287115927785635, 0.01446578186005354, 0.02561703324317932, 0.04830783233046532, 0.10744816809892654, 0.2711731195449829, 0.18757261335849762, -0.06584823131561279, 0.10828188061714172, -0.010164576582610607, 0.13654395937919617, 0.053582336753606796, 0.05463920533657074, 0.05978023633360863, 0.10920798778533936, -0.07862977683544159, 0.22683675587177277, -0.03379394859075546, -0.04727238416671753, -0.04054642841219902, -0.15344151854515076, 0.2256031185388565, 0.10617931932210922, -0.013295329175889492, -0.04537880793213844, -0.22750896215438843, -0.0029984598513692617, -0.027045251801609993, -0.09044051170349121, 0.08856318145990372, 0.10588376969099045, -0.05274356156587601, -0.1906684786081314, 0.012479858472943306, -0.297063410282135, 0.11495289206504822, -0.13329064846038818, 0.09124889969825745, 0.1000392735004425, -0.10042091459035873, 0.02838001400232315, -0.032120250165462494, 0.0992414727807045, 0.1630837470293045, 0.0667802020907402, 0.027478858828544617, -0.08136448264122009, 0.16622282564640045, 0.007710434030741453, 0.20330512523651123, -0.01970810629427433, 0.08764085173606873, 0.002178881550207734, -0.08428710699081421, -0.022490140050649643, 0.0514211468398571, 0.23318374156951904, -0.17491938173770905, -0.079278364777565, -0.09322554618120193, -0.07985182106494904, -0.003382962429895997, 0.02152138389647007, 0.016056600958108902, -0.23127180337905884, 0.14301757514476776, -0.22013145685195923, -0.12600789964199066, 0.21593062579631805, -0.14482180774211884, -0.003386468393728137, 0.11243310570716858, -0.012339622713625431, -0.043596357107162476, 0.03402027487754822, -0.1275469809770584, 0.0023809969425201416, 0.15481019020080566, 0.061271823942661285, -0.2789100408554077, -0.06466260552406311, -0.12378181517124176, -0.08426247537136078, 0.2300083339214325, 0.25473904609680176, 0.01179785281419754, -0.05764967203140259, -0.08773867785930634, 0.22415116429328918, 0.01959543116390705, -0.16072110831737518, 0.030859120190143585], [-0.041017889976501465, 0.018186694011092186, 0.11687622219324112, -0.009372659958899021, -0.32818204164505005, -0.021447157487273216, 0.05535352975130081, 0.2802348732948303, 0.008057698607444763, -0.2117467224597931, 0.033175431191921234, -0.10049104690551758, -0.11559314280748367, -0.021829843521118164, 0.026364313438534737, 0.1846712827682495, 0.20044171810150146, 0.004882513545453548, -0.10979117453098297, 0.02521015703678131, 0.09252123534679413, -0.05532257631421089, 0.12228674441576004, 0.03081267885863781, -0.0420248880982399, 0.18593239784240723, -0.07166142016649246, -0.15121474862098694, -0.10576926916837692, 0.10982339084148407, -0.06671310216188431, 0.13615955412387848, -0.018465325236320496, -0.05958385020494461, 0.2734285891056061, 0.023118428885936737, -0.10475577414035797, -0.15622572600841522, -0.014287262223660946, -0.005368576385080814, -0.045876216143369675, -0.10210096836090088, 0.07162094116210938, -0.1005512997508049, -0.2363409399986267, 0.06800273805856705, -0.027722761034965515, -0.15701493620872498, 0.154493048787117, -0.15660737454891205, 0.23069387674331665, -0.11109054833650589, 0.12350605428218842, -0.0623665452003479, -0.1128719374537468, -0.15917007625102997, 0.20234455168247223, -0.08720418810844421, -0.11859496682882309, -0.19824819266796112, -0.0792289525270462, -0.038027483969926834, 0.09177415072917938, 0.14703993499279022, 0.003076904686167836, -0.09693685919046402, 0.062114566564559937, 0.09254161268472672, -0.09144793450832367, 0.10243654996156693, -0.13353988528251648, -0.07973761111497879, -0.06168391555547714, -0.07743794471025467, 0.06834247708320618, 0.11913735419511795, -0.004744255915284157, -0.07577192038297653, 0.3276630640029907, 0.07337398082017899, -0.0680140033364296, 0.1204340010881424, 0.08589651435613632, -0.09079144895076752, 0.08298198133707047, -0.14315170049667358, -0.00143137713894248, 0.08374191075563431, 0.12617038190364838, 0.16242888569831848, 0.12582148611545563, 0.15460412204265594, 0.2011871039867401, 0.15116778016090393, -0.03407648578286171, -0.04481841251254082, -0.08275497704744339, 0.012874320149421692, 0.00974695011973381, -0.1416115015745163, -0.39142176508903503, -0.003381987102329731, -0.07232173532247543, 0.15013577044010162, -0.14621476829051971, -0.09950084984302521, 0.05024236813187599, -0.011868378147482872, 0.04474494606256485, 0.041035886853933334, 0.05150148272514343, -0.30142742395401, 0.17573322355747223, -0.015916911885142326, 0.0768611878156662, -4.141662429901771e-05, 0.17443397641181946, 0.19722113013267517, 0.037046805024147034, 0.01702258735895157, -0.23576410114765167, -0.021228594705462456, -0.10424841940402985, 0.06976792961359024, 0.13518746197223663, 0.002153376815840602, 0.09832204133272171, -0.03981560468673706], [0.01299385167658329, -0.04160783439874649, 0.0793500691652298, -0.18627296388149261, 0.0595029816031456, -0.02158891223371029, 0.04957406595349312, 0.12782712280750275, -0.043593864887952805, -0.042103223502635956, -0.282450795173645, -0.19741280376911163, 0.01657908968627453, -0.030162828043103218, -0.024439722299575806, -0.05192643031477928, -0.0071457489393651485, 0.11427856236696243, 0.05292708799242973, 0.0859905406832695, -0.09335730224847794, -0.17316608130931854, -0.02433876320719719, 0.03196200728416443, -0.1516600251197815, -0.19347023963928223, -0.15968702733516693, 0.010823749005794525, -0.05019095540046692, -0.07678302377462387, 0.020874161273241043, 0.016020286828279495, 0.2060675024986267, 0.05599968880414963, -0.3625345230102539, -0.17738865315914154, -0.04297233000397682, -0.014676149934530258, 0.0014949697069823742, 0.01985550858080387, -0.07443614304065704, 0.06920687109231949, -0.12199894338846207, 0.05957123637199402, -0.10270816087722778, -0.009455399587750435, -0.4305923581123352, -0.11985153704881668, -0.043636225163936615, -0.07720404118299484, 0.2633098065853119, 0.06519117206335068, 0.01431682426482439, 0.05488737300038338, 0.01796465925872326, -0.08254777640104294, -0.09783816337585449, -0.3062628507614136, 0.06742683798074722, -0.0406348891556263, -0.11952763050794601, 0.10096746683120728, -0.10801935940980911, 0.0838279202580452, 0.07990594953298569, 0.019510418176651, 0.0716530978679657, -0.08406238257884979, 0.20740771293640137, -0.03827190771698952, -0.036545928567647934, 0.13302412629127502, 0.04781739041209221, 0.08969376981258392, 0.018455378711223602, -0.275501549243927, -0.06248168274760246, -0.17926059663295746, -0.022825639694929123, -0.06020650267601013, -0.14681945741176605, -0.1353961080312729, 0.08197585493326187, 0.08917652070522308, 0.2690914273262024, -0.004088058602064848, -0.021533215418457985, -0.015947166830301285, 0.09257759153842926, 0.22024279832839966, 0.057243119925260544, 0.08856131136417389, 0.03431795537471771, 0.1279098093509674, 0.025965919718146324, -0.02048293873667717, 0.10251187533140182, 0.05544864386320114, 0.3940071761608124, 0.10289068520069122, -0.14068767428398132, -0.1262701153755188, 0.19406239688396454, 0.016796551644802094, 0.05047590285539627, 0.004736490547657013, -0.18053773045539856, 0.029239214956760406, 0.13185478746891022, 0.13433541357517242, 0.13010743260383606, 0.21280281245708466, -0.030091887339949608, -0.06576504558324814, 0.12477889657020569, 0.009919777512550354, -0.14760805666446686, -0.11814442276954651, 0.02700924687087536, 0.010041694156825542, -0.03405158594250679, 0.022007206454873085, -0.08783125132322311, 0.11681912839412689, 0.13815827667713165, -0.13278448581695557, -0.07176677882671356, 0.13859441876411438], [0.10854289680719376, 0.004387632943689823, -0.13893243670463562, -0.16499027609825134, -0.01247060764580965, -0.3160387873649597, 0.25989875197410583, 0.02129753679037094, -0.13511644303798676, -0.12337185442447662, 0.10255049914121628, 0.1807193011045456, 0.052796620875597, 0.08622570335865021, 0.08215956389904022, 0.2020164579153061, 0.07112506777048111, -0.21260131895542145, 0.283920556306839, -0.09802503883838654, 0.17344552278518677, -0.15077002346515656, -0.057942431420087814, -0.17966631054878235, -0.05006258189678192, 0.006488619837909937, -0.10721522569656372, -0.06630651652812958, -0.044173382222652435, 0.09872622042894363, -0.1255783885717392, 0.1008942574262619, 0.008721376769244671, 0.08752357959747314, 0.22293120622634888, 0.12049246579408646, -0.10439910739660263, 0.1195605918765068, 0.06558805704116821, -0.09795574098825455, -0.06624887883663177, 0.12118729948997498, -0.03856874257326126, 0.09692779183387756, -0.05726275220513344, 0.09478194266557693, 0.08161167800426483, -0.1903698891401291, 0.05618159845471382, -0.13142278790473938, 0.06101195141673088, -0.0758090615272522, -0.020429058000445366, -0.03697210177779198, 0.06274250149726868, 0.16955775022506714, -0.010299060493707657, -0.2202005386352539, 0.11753324419260025, 0.07864857465028763, -0.08754976093769073, 0.19659124314785004, -0.050802115350961685, -0.007453460246324539, -0.14239077270030975, 0.20517726242542267, -0.06781837344169617, 0.12838517129421234, 0.09216602891683578, 0.0036162119358778, 0.015087280422449112, 0.18876945972442627, -0.07899802178144455, 0.1570393145084381, -0.07383996248245239, -0.17559006810188293, -0.2170029580593109, -0.01359101478010416, -0.21347889304161072, -0.2304508239030838, 0.13083070516586304, 0.02324512042105198, -0.06622796505689621, -0.11976468563079834, -0.08260085433721542, -0.005781428888440132, 0.09740694612264633, -0.09225818514823914, 0.16478857398033142, -0.09545136988162994, 0.05785701051354408, 0.30716413259506226, -0.08433585613965988, -0.1802501082420349, -0.004704605787992477, -0.12602941691875458, -0.06065354123711586, -0.017734693363308907, 0.04220491275191307, 0.09091402590274811, 0.16885168850421906, 0.256489634513855, -0.20735566318035126, -0.01820294000208378, 0.24923574924468994, 0.04527151584625244, -0.15329305827617645, 0.08872595429420471, -0.07596945762634277, -0.24182693660259247, 0.20178459584712982, -0.011798923835158348, 0.02522108517587185, -0.3454294502735138, 0.13999246060848236, 0.04158767685294151, 0.00969802774488926, 0.08754218369722366, -0.287884920835495, -0.10816684365272522, -0.1375097781419754, 0.045301537960767746, 0.06749644130468369, -0.14379194378852844, 0.14109601080417633, 0.16230879724025726, 0.016636522486805916, 0.053887929767370224], [-0.09923456609249115, 0.287959486246109, 0.15564048290252686, -0.050847526639699936, -0.02189944125711918, -0.22189702093601227, -0.018555128946900368, 0.010801856406033039, -0.15045973658561707, 0.06917289644479752, 0.041321925818920135, 0.014195013791322708, -0.023256460204720497, 0.10428190976381302, -0.12753048539161682, 0.2589728534221649, 0.1500026285648346, -0.05254620686173439, -0.0887984037399292, -0.032539550215005875, 0.08396558463573456, -0.034420788288116455, -0.010633481666445732, -0.022948330268263817, -0.11874081939458847, -0.0008719202596694231, -0.10153894871473312, 0.14499245584011078, -0.08900512754917145, 0.04851732403039932, 0.3377794027328491, 0.09374189376831055, -0.04409235343337059, -0.05678164213895798, -0.0763014629483223, 0.10827211290597916, 0.04906875267624855, -0.16476278007030487, -0.16220395267009735, 0.050971709191799164, 0.23598851263523102, 0.017563091591000557, 0.21631063520908356, 0.20845164358615875, 0.02519848942756653, -0.09533325582742691, -0.012262556701898575, -0.10450995713472366, 0.0634179636836052, -0.08870091289281845, -0.049386028200387955, 0.04723428934812546, -0.027505023404955864, 0.033540427684783936, -0.06472256034612656, -0.05190034210681915, 0.0933065265417099, 0.05490996316075325, -0.11373083293437958, 0.028160864487290382, -0.23265396058559418, 0.05156654864549637, -0.1296076625585556, -0.10640887916088104, 0.15607836842536926, -0.10441426932811737, 0.01273917406797409, 0.14398017525672913, 0.14356185495853424, 0.032855790108442307, 0.028545014560222626, -0.05390943959355354, 0.12061791867017746, -0.23033782839775085, 0.07167363166809082, -0.14661961793899536, -0.18886999785900116, -0.008668527007102966, -0.015289202332496643, 0.11255308985710144, 0.02575000189244747, 0.003092986298725009, 0.0179962869733572, 0.008735228329896927, 0.052966631948947906, -0.1533297449350357, -0.010326394811272621, -0.11668434739112854, 0.12332633137702942, -0.19364313781261444, -0.179737851023674, 0.13738133013248444, -0.16108570992946625, -0.08277493715286255, 0.007004547398537397, 0.2082018256187439, -0.18763655424118042, -0.064057357609272, -0.049770697951316833, -0.2031175047159195, -0.008199830539524555, 0.022910943254828453, -0.15908031165599823, 0.15473423898220062, 0.23496665060520172, 0.15042239427566528, 0.15825623273849487, -0.013530870899558067, 0.28065285086631775, -0.07584944367408752, 0.05673801898956299, 0.30488190054893494, -0.23081347346305847, -0.06443169713020325, -0.17411689460277557, -0.152879998087883, -0.13233651220798492, -0.1601196676492691, 0.005483254790306091, 0.23588460683822632, -0.029550861567258835, -0.03488025441765785, -0.0067223249934613705, 0.022417480126023293, -0.03083232417702675, 0.02896886132657528, 0.36233219504356384, 0.061278507113456726], [0.027485186234116554, -0.07317280769348145, 0.11928819119930267, 0.15678411722183228, 0.06278309226036072, 0.021682318300008774, -0.010139858350157738, -0.14631955325603485, 0.07275068014860153, -0.0652739480137825, -0.09787801653146744, -0.13885407149791718, 0.2228979766368866, 0.14459949731826782, 0.11655814945697784, 0.11145368963479996, 0.08159422129392624, -0.058414276689291, 0.13552983105182648, -0.00021668033150490373, 0.19212107360363007, 0.11248115450143814, -0.024582047015428543, -0.3208426535129547, -0.0018330039456486702, 0.037106774747371674, -0.0885419026017189, -0.05846990644931793, -0.3573877811431885, -0.22268588840961456, 0.08926071971654892, -0.06866976618766785, 0.0251334086060524, 0.00010582392860669643, -0.09879733622074127, -0.2354685366153717, 0.28101810812950134, 0.08616761863231659, -0.19886086881160736, 0.16780559718608856, -0.1711907535791397, 0.06742049753665924, -0.11073901504278183, -0.06274735927581787, -0.06991530954837799, 0.002326871966943145, 0.10670343786478043, 0.07547909766435623, 0.2391924113035202, 0.22565564513206482, -0.06165682524442673, -0.13472501933574677, 0.06470652669668198, -0.031082045286893845, -0.016539549455046654, -0.03494967520236969, -0.04585779085755348, 0.08247372508049011, -0.17338155210018158, 0.08113162964582443, 0.22188343107700348, -0.12752743065357208, 0.11068494617938995, 0.04029184207320213, -0.14991652965545654, -0.17712675034999847, 0.11874781548976898, 0.12575338780879974, -0.03162555769085884, -0.046582601964473724, -0.2433234602212906, -0.0936223641037941, -0.06534145772457123, -0.2481772005558014, -0.021651213988661766, -0.00621520821005106, 0.08802361786365509, 0.09335748106241226, -0.1156703382730484, -0.03130558878183365, 0.01038342621177435, -0.11332358419895172, -0.014792578294873238, -0.20069734752178192, 0.0957479253411293, 0.04187338054180145, -0.11386174708604813, 0.11148349195718765, -0.016145795583724976, 0.20871596038341522, 0.28385868668556213, -0.12048377841711044, -0.0766921192407608, 0.08099565654993057, 0.18607336282730103, -0.19291581213474274, -0.14344891905784607, 0.06153535842895508, -0.07710973173379898, -0.07191150635480881, -0.0630386620759964, 0.005281111225485802, 0.22506427764892578, -0.017901534214615822, 0.006135221570730209, 0.06394344568252563, 0.22795310616493225, -0.011993217281997204, 0.12273219972848892, 0.05289074778556824, 0.13967975974082947, -0.01341408584266901, -0.0430825874209404, -0.02738187089562416, 0.07672392576932907, 0.012784412130713463, 0.004216323606669903, -0.1445268839597702, -0.16240307688713074, -0.0579090490937233, -0.11772762984037399, 0.05715930089354515, 0.2282000333070755, 0.09891321510076523, -0.14334407448768616, -0.059244636446237564, -0.052669502794742584, 0.14179477095603943], [-0.06431398540735245, 0.06687513738870621, 0.009922346100211143, 0.1383080929517746, -0.029273686930537224, 0.22618474066257477, 0.24244607985019684, 0.012189796194434166, 0.009537824429571629, -0.2345624715089798, -0.2650926113128662, 0.2045799195766449, 0.14751282334327698, -0.059545714408159256, 0.02921219728887081, 0.0812254399061203, -0.17733849585056305, 0.030055157840251923, -0.027421804144978523, -0.10769303143024445, -0.11231186985969543, -0.050349485129117966, 0.07086900621652603, 0.007016539108008146, 0.1334080547094345, 0.054290156811475754, -0.011497965082526207, -0.1405957192182541, 0.10516362637281418, -0.0469629243016243, 0.2719246447086334, 0.09307976067066193, 0.0603434294462204, -0.07750266045331955, 0.03269578889012337, -0.1294701099395752, -0.11879254132509232, -0.0344233401119709, -0.10606597363948822, -0.048730578273534775, -0.07914229482412338, 0.10459212958812714, 0.04626303166151047, 0.21453163027763367, -0.0007968639256432652, -0.06893987953662872, -0.018834814429283142, -0.08717747032642365, -0.014180566184222698, 0.05827156454324722, -0.0754917562007904, 0.20026560127735138, -0.04053635522723198, -0.0957590639591217, -0.22771897912025452, 0.1351502537727356, -0.09129675477743149, -0.016602223739027977, -0.14726732671260834, 0.3027641773223877, -0.024828463792800903, 0.16424942016601562, 0.14879663288593292, -0.11129811406135559, 0.004036619793623686, -0.05578004568815231, 0.22327417135238647, -0.04747316613793373, -0.19561856985092163, 0.020817000418901443, 0.07957369834184647, -0.012749827466905117, -0.023368319496512413, -0.06354139745235443, -0.4267658591270447, 0.06188987195491791, 0.3120059669017792, -0.031139567494392395, -0.016012854874134064, 0.12249317765235901, 0.029494406655430794, 0.09777572751045227, -0.056171827018260956, -0.003320772899314761, -0.05271066725254059, 0.1770450323820114, -0.09371387213468552, 0.0845561996102333, 0.218852236866951, 0.05764950066804886, -0.03169555589556694, -0.04011855274438858, -0.045564550906419754, 0.1836702525615692, 0.1622215211391449, 0.06315169483423233, -0.11953627318143845, 0.11049273610115051, 0.01051840465515852, -0.05156676471233368, -0.1408979743719101, 0.1672261357307434, -0.12059979140758514, 0.02299680933356285, -0.10145698487758636, 0.002646727953106165, -0.2627240717411041, 0.019383512437343597, -0.11846189945936203, -0.11968813091516495, -0.032895587384700775, 0.12764641642570496, -0.08946705609560013, 0.004654912743717432, 0.1657983660697937, -0.12169168889522552, 0.012010009959340096, -0.07670895010232925, 0.19102706015110016, -0.03632378950715065, -0.10376323759555817, 0.18691639602184296, -0.21159715950489044, 0.08333784341812134, -0.14572051167488098, 0.16413891315460205, -0.03198029100894928, -0.06510107964277267], [-0.024765562266111374, -0.054159149527549744, 0.17276346683502197, -0.05861678719520569, -0.08537855744361877, 0.06656009703874588, 0.22094160318374634, 0.20163637399673462, -0.0741935595870018, 0.043506037443876266, -0.06208696588873863, 0.0920606181025505, 0.2681925594806671, -0.059769388288259506, 0.12167628109455109, 0.1143307015299797, -0.2536744773387909, 0.16069528460502625, 0.09176070243120193, 0.20559117197990417, 0.011076544411480427, 0.22740474343299866, -0.08653080463409424, -0.08518745750188828, 0.19825787842273712, 0.07851177453994751, -0.06705852597951889, 0.08191803842782974, 0.04169636219739914, 0.2680876851081848, -0.04293734207749367, -0.2043013721704483, 0.04431906342506409, -0.2288987934589386, 0.03815734386444092, -0.028339270502328873, 0.11594618856906891, 0.024801360443234444, 0.18584106862545013, -0.0631217435002327, 0.16600632667541504, 0.06362263113260269, -0.11671429127454758, 0.13220353424549103, -0.1639731526374817, -0.0836787298321724, 0.14038407802581787, -0.029888005927205086, 0.15295515954494476, -0.23692815005779266, -0.08463811874389648, -0.17196358740329742, 0.06488794833421707, 0.1438588798046112, 0.12527774274349213, -0.038619909435510635, -0.1383167952299118, -0.1293834000825882, -0.033075883984565735, 0.045045871287584305, -0.010065671056509018, 0.01699715107679367, -0.03859030082821846, 0.0335259847342968, -0.013563023880124092, 0.10736386477947235, 0.15289941430091858, 0.226213738322258, 0.13330335915088654, 0.06161801889538765, 0.013498073443770409, 0.2071332186460495, -0.1489677131175995, -0.15676186978816986, 0.16083578765392303, 0.2696658968925476, -0.12311440706253052, 0.07082309573888779, 0.05048009380698204, -0.1861538589000702, 0.24670489132404327, 0.15627016127109528, 0.16802990436553955, 0.13805651664733887, -0.06001042202115059, 0.1155056580901146, 0.08880461752414703, 0.09138035774230957, 0.05518027022480965, -0.1753585934638977, 0.018003026023507118, -0.005889113526791334, 0.02260059304535389, -0.07213448733091354, -0.18254728615283966, 0.1479610800743103, 0.13571889698505402, -0.03534994274377823, 0.14887598156929016, -0.13075390458106995, 0.10846655070781708, -0.011984763666987419, 0.17232844233512878, -0.009374971501529217, 0.027739183977246284, -0.14773346483707428, -0.2246467024087906, 0.03832094743847847, 0.1182083860039711, 0.034508686512708664, 0.08719741553068161, 0.1622377187013626, 0.06711044162511826, 0.09980788081884384, 0.05500807985663414, -0.16707584261894226, -0.018899353221058846, 0.09620636701583862, 0.15980897843837738, 0.17501726746559143, -0.06992439925670624, -0.10179772228002548, 0.2686753273010254, -0.004762285389006138, -0.012922817841172218, -0.03964955732226372, 0.09165148437023163, 0.11959753930568695], [-0.018097439780831337, 0.033326342701911926, 0.19782401621341705, -0.07068400830030441, -0.009762441739439964, 0.10085148364305496, -0.10872262716293335, -0.007238226011395454, -0.0908581018447876, 0.1962655782699585, 0.0762968361377716, -0.09217576682567596, -0.11853691190481186, 0.023557234555482864, 0.05290061980485916, 0.0029923717956990004, -0.08208388090133667, 0.06305598467588425, 0.30398455262184143, 0.05225147679448128, 0.07820287346839905, -0.2044505774974823, -0.348369836807251, -0.0720725804567337, 0.03980886563658714, -0.17468920350074768, 0.13673721253871918, 0.11528835445642471, -0.04416961967945099, -0.12449343502521515, 0.1251974105834961, -0.014997814781963825, 0.04524397850036621, -0.16409674286842346, 0.19871583580970764, -0.3614308834075928, 0.1534467190504074, -0.11030014604330063, 0.06144014373421669, 0.14457368850708008, 0.021739400923252106, -0.1930450052022934, 0.3214017450809479, -0.0894070714712143, -0.04633881524205208, 0.09717513620853424, 0.04935457184910774, -0.11680790781974792, 0.11522287875413895, 0.08981495350599289, -0.1253054291009903, 0.041462019085884094, 0.003725349437445402, -0.10962647199630737, -0.1223720833659172, -0.0020315521396696568, 0.049309976398944855, -0.12158627063035965, -0.0009113511187024415, -0.031225310638546944, 0.034285735338926315, 0.18024228513240814, -0.10775591433048248, 0.23866133391857147, 0.1387513279914856, -0.024833347648382187, -0.0074783810414373875, -0.37545716762542725, -0.11074372380971909, -0.08483926206827164, 0.036183569580316544, 0.02981221117079258, 0.04459034278988838, -0.08256389945745468, -0.011195016093552113, 0.03028995916247368, -0.21272186934947968, -0.1477176994085312, -0.04144966974854469, -0.01704469323158264, -0.04445498436689377, 0.039641521871089935, 0.014713876880705357, -0.11341248452663422, 0.11117975413799286, 0.07289585471153259, 0.06520027667284012, 0.04003910720348358, -0.014969038777053356, -0.1756000518798828, -0.04405748099088669, -0.3885699510574341, -0.024544423446059227, 0.04034718871116638, -0.03922484815120697, -0.055856943130493164, 0.07924845814704895, 0.1821410059928894, 0.0751233622431755, 0.15003128349781036, 0.00751213263720274, 0.04530145600438118, -0.15628351271152496, 0.09589354693889618, 0.14911490678787231, -0.04563461244106293, -0.08734166622161865, 0.06523850560188293, -0.031285688281059265, -0.14449065923690796, 0.012171462178230286, 0.02371933124959469, 0.15981020033359528, 0.07009007036685944, 0.07001862674951553, 0.1337217390537262, 0.20350953936576843, 0.14582836627960205, 0.10874547809362411, -0.05232185870409012, -0.07608357816934586, -0.09715473651885986, 0.03359392657876015, -0.02432049624621868, -0.020219892263412476, 0.1835370510816574, 0.13088369369506836, 0.020684238523244858], [0.031494107097387314, 0.035980310291051865, -0.2013118863105774, -0.07298233360052109, -0.24095024168491364, -0.13056817650794983, 0.1485971063375473, -0.14743350446224213, -0.06335461139678955, 0.08891882747411728, 0.13222339749336243, -0.12493637949228287, 0.062083952128887177, 0.008759613148868084, -0.03406732901930809, -0.08542019128799438, -0.08024691790342331, -0.05965181812644005, -0.16169895231723785, 0.15529519319534302, -0.18487368524074554, -0.22280000150203705, 0.04557408019900322, -0.09331061691045761, 0.1155044287443161, -0.4144195318222046, 0.21843558549880981, -0.012699021957814693, -0.10617474466562271, 0.13435226678848267, -0.09220988303422928, -0.1362069994211197, 0.12077891826629639, 0.2023700475692749, -0.05013035982847214, 0.014483202248811722, 0.14387641847133636, -0.07527173310518265, -0.05568312108516693, -0.1939360499382019, -0.06052970886230469, 0.004245169460773468, 0.0967438742518425, -0.10259771347045898, -0.1565723568201065, -0.0030995781999081373, -0.04521135985851288, 0.08612126111984253, -0.07186204195022583, -0.08119727671146393, -0.15803317725658417, -0.0072874221950769424, 0.1737767606973648, -0.00397081533446908, 0.295204222202301, -0.09286544471979141, 0.1299595832824707, -0.015091552399098873, -0.1337398737668991, 0.1466168612241745, -0.02511601336300373, -0.1363617181777954, -0.17080529034137726, 0.1694624423980713, 0.00950174406170845, 0.08826947212219238, 0.29076409339904785, 0.01581374555826187, 0.10199960321187973, 0.132426917552948, 0.1638868749141693, -0.03816923126578331, -0.239202618598938, 0.00023603130830451846, -0.04494275152683258, -0.0903741642832756, 0.013432717882096767, -0.0457477793097496, 0.12993398308753967, 0.10176616162061691, -0.03103276528418064, -0.008314927108585835, -0.14409814774990082, 0.02391378954052925, -0.002112744143232703, 0.06712531298398972, -0.19766227900981903, 0.11354304105043411, -0.06545407325029373, -0.114670529961586, -0.001583522534929216, 0.02364262379705906, -0.08766400814056396, 0.18466944992542267, -0.07790663838386536, 0.14543375372886658, -0.14405931532382965, 0.04127137362957001, 0.14825208485126495, -0.049880076199769974, 0.09318134933710098, 0.23793408274650574, -0.025630926713347435, -0.1267860382795334, -0.09331739693880081, 0.01933603733778, 0.03453101962804794, -0.03833005949854851, 0.14846600592136383, -0.11639950424432755, -0.014832496643066406, -0.23330405354499817, 0.11599379032850266, 0.09944212436676025, -0.019871724769473076, -0.12437034398317337, 0.03402816131711006, -0.09039896726608276, -0.054689060896635056, -0.1138736829161644, -0.11483924835920334, 0.2981027662754059, 0.009515908546745777, -0.12263321876525879, -0.03052804060280323, 0.003196925390511751, 0.1936958283185959, 0.10213330388069153], [0.012861100025475025, -0.0700286254286766, 0.044278547167778015, 0.008983847685158253, -0.15989987552165985, -0.09515586495399475, -0.13847321271896362, -0.04772583395242691, -0.02995429001748562, -0.1114138662815094, -0.09494521468877792, -0.11860126256942749, -0.14454591274261475, 0.07145429402589798, 0.14986740052700043, -0.012521577067673206, -0.03670131415128708, 0.06157089024782181, -0.1983126848936081, 0.04633617401123047, -0.14190444350242615, 0.008460401557385921, 0.0682213306427002, 0.029692592099308968, 0.11885552108287811, 0.0678902342915535, -0.14005199074745178, 0.025849172845482826, -0.1489628553390503, 0.1678086370229721, -0.2164137363433838, 0.04753095284104347, 0.09904009103775024, -0.0650637149810791, -0.06265349686145782, -0.12354984134435654, 0.15204668045043945, -0.008859544061124325, 0.2549419403076172, -0.11475721001625061, -0.06994612514972687, -0.005088360048830509, -0.029557013884186745, -0.04886380955576897, 0.14200811088085175, -0.045288365334272385, -0.04682762920856476, -0.1754710078239441, -0.04665783792734146, 0.1314038336277008, 0.15660446882247925, -0.10359083116054535, -0.1192774698138237, -0.06827860325574875, -0.13393710553646088, -0.034833021461963654, -0.14920519292354584, 0.2339087277650833, 0.23323993384838104, 0.17532561719417572, 0.03304025158286095, 0.040735431015491486, 0.002323281718418002, 0.02037043869495392, -0.12989000976085663, 0.09516362845897675, 0.013492530211806297, -0.017162399366497993, 0.11334960162639618, 0.2233448475599289, 0.059631720185279846, -0.0022681874688714743, 0.17561385035514832, 0.037776749581098557, -0.08448489010334015, 0.08364275842905045, -0.11654575169086456, -0.010659678839147091, -0.13987156748771667, -0.059697218239307404, 0.03317699208855629, -0.041838500648736954, 0.20863114297389984, -0.2699851095676422, 0.07183719426393509, -0.016034990549087524, -0.13535965979099274, 0.18945643305778503, -0.1085776537656784, -0.011568917892873287, -0.2411787062883377, -0.020938916131854057, -0.33478742837905884, 0.18851161003112793, 0.12361125648021698, 0.3543301522731781, -0.03138907998800278, -0.15732373297214508, -0.12699173390865326, 0.1630239337682724, -0.14867456257343292, 0.1771077662706375, -0.15331366658210754, -0.11515938490629196, -0.0005938472459092736, -0.016926603391766548, 0.14293773472309113, 0.11419090628623962, 0.02089688740670681, -0.08833566308021545, -0.00803960207849741, -0.034253932535648346, 0.266047865152359, 0.23150359094142914, 0.1330469697713852, -0.06505700200796127, -0.08094107359647751, -0.07623138278722763, -0.07965024560689926, 0.05296424403786659, 0.02723400667309761, -0.1716984659433365, 0.08249947428703308, 0.16401930153369904, 0.09057241678237915, 0.06298818439245224, -0.14873859286308289, 0.06719239056110382], [0.15078505873680115, -0.11841057240962982, 0.0333547405898571, 0.014762748964130878, -0.05551235005259514, -0.10167118906974792, -0.026997504755854607, 0.11679985374212265, -0.03953301161527634, -0.24686798453330994, 0.0936964750289917, 0.0985729768872261, -0.005165962502360344, 0.040912479162216187, 0.009548140689730644, 0.0009811031632125378, -0.289174884557724, 0.0002840243396349251, -0.21187007427215576, 0.030289188027381897, -0.11018091440200806, 0.14515237510204315, -0.07799716293811798, -0.21990616619586945, 0.04559503495693207, -0.012052413076162338, -0.05531870201230049, 0.2940434515476227, 0.07605459541082382, -0.06869647651910782, 0.1307208389043808, -0.0907353013753891, 0.0082638468593359, -0.16218820214271545, -0.03877651318907738, -0.09648848325014114, 0.15329527854919434, 0.322196364402771, 0.09622196108102798, 0.22162939608097076, -0.29060012102127075, -0.13100765645503998, 0.2808021306991577, -0.1117066740989685, 0.12125787138938904, 0.18144679069519043, 0.19268165528774261, -0.10557395964860916, -0.10423073917627335, -0.009558354504406452, -0.015123347751796246, 0.24143224954605103, 0.0861525684595108, -0.1671038269996643, 0.16539496183395386, -0.19227762520313263, -0.07698407024145126, 0.07329767197370529, -0.024193717166781425, 0.05446222424507141, -0.00027623213827610016, -0.14438115060329437, -0.14797285199165344, 0.03782804310321808, 0.01571548543870449, 0.22806362807750702, -0.2620563507080078, 0.046328917145729065, 0.08630811423063278, 0.03742316737771034, -0.1512356847524643, -0.07844764739274979, 0.1656045764684677, 0.08072079718112946, -0.05121302232146263, 0.05215442180633545, 0.08290350437164307, -0.03571738302707672, 0.135195791721344, 0.01618427038192749, 0.0061102318577468395, -0.02402625046670437, 0.030080696567893028, 0.14712496101856232, 0.008369261398911476, 0.051332902163267136, -0.048237767070531845, -0.05415738373994827, -0.08209048211574554, -0.13954804837703705, 0.21351687610149384, 0.21374887228012085, 0.13172775506973267, 0.016497725620865822, -0.11372188478708267, 0.24138401448726654, 0.060390815138816833, 0.06153837963938713, 0.07114896923303604, -0.16594785451889038, -0.08109606802463531, -0.004972986876964569, -0.0037418247666209936, 0.24702982604503632, -0.12960289418697357, -0.18335647881031036, 0.08642818033695221, 0.30905288457870483, -0.00329104857519269, -0.03395700082182884, 0.0796797052025795, -0.018566370010375977, -0.11632325500249863, -0.09246265143156052, 0.11602713167667389, 0.022422047331929207, -0.09029925614595413, -0.11346007883548737, -0.09427676349878311, -0.1967245191335678, -0.08615675568580627, 0.040639735758304596, -0.18422240018844604, 0.08503618836402893, -0.00339102721773088, 0.011319655925035477, -0.02176092192530632, 0.1420682668685913], [0.16049161553382874, -0.10805067420005798, 0.011134308762848377, 0.0761222392320633, -0.04514835402369499, -0.22904512286186218, -0.05064262077212334, -0.017608007416129112, -0.17634037137031555, -0.04227416217327118, -0.036553286015987396, 0.03228219226002693, -0.17622271180152893, 0.3846815526485443, 0.08990583568811417, -0.24783286452293396, -0.03387393057346344, 0.09535008668899536, 0.23513729870319366, -0.15159356594085693, -0.44148898124694824, 0.172881081700325, 0.03896261006593704, 0.10078173130750656, 0.08372492343187332, 0.18376976251602173, 0.035317886620759964, -0.12468097358942032, 0.0248916894197464, 0.02812492474913597, 0.04706230387091637, 0.12204502522945404, -0.028704170137643814, 0.017902860417962074, -0.0722225159406662, 0.07546201348304749, 0.07177112996578217, -0.046694885939359665, 0.03249877691268921, 0.24984177947044373, 0.16891109943389893, 0.1283777505159378, -0.07924747467041016, -0.15991106629371643, -0.15809383988380432, 0.21978263556957245, 0.021896373480558395, -0.04851584881544113, 0.16816498339176178, 0.09150351583957672, 0.18889914453029633, 0.10558738559484482, 0.14972573518753052, 0.0830308273434639, 0.0013343733735382557, 0.1504140943288803, -0.11971718817949295, 0.004312748555094004, -0.14141380786895752, -0.0487682968378067, 0.06669474393129349, -0.12015797942876816, -0.11967579275369644, 0.26754721999168396, 0.01651136204600334, 0.1629694253206253, 0.0854262039065361, -0.046367984265089035, -0.0974859744310379, 0.04589420184493065, -0.03642616420984268, -0.009889439679682255, -0.08568110316991806, -0.056052058935165405, -0.20421350002288818, -0.0003823859733529389, 0.03701150417327881, 0.04556608572602272, 0.10311484336853027, -0.1531165987253189, 0.016327181831002235, 0.0323696993291378, -0.062246426939964294, 0.06842464953660965, -0.04006018862128258, 0.027250418439507484, -0.06968655437231064, 0.02507198601961136, 0.04709959775209427, 0.12025757879018784, -0.03493685647845268, 0.13406865298748016, -0.3933197557926178, -0.20158080756664276, 0.02229396253824234, 0.05783132091164589, 0.027142800390720367, 0.04449201747775078, 0.06108425557613373, -0.06247152388095856, -0.005054078996181488, -0.20293724536895752, -0.04279999062418938, 0.12962491810321808, 0.015138303861021996, 0.13296490907669067, -0.05630336329340935, -0.002615820150822401, -0.04111078009009361, 0.0820290669798851, 0.10940486937761307, 0.036134377121925354, -0.006815239321440458, 0.15875230729579926, -0.008211906999349594, 0.07068849354982376, 0.11356180161237717, 0.07923252880573273, -0.03416172042489052, 0.12895852327346802, 0.08207787573337555, 0.042065490037202835, -0.09145615249872208, -0.17316366732120514, -0.07176468521356583, -0.07195437699556351, 0.2934736907482147, -0.070233553647995], [-0.04064944386482239, -0.02526712790131569, 0.12096204608678818, -0.14074060320854187, 0.06080249696969986, -0.01590036228299141, 0.055717650800943375, 0.23968210816383362, -0.089410200715065, -0.23066005110740662, -0.10157188773155212, 0.010904804803431034, -0.06871397793292999, -0.08169407397508621, -0.08161503076553345, -0.18743859231472015, 0.2439834177494049, 0.050950776785612106, 0.056135356426239014, -0.03362853452563286, 0.00018340519454795867, -0.24346497654914856, 0.08768334984779358, -0.052191779017448425, -0.0923718512058258, 0.03651019185781479, -0.01698821410536766, -0.14741787314414978, 0.015850210562348366, -0.0524635948240757, 0.07884415239095688, 0.05297864228487015, -0.021420150995254517, 0.06845274567604065, 0.05826661363244057, -0.36048731207847595, 0.06998743861913681, 0.22089079022407532, 0.07161425799131393, 0.0953301265835762, 0.19021476805210114, -0.11356723308563232, 0.17526167631149292, -0.07031793147325516, 0.040257494896650314, 0.05869300663471222, 0.07259009033441544, -0.019110003486275673, -0.08435516059398651, 0.02873941883444786, 0.16866262257099152, 0.0928034633398056, -0.01870168000459671, 0.060488078743219376, -0.05001714453101158, -0.07084909826517105, 0.016536619514226913, 0.1644836813211441, 0.05182813107967377, -0.10555963218212128, 0.1346450299024582, -0.013945831917226315, 0.1013445183634758, -0.10197671502828598, 0.06248824670910835, 0.0043410612270236015, 0.2585132122039795, 0.2759917080402374, 0.030953969806432724, 0.0701080858707428, 0.13816948235034943, 0.04220138117671013, -0.1249426081776619, 0.07981710135936737, 0.024540673941373825, 0.1671551764011383, 0.12085344642400742, 0.25447505712509155, 0.04504379257559776, -0.13486753404140472, -0.0009855213575065136, 0.06989610195159912, -0.1613682061433792, 0.09452538192272186, 0.07050114870071411, 0.0641927719116211, -0.12260352820158005, -0.009615560993552208, -0.31419992446899414, -0.22994276881217957, 0.1228894293308258, -0.05921371653676033, -0.05742182582616806, 0.09911996126174927, -0.021335329860448837, 0.10184086114168167, 0.002111546229571104, 0.0004900884232483804, -0.02504066377878189, 0.09924579411745071, 0.021743979305028915, -0.01244495902210474, 0.018239926546812057, 0.08200807869434357, 0.18729452788829803, 0.1439203917980194, -0.1736849546432495, -0.27947571873664856, -0.039806317538022995, -0.0037719171959906816, 0.12021195888519287, -0.06014397740364075, -0.02481205016374588, -0.12824870645999908, -0.41137680411338806, 0.024321096017956734, -0.04245186969637871, -0.21465079486370087, 0.08503065258264542, -0.11333603411912918, -0.16485242545604706, -0.11990118771791458, -0.022682081907987595, -0.20005783438682556, 0.028686825186014175, -0.06720714271068573, -0.1458536684513092, 0.053827375173568726], [0.13151215016841888, -0.10833611339330673, 0.15447358787059784, -0.14870011806488037, 0.013308541849255562, -0.11820584535598755, -0.11584282666444778, 0.11516693979501724, -0.050708502531051636, 0.05354238674044609, 0.08534304797649384, 0.02447580173611641, 0.1436314731836319, 0.050104811787605286, -0.03328270465135574, -0.22883108258247375, -0.0510721392929554, 0.23897521197795868, -0.04738396406173706, -0.15988387167453766, -0.03473041579127312, 0.12321162223815918, 0.28943556547164917, 0.073968805372715, 0.0973803699016571, -0.0699658989906311, -0.04510342329740524, 0.03713907673954964, -0.21966226398944855, 0.0054330285638570786, 0.3239399194717407, -0.10698460042476654, 0.13906127214431763, 5.323901496012695e-05, 0.04516566917300224, 0.15779127180576324, -0.10982499271631241, 0.23004288971424103, 0.18081925809383392, -0.12272601574659348, -0.20205257833003998, -0.07446975260972977, 0.14845900237560272, 0.05506336688995361, 0.07533019036054611, -0.25393667817115784, 0.14699381589889526, 0.06398486346006393, -0.04427920654416084, 0.08682936429977417, 0.05378277227282524, -0.2169664353132248, 0.09809394925832748, -0.00845280010253191, -0.07003141194581985, 0.11800530552864075, 0.17898507416248322, 0.0022228676825761795, 0.0003257271891925484, -0.08079836517572403, -0.08531421422958374, -0.053424686193466187, -0.016765056177973747, 0.0998271107673645, 0.1368551254272461, -0.09389123320579529, 0.08889167755842209, 0.032129403203725815, -0.306896835565567, -0.0014788967091590166, 0.17203380167484283, 0.26735663414001465, -0.05400078371167183, 0.1836106926202774, 0.11826079338788986, 0.16210556030273438, -0.06652522087097168, -0.06277034431695938, 0.06782161444425583, 0.01258853916078806, -0.018239742144942284, -0.13630442321300507, 0.1484222114086151, 0.046207331120967865, 0.12829184532165527, -0.11036232858896255, 0.19662843644618988, 0.13141484558582306, -0.11430344730615616, 0.1386416107416153, 0.07098744064569473, -0.097162164747715, -0.14356504380702972, -0.17161646485328674, 0.06224260851740837, -0.09517953544855118, -0.18750004470348358, -0.01603660359978676, 0.07790682464838028, -0.018698561936616898, 0.22943636775016785, 0.05367176607251167, -0.12887342274188995, -0.08925983309745789, 0.12571516633033752, 0.0010432000271975994, 0.004014264792203903, 0.06891211122274399, 0.026939822360873222, -0.062055159360170364, -0.03043338656425476, 0.013126328587532043, -0.04704715311527252, 0.01983414590358734, 0.08509009331464767, 0.0015934407711029053, -0.21548575162887573, 0.09463834017515182, -0.03198356553912163, 0.029965318739414215, -0.2968387305736542, 0.15388573706150055, -0.22352981567382812, 0.15345366299152374, 0.07411044836044312, 0.013851947151124477, -0.014509367756545544, 0.03235868737101555]], "b": [-0.013746226206421852, 0.02453276887536049, -0.025006143376231194, -0.006669499445706606, 0.014444071799516678, -0.009015584364533424, -0.001789141446352005, 0.016377564519643784, 0.011847313493490219, 0.021712033078074455, 0.02169964648783207, 0.01027666125446558, 0.008522405289113522, -0.011010413058102131, -0.029240494593977928, 0.01232938002794981, 0.016592327505350113, -0.007440982386469841, 0.02662205696105957, -0.0034676187206059694, 0.00925480481237173, -0.01607031747698784, -0.009559251368045807, 0.009176183491945267, -0.037225376814603806, -0.013891593553125858, 0.011200303211808205, -0.022680485621094704, 0.015444175340235233, -0.020196978002786636, 0.00952500943094492, -0.012709413655102253, -0.0014474930940195918, 0.019245954230427742, -0.024665718898177147, 0.038734372705221176, -0.026207977905869484, -0.023942526429891586, -0.007356909103691578, 0.020838195458054543, 0.014820778742432594, 0.029362360015511513, -0.030459636822342873, -0.003439252730458975, -0.03017248958349228, -0.01902068965137005, 0.014213364571332932, 0.013226396404206753, 0.014357870444655418, -0.02114504761993885, 0.00210692104883492, -0.039205316454172134, -0.030004102736711502, 0.004399032797664404, 0.025287004187703133, 0.02954932302236557, 0.04053950309753418, -0.027245227247476578, 0.031200705096125603, -0.004509391728788614, -0.02665027789771557, 0.029059069231152534, -0.021036453545093536, 0.01798509992659092, 0.006082497071474791, -0.02400083653628826, -0.009385358542203903, 0.01162413414567709, -0.010289441794157028, -0.04125974327325821, -0.0013891300186514854, 0.0038803769275546074, 0.0030479964334517717, -0.011141855269670486, -0.02117101289331913, -0.006758382543921471, -0.008531657047569752, -0.0032910106237977743, -0.02333110198378563, -0.00610007718205452, -0.015193242579698563, -0.022581715136766434, -0.0045804050751030445, -0.03147599473595619, 0.015895210206508636, -0.004876952152699232, -0.013159496709704399, -0.030953794717788696, 0.027627430856227875, 0.003663269802927971, -0.03190447390079498, 0.029873516410589218, -0.004906812682747841, -0.051971983164548874, -0.0014165891334414482, -0.024569401517510414, -0.004279999528080225, -0.0034182157833129168, 0.02255966141819954, 0.00716056302189827, 0.012985276989638805, 0.006235947832465172, -0.01763596199452877, -0.013523487374186516, 0.029890483245253563, -0.02233074977993965, -0.024772001430392265, -0.015500516630709171, 0.012625535950064659, -0.02622390352189541, 0.022575927898287773, 0.020965589210391045, 0.019998818635940552, -0.02765333279967308, -0.008817327208817005, 0.009176045656204224, -0.008157587610185146, -0.007924114353954792, -0.003932206891477108, -0.01461934857070446, 0.029291654005646706, 0.02291274257004261, -0.007898569107055664, -0.027829404920339584, -0.018188370391726494, 0.008740562945604324, -0.0029075113125145435, -0.0008464709389954805]}, {"w": [[0.04748152196407318, -0.1155288815498352, 0.036332447081804276, 0.2392788529396057, -0.12424183636903763, 0.21023200452327728, 0.02338946983218193, -0.12008846551179886, 0.004945911932736635, -0.16987986862659454, -0.03150738403201103, -0.11665228009223938, -0.14185748994350433, 0.07368358224630356, 0.04784652218222618, 0.1094660609960556, -0.03596740588545799, -0.03386460989713669, 0.07049637287855148, 0.14333906769752502, 0.18565289676189423, -0.016221143305301666, 0.04335420951247215, -0.062444109469652176, -0.09506601840257645, -0.13671478629112244, -0.13056914508342743, 0.20703153312206268, -0.06468578428030014, 0.10953714698553085, 0.03381592035293579, -0.1784285306930542, -0.13158434629440308, 0.05792722851037979, 0.031001964583992958, 0.09885731339454651, -0.07528882473707199, 0.029449831694364548, -0.0374370738863945, -0.2341156303882599, -0.10511521250009537, 0.1013517752289772, -0.00254077254794538, -0.13405880331993103, 0.2560504376888275, 0.02483374997973442, -0.03151439502835274, -0.09538907557725906, 0.10576596856117249, -0.210248202085495, 0.027556441724300385, -0.06521178781986237, -0.013603739440441132, 0.06622687727212906, 0.297689825296402, -0.1194029301404953, 0.01805785670876503, -0.14095628261566162, -0.19007495045661926, 0.12883414328098297, -0.009206781163811684, 0.11480431258678436, -0.12307879328727722, -0.2881276309490204], [0.2879350781440735, -0.10413379967212677, -0.034137267619371414, 0.006070979405194521, -0.1169678270816803, 0.10245321691036224, 0.3064727187156677, -0.06399303674697876, 0.016488095745444298, 0.10863248258829117, -0.03312685713171959, -0.08904024958610535, 0.031867627054452896, -0.04515710473060608, 0.20790702104568481, -0.04903549328446388, -0.2196582406759262, 0.02702445536851883, -0.03841958940029144, -0.22784502804279327, -0.10271412879228592, -0.09372766315937042, 0.1098480075597763, -0.16339190304279327, 0.10343602299690247, 0.24069544672966003, 0.11128386110067368, 0.16379690170288086, 0.00379605102352798, 0.008230387233197689, 0.0972764641046524, 0.48870548605918884, -0.045122548937797546, 0.025830700993537903, -0.08930394798517227, -0.005802677478641272, 0.022475391626358032, 0.03207504749298096, 0.1151115894317627, -0.03607895225286484, 0.1740669459104538, 0.0032889165449887514, -0.10657086968421936, 0.17024168372154236, 0.08962614089250565, 0.24174335598945618, 0.11055519431829453, 0.13697274029254913, 0.08507639914751053, -0.02915133535861969, 0.008690225891768932, 0.045099545270204544, 0.07628758996725082, 0.11762647330760956, -0.046960264444351196, -0.11868437379598618, 0.09465157240629196, -0.03572401776909828, 0.0830247700214386, 0.18945181369781494, 0.03010537289083004, -0.037372954189777374, 0.11860334128141403, -0.08341492712497711], [0.026723183691501617, 0.0675806924700737, -0.07504945248365402, 0.08360438048839569, 0.05925982445478439, 0.11684725433588028, 0.1036682277917862, 0.09523458033800125, -0.08351253718137741, 0.13992972671985626, -0.06597612053155899, 0.07288707792758942, 0.08956411480903625, -0.12459368258714676, -0.22932106256484985, 0.14019307494163513, -0.007059748750180006, -0.07230571657419205, 0.04411301761865616, -0.010060847736895084, -0.047746963798999786, -0.0671917051076889, 